GenomeStart 125148
Neuron 1 1 0.00000000 1 0.00000000 0.00000000 0.00000000 0.00000000
Neuron 2 1 0.00000000 1 0.00000000 0.00000000 0.00000000 0.00000000
Neuron 3 1 0.00000000 1 0.00000000 0.00000000 0.00000000 0.00000000
Neuron 4 1 0.00000000 1 0.00000000 0.00000000 0.00000000 0.00000000
Neuron 5 1 0.00000000 1 0.00000000 0.00000000 0.00000000 0.00000000
Neuron 6 1 0.00000000 1 0.00000000 0.00000000 0.00000000 0.00000000
Neuron 7 2 0.00000000 1 0.00000000 0.00000000 0.00000000 0.00000000
Neuron 8 4 1.00000000 6 0.75000000 0.00000000 0.00000000 0.00000000
Neuron 9 4 1.00000000 5 0.75000000 0.00000000 0.00000000 0.00000000
Neuron 10 3 0.50000000 6 0.75000000 0.00000000 0.00000000 0.00000000
Neuron 11 3 0.50000000 6 0.75000000 0.00000000 0.00000000 0.00000000
Neuron 14 3 0.25000000 4 1.00000000 0.00000000 0.00000000 0.00000000
Neuron 20 3 0.25000000 4 1.00000000 0.00000000 0.00000000 0.00000000
Link 1 10 1 0 -1.61554265
Link 4 10 2 0 -0.66161649
Link 10 9 3 0 -0.39902072
Link 5 11 5 0 0.50907643
Link 11 8 7 0 -1.97997018
Link 7 11 8 0 -0.51794725
Link 1 8 10 0 0.69592271
Link 7 10 12 0 -0.31493015
Link 2 14 24 0 0.89021876
Link 14 11 25 0 1.69656614
Link 10 11 38 0 -0.12408684
Link 3 9 44 0 -0.29912582
Link 3 20 56 0 -0.11346298
Link 20 10 57 0 -0.85806824
Link 4 9 61 0 -0.08504099
GenomeEnd
