GenomeStart 149957
Neuron 1 1 0.00000000 1 0.00000000 0.00000000 0.00000000 0.00000000
Neuron 2 1 0.00000000 1 0.00000000 0.00000000 0.00000000 0.00000000
Neuron 3 1 0.00000000 1 0.00000000 0.00000000 0.00000000 0.00000000
Neuron 4 1 0.00000000 1 0.00000000 0.00000000 0.00000000 0.00000000
Neuron 5 1 0.00000000 1 0.00000000 0.00000000 0.00000000 0.00000000
Neuron 6 1 0.00000000 1 0.00000000 0.00000000 0.00000000 0.00000000
Neuron 7 2 0.00000000 1 0.00000000 0.00000000 0.00000000 0.00000000
Neuron 8 4 1.00000000 0 1.00000000 0.00000000 0.00000000 0.00000000
Neuron 9 4 1.00000000 0 1.00000000 0.00000000 0.00000000 0.00000000
Neuron 10 3 0.50000000 6 1.00000000 0.00000000 0.00000000 0.00000000
Neuron 11 3 0.50000000 6 1.00000000 0.00000000 0.00000000 0.00000000
Neuron 12 3 0.25000000 8 1.00000000 0.00000000 0.00000000 0.00000000
Neuron 13 3 0.25000000 13 1.00000000 0.00000000 0.00000000 0.00000000
Neuron 14 3 0.75000000 4 1.00000000 0.00000000 0.00000000 0.00000000
Neuron 16 3 0.12500000 13 1.00000000 0.00000000 0.00000000 0.00000000
Neuron 20 3 0.25000000 8 1.00000000 0.00000000 0.00000000 0.00000000
Neuron 30 3 0.06250000 0 1.00000000 0.00000000 0.00000000 0.00000000
Neuron 36 3 0.50000000 6 1.00000000 0.00000000 0.00000000 0.00000000
Neuron 41 3 0.12500000 9 1.00000000 0.00000000 0.00000000 0.00000000
Neuron 44 3 0.62500000 13 1.00000000 0.00000000 0.00000000 0.00000000
Neuron 48 3 0.12500000 9 1.00000000 0.00000000 0.00000000 0.00000000
Neuron 59 3 0.12500000 0 1.00000000 0.00000000 0.00000000 0.00000000
Neuron 63 3 0.18750000 0 1.00000000 0.00000000 0.00000000 0.00000000
Neuron 66 3 0.56250000 13 1.00000000 0.00000000 0.00000000 0.00000000
Neuron 68 3 0.18750000 0 1.00000000 0.00000000 0.00000000 0.00000000
Neuron 81 3 0.18750000 9 1.00000000 0.00000000 0.00000000 0.00000000
Neuron 91 3 0.15625000 9 1.00000000 0.00000000 0.00000000 0.00000000
Neuron 92 3 0.14062500 8 1.00000000 0.00000000 0.00000000 0.00000000
Neuron 109 3 0.31250000 4 1.00000000 0.00000000 0.00000000 0.00000000
Neuron 119 3 0.09375000 6 1.00000000 0.00000000 0.00000000 0.00000000
Neuron 131 3 0.37500000 8 1.00000000 0.00000000 0.00000000 0.00000000
Link 4 10 2 0 1.32876065
Link 11 8 6 0 -0.83131522
Link 7 11 7 0 0.19715065
Link 7 9 8 0 -0.06447289
Link 6 11 10 0 -0.49830150
Link 12 11 14 0 1.11102122
Link 10 8 15 0 1.82925263
Link 1 13 17 0 2.89564746
Link 13 10 18 0 1.85685029
Link 10 14 21 0 1.00000000
Link 14 9 22 0 3.33819421
Link 2 16 29 0 -0.45537015
Link 16 12 30 0 1.33841121
Link 5 12 37 0 -0.54926515
Link 1 8 41 0 -0.23472655
Link 5 20 51 0 1.34067630
Link 20 11 52 0 1.23388406
Link 3 8 72 0 0.35457296
Link 2 30 99 0 1.00000000
Link 30 16 100 0 1.41273720
Link 5 8 115 0 0.07385350
Link 20 9 119 0 0.83365594
Link 10 36 145 0 1.00000000
Link 36 11 146 0 -0.04410980
Link 2 41 176 0 1.00000000
Link 41 20 177 0 0.77185761
Link 13 44 194 0 1.00000000
Link 44 8 195 0 -0.13156538
Link 4 48 212 0 1.47288735
Link 16 10 234 0 0.39804838
Link 16 8 245 0 0.46735389
Link 2 59 281 0 1.00000000
Link 30 8 288 0 -0.31474119
Link 1 30 290 0 -0.15668605
Link 30 44 291 0 0.54547824
Link 5 59 296 0 0.10995387
Link 30 11 304 0 -0.05577863
Link 48 63 309 0 1.00000000
Link 63 20 310 0 0.49365933
Link 30 59 319 0 -0.17054407
Link 16 66 326 0 1.00000000
Link 66 8 327 0 -0.66209004
Link 16 68 336 0 1.00000000
Link 68 20 337 0 0.75610434
Link 59 20 382 0 0.26138721
Link 30 66 383 0 0.04531407
Link 1 66 385 0 0.23840530
Link 81 12 413 0 -0.38341256
Link 12 66 414 0 0.52169641
Link 59 36 462 0 0.76592485
Link 91 81 471 0 1.00000000
Link 1 44 472 0 0.06448003
Link 59 92 474 0 1.00000000
Link 92 91 475 0 1.00000000
Link 81 11 482 0 0.43304084
Link 92 8 584 0 -0.71592130
Link 2 109 589 0 1.00000000
Link 109 44 590 0 0.15679652
Link 30 36 611 0 0.14464507
Link 16 109 613 0 -0.30187534
Link 41 91 651 0 -0.38945461
Link 20 109 652 0 -0.11134784
Link 30 119 659 0 1.00000000
Link 119 48 660 0 -0.01425042
Link 68 81 665 0 -0.37310050
Link 91 44 704 0 -0.18394079
Link 7 36 716 0 -0.06642355
Link 92 63 737 0 0.66962751
Link 68 63 742 0 -0.01326933
Link 12 36 747 0 0.65980205
Link 16 131 762 0 1.00000000
Link 131 44 763 0 -0.12874959
Link 91 109 817 0 0.24604986
Link 5 131 893 0 0.33749842
GenomeEnd

