GenomeStart 37442
Neuron 1 1 0.00000000 1 0.00000000 0.00000000 0.00000000 0.00000000
Neuron 2 1 0.00000000 1 0.00000000 0.00000000 0.00000000 0.00000000
Neuron 3 1 0.00000000 1 0.00000000 0.00000000 0.00000000 0.00000000
Neuron 4 1 0.00000000 1 0.00000000 0.00000000 0.00000000 0.00000000
Neuron 5 1 0.00000000 1 0.00000000 0.00000000 0.00000000 0.00000000
Neuron 6 1 0.00000000 1 0.00000000 0.00000000 0.00000000 0.00000000
Neuron 7 2 0.00000000 1 0.00000000 0.00000000 0.00000000 0.00000000
Neuron 8 4 1.00000000 0 1.00000000 0.00000000 0.00000000 0.00000000
Neuron 9 4 1.00000000 5 1.00000000 0.00000000 0.00000000 0.00000000
Neuron 10 3 0.50000000 6 1.00000000 0.00000000 0.00000000 0.00000000
Neuron 11 3 0.50000000 6 1.00000000 0.00000000 0.00000000 0.00000000
Neuron 12 3 0.25000000 8 1.00000000 0.00000000 0.00000000 0.00000000
Neuron 13 3 0.25000000 13 1.00000000 0.00000000 0.00000000 0.00000000
Neuron 16 3 0.12500000 0 1.00000000 0.00000000 0.00000000 0.00000000
Neuron 20 3 0.25000000 8 1.00000000 0.00000000 0.00000000 0.00000000
Link 4 10 2 0 1.41516880
Link 10 9 3 0 3.33085926
Link 2 11 4 0 0.02706112
Link 11 8 6 0 -0.62681545
Link 7 11 7 0 -0.17705419
Link 7 9 8 0 -0.06278438
Link 6 11 10 0 -0.24293714
Link 10 11 11 0 -0.58732182
Link 12 11 14 0 1.05320294
Link 10 8 15 0 1.72814795
Link 1 13 17 0 2.84828282
Link 13 10 18 0 2.08134815
Link 2 16 29 0 1.00000000
Link 16 12 30 0 0.74796027
Link 5 12 37 0 -0.29287555
Link 5 20 51 0 1.26133955
Link 20 11 52 0 1.01975754
Link 13 8 53 0 -0.02265684
Link 4 20 62 0 0.08856877
Link 3 8 72 0 0.80886637
Link 20 9 119 0 1.22493743
Link 2 20 158 0 0.73924270
GenomeEnd

