GenomeStart 112455
Neuron 1 1 0.00000000 1 0.00000000 0.00000000 0.00000000 0.00000000
Neuron 2 1 0.00000000 1 0.00000000 0.00000000 0.00000000 0.00000000
Neuron 3 1 0.00000000 1 0.00000000 0.00000000 0.00000000 0.00000000
Neuron 4 1 0.00000000 1 0.00000000 0.00000000 0.00000000 0.00000000
Neuron 5 1 0.00000000 1 0.00000000 0.00000000 0.00000000 0.00000000
Neuron 6 1 0.00000000 1 0.00000000 0.00000000 0.00000000 0.00000000
Neuron 7 2 0.00000000 1 0.00000000 0.00000000 0.00000000 0.00000000
Neuron 8 4 1.00000000 0 1.00000000 0.00000000 0.00000000 0.00000000
Neuron 9 4 1.00000000 5 1.00000000 0.00000000 0.00000000 0.00000000
Neuron 10 3 0.50000000 6 1.00000000 0.00000000 0.00000000 0.00000000
Neuron 11 3 0.50000000 6 1.00000000 0.00000000 0.00000000 0.00000000
Neuron 12 3 0.25000000 8 1.00000000 0.00000000 0.00000000 0.00000000
Neuron 13 3 0.25000000 13 1.00000000 0.00000000 0.00000000 0.00000000
Neuron 16 3 0.12500000 13 1.00000000 0.00000000 0.00000000 0.00000000
Neuron 20 3 0.25000000 8 1.00000000 0.00000000 0.00000000 0.00000000
Neuron 31 3 0.25000000 4 1.00000000 0.00000000 0.00000000 0.00000000
Neuron 84 3 0.56250000 0 1.00000000 0.00000000 0.00000000 0.00000000
Link 4 10 2 0 1.38107377
Link 10 9 3 0 2.85850871
Link 2 11 4 0 -0.29135615
Link 5 11 5 0 -0.16029157
Link 11 8 6 0 -0.19384612
Link 7 11 7 0 -0.19326255
Link 7 9 8 0 0.10167087
Link 3 11 9 0 -0.03088845
Link 6 11 10 0 0.31230787
Link 10 11 11 0 -0.20848168
Link 2 12 13 0 0.03155187
Link 12 11 14 0 1.15893830
Link 10 8 15 0 1.41683067
Link 1 13 17 0 2.79555394
Link 13 10 18 0 2.03997521
Link 2 9 19 0 -0.17567729
Link 2 16 29 0 1.45271567
Link 16 12 30 0 0.87940744
Link 5 12 37 0 0.02091615
Link 5 20 51 0 1.72874885
Link 20 11 52 0 1.31471708
Link 13 8 53 0 -0.45354123
Link 4 20 62 0 0.74461504
Link 3 9 71 0 -1.08587696
Link 3 8 72 0 0.44822778
Link 1 12 76 0 -0.15839512
Link 4 31 102 0 1.00000000
Link 31 11 103 0 -0.02042000
Link 2 8 109 0 -0.08485453
Link 5 10 114 0 0.09882682
Link 20 9 119 0 0.73384826
Link 20 10 142 0 0.00478877
Link 2 20 158 0 0.37445625
Link 1 20 164 0 0.45983650
Link 12 10 167 0 -0.34693920
Link 12 20 168 0 -0.24219291
Link 13 11 204 0 0.54828114
Link 1 16 217 0 -0.33591653
Link 16 8 245 0 0.62351715
Link 5 16 377 0 0.00625754
Link 16 84 423 0 1.00000000
Link 84 9 424 0 0.37703250
Link 20 31 541 0 0.92701335
Link 1 31 596 0 -0.45135895
Link 5 31 612 0 -0.26024498
GenomeEnd

