NEAT_ParametersStart
PopulationSize 125
DynamicCompatibility true
MinSpecies 1
MaxSpecies 15
InnovationsForever true
AllowClones true
YoungAgeTreshold 15
YoungAgeFitnessBoost 1.10000000000000008882
SpeciesDropoffAge 50
StagnationDelta 0.00000000000000000000
OldAgeTreshold 35
OldAgePenalty 1.00000000000000000000
DetectCompetetiveCoevolutionStagnation false
KillWorstSpeciesEach 15
KillWorstAge 10
SurvivalRate 0.20000000000000001110
CrossoverRate 0.50000000000000000000
OverallMutationRate 0.00000000000000000000
InterspeciesCrossoverRate 0.00010000000000000000
MultipointCrossoverRate 0.75000000000000000000
RouletteWheelSelection false
PhasedSearching false
DeltaCoding false
SimplifyingPhaseMPCTreshold 20
SimplifyingPhaseStagnationTreshold 30
ComplexityFloorGenerations 40
NoveltySearch_K 15
NoveltySearch_P_min 0.50000000000000000000
NoveltySearch_Dynamic_Pmin true
NoveltySearch_No_Archiving_Stagnation_Treshold 150
NoveltySearch_Pmin_lowering_multiplier 0.90000000000000002220
NoveltySearch_Pmin_min 0.05000000000000000278
NoveltySearch_Quick_Archiving_Min_Evaluations 8
NoveltySearch_Pmin_raising_multiplier 1.10000000000000008882
NoveltySearch_Recompute_Sparseness_Each 25
MutateAddNeuronProb 0.01000000000000000021
SplitRecurrent true
SplitLoopedRecurrent true
NeuronTries 56885293
MutateAddLinkProb 0.02999999999999999889
MutateAddLinkFromBiasProb 0.00000000000000000000
MutateRemLinkProb 0.01000000000000000021
MutateRemSimpleNeuronProb 0.00000000000000000000
LinkTries 32
RecurrentProb 0.00100000000000000002
RecurrentLoopProb 0.25000000000000000000
MutateWeightsProb 0.90000000000000002220
MutateWeightsSevereProb 0.01000000000000000021
WeightMutationRate 1.00000000000000000000
WeightMutationMaxPower 0.80000000000000004441
WeightReplacementMaxPower 1.00000000000000000000
MaxWeight 5.00000000000000000000
MutateActivationAProb 0.00000000000000000000
MutateActivationBProb 0.00000000000000000000
ActivationAMutationMaxPower 0.00000000000000000000
ActivationBMutationMaxPower 0.00000000000000000000
TimeConstantMutationMaxPower 0.00000000000000000000
BiasMutationMaxPower 1.00000000000000000000
MinActivationA 1.00000000000000000000
MaxActivationA 0.50000000000000000000
MinActivationB 0.00000000000000000000
MaxActivationB 0.00000000000000000000
MutateNeuronActivationTypeProb 0.02999999999999999889
ActivationFunction_SignedSigmoid_Prob 0.16000000000000000333
ActivationFunction_UnsignedSigmoid_Prob 0.00000000000000000000
ActivationFunction_Tanh_Prob 0.00000000000000000000
ActivationFunction_TanhCubic_Prob 0.00000000000000000000
ActivationFunction_SignedStep_Prob 0.16000000000000000333
ActivationFunction_UnsignedStep_Prob 0.00000000000000000000
ActivationFunction_SignedGauss_Prob 0.16000000000000000333
ActivationFunction_UnsignedGauss_Prob 0.00000000000000000000
ActivationFunction_Abs_Prob 0.16000000000000000333
ActivationFunction_SignedSine_Prob 0.16000000000000000333
ActivationFunction_UnsignedSine_Prob 0.00000000000000000000
ActivationFunction_SignedSquare_Prob 0.00000000000000000000
ActivationFunction_UnsignedSquare_Prob 0.00000000000000000000
ActivationFunction_Linear_Prob 0.16000000000000000333
MutateNeuronTimeConstantsProb 0.00000000000000000000
MutateNeuronBiasesProb 0.00000000000000000000
MinNeuronTimeConstant 0.00000000000000000000
MaxNeuronTimeConstant 0.00000000000000000000
MinNeuronBias 0.00000000000000000000
MaxNeuronBias 0.00000000000000000000
DisjointCoeff 1.00000000000000000000
ExcessCoeff 1.00000000000000000000
ActivationADiffCoeff 0.00000000000000000000
ActivationBDiffCoeff 0.00000000000000000000
WeightDiffCoeff 0.50000000000000000000
TimeConstantDiffCoeff 0.00000000000000000000
BiasDiffCoeff 0.00000000000000000000
ActivationFunctionDiffCoeff 0.00000000000000000000
CompatTreshold 1.00000000000000000000
MinCompatTreshold 0.20000000000000001110
CompatTresholdModifier 0.29999999999999998890
CompatTreshChangeInterval_Generations 1
CompatTreshChangeInterval_Evaluations 10
DivisionThreshold 0.50000000000000000000
VarianceThreshold 0.02999999999999999889
BandThreshold 0.29999999999999998890
InitialDepth 3
MaxDepth 5
IterationLevel 1
CPPN_Bias -1.000000
Width 1.00000000000000000000
Height 0.50000000000000000000
Qtree_X 0.00000000000000000000
Qtree_Y 0.50000000000000000000
Leo true
LeoThreshold 0.10000000000000000555
LeoSeed true
TournamentSize2
Elitism0.100000
NEAT_ParametersEnd
InnovationDatabaseStart
NextInnovNum: 10
NextNeuronID: 12
Innovation 1 1 1 10 0 -1
Innovation 2 1 4 10 0 -1
Innovation 3 1 10 9 0 -1
Innovation 4 1 2 11 0 -1
Innovation 5 1 5 11 0 -1
Innovation 6 1 11 9 0 -1
Innovation 7 1 11 8 0 -1
Innovation 8 1 7 11 0 -1
Innovation 9 1 7 9 0 -1
InnovationDatabaseEnd

GenomeStart 125
Neuron 1 1 0.00000000 1 0.00000000 0.00000000 0.00000000 0.00000000
Neuron 2 1 0.00000000 1 0.00000000 0.00000000 0.00000000 0.00000000
Neuron 3 1 0.00000000 1 0.00000000 0.00000000 0.00000000 0.00000000
Neuron 4 1 0.00000000 1 0.00000000 0.00000000 0.00000000 0.00000000
Neuron 5 1 0.00000000 1 0.00000000 0.00000000 0.00000000 0.00000000
Neuron 6 1 0.00000000 1 0.00000000 0.00000000 0.00000000 0.00000000
Neuron 7 2 0.00000000 1 0.00000000 0.00000000 0.00000000 0.00000000
Neuron 8 4 1.00000000 6 0.75000000 0.00000000 0.00000000 0.00000000
Neuron 9 4 1.00000000 5 0.75000000 0.00000000 0.00000000 0.00000000
Neuron 10 3 0.50000000 6 0.75000000 0.00000000 0.00000000 0.00000000
Neuron 11 3 0.50000000 6 0.75000000 0.00000000 0.00000000 0.00000000
Link 1 10 1 0 -0.58440830
Link 4 10 2 0 -0.02347680
Link 10 9 3 0 0.15561413
Link 2 11 4 0 -0.34713216
Link 5 11 5 0 -1.03574047
Link 11 9 6 0 0.38089655
Link 11 8 7 0 0.03663134
Link 7 11 8 0 -0.79389033
Link 7 9 9 0 -0.61313898
GenomeEnd

GenomeStart 126
Neuron 1 1 0.00000000 1 0.00000000 0.00000000 0.00000000 0.00000000
Neuron 2 1 0.00000000 1 0.00000000 0.00000000 0.00000000 0.00000000
Neuron 3 1 0.00000000 1 0.00000000 0.00000000 0.00000000 0.00000000
Neuron 4 1 0.00000000 1 0.00000000 0.00000000 0.00000000 0.00000000
Neuron 5 1 0.00000000 1 0.00000000 0.00000000 0.00000000 0.00000000
Neuron 6 1 0.00000000 1 0.00000000 0.00000000 0.00000000 0.00000000
Neuron 7 2 0.00000000 1 0.00000000 0.00000000 0.00000000 0.00000000
Neuron 8 4 1.00000000 6 0.75000000 0.00000000 0.00000000 0.00000000
Neuron 9 4 1.00000000 5 0.75000000 0.00000000 0.00000000 0.00000000
Neuron 10 3 0.50000000 6 0.75000000 0.00000000 0.00000000 0.00000000
Neuron 11 3 0.50000000 6 0.75000000 0.00000000 0.00000000 0.00000000
Link 1 10 1 0 0.62030091
Link 4 10 2 0 -0.27862668
Link 10 9 3 0 0.84301608
Link 2 11 4 0 0.83119062
Link 5 11 5 0 0.05281288
Link 11 9 6 0 -0.53154869
Link 11 8 7 0 -0.35135041
Link 7 11 8 0 -0.38195969
Link 7 9 9 0 -1.03491856
GenomeEnd

GenomeStart 127
Neuron 1 1 0.00000000 1 0.00000000 0.00000000 0.00000000 0.00000000
Neuron 2 1 0.00000000 1 0.00000000 0.00000000 0.00000000 0.00000000
Neuron 3 1 0.00000000 1 0.00000000 0.00000000 0.00000000 0.00000000
Neuron 4 1 0.00000000 1 0.00000000 0.00000000 0.00000000 0.00000000
Neuron 5 1 0.00000000 1 0.00000000 0.00000000 0.00000000 0.00000000
Neuron 6 1 0.00000000 1 0.00000000 0.00000000 0.00000000 0.00000000
Neuron 7 2 0.00000000 1 0.00000000 0.00000000 0.00000000 0.00000000
Neuron 8 4 1.00000000 6 0.75000000 0.00000000 0.00000000 0.00000000
Neuron 9 4 1.00000000 5 0.75000000 0.00000000 0.00000000 0.00000000
Neuron 10 3 0.50000000 6 0.75000000 0.00000000 0.00000000 0.00000000
Neuron 11 3 0.50000000 6 0.75000000 0.00000000 0.00000000 0.00000000
Link 1 10 1 0 -0.36609640
Link 4 10 2 0 0.20530214
Link 10 9 3 0 -0.62638658
Link 2 11 4 0 0.20854889
Link 5 11 5 0 -0.53942662
Link 11 9 6 0 -1.39571475
Link 11 8 7 0 -0.16383259
Link 7 11 8 0 0.21740974
Link 7 9 9 0 0.29415095
GenomeEnd

GenomeStart 128
Neuron 1 1 0.00000000 1 0.00000000 0.00000000 0.00000000 0.00000000
Neuron 2 1 0.00000000 1 0.00000000 0.00000000 0.00000000 0.00000000
Neuron 3 1 0.00000000 1 0.00000000 0.00000000 0.00000000 0.00000000
Neuron 4 1 0.00000000 1 0.00000000 0.00000000 0.00000000 0.00000000
Neuron 5 1 0.00000000 1 0.00000000 0.00000000 0.00000000 0.00000000
Neuron 6 1 0.00000000 1 0.00000000 0.00000000 0.00000000 0.00000000
Neuron 7 2 0.00000000 1 0.00000000 0.00000000 0.00000000 0.00000000
Neuron 8 4 1.00000000 6 0.75000000 0.00000000 0.00000000 0.00000000
Neuron 9 4 1.00000000 5 0.75000000 0.00000000 0.00000000 0.00000000
Neuron 10 3 0.50000000 6 0.75000000 0.00000000 0.00000000 0.00000000
Neuron 11 3 0.50000000 6 0.75000000 0.00000000 0.00000000 0.00000000
Link 1 10 1 0 -0.66822547
Link 4 10 2 0 0.41617017
Link 10 9 3 0 -0.34663798
Link 2 11 4 0 -0.31756646
Link 5 11 5 0 0.79893004
Link 11 9 6 0 0.59853655
Link 11 8 7 0 0.26770962
Link 7 11 8 0 -0.02043079
Link 7 9 9 0 0.43767995
GenomeEnd

GenomeStart 129
Neuron 1 1 0.00000000 1 0.00000000 0.00000000 0.00000000 0.00000000
Neuron 2 1 0.00000000 1 0.00000000 0.00000000 0.00000000 0.00000000
Neuron 3 1 0.00000000 1 0.00000000 0.00000000 0.00000000 0.00000000
Neuron 4 1 0.00000000 1 0.00000000 0.00000000 0.00000000 0.00000000
Neuron 5 1 0.00000000 1 0.00000000 0.00000000 0.00000000 0.00000000
Neuron 6 1 0.00000000 1 0.00000000 0.00000000 0.00000000 0.00000000
Neuron 7 2 0.00000000 1 0.00000000 0.00000000 0.00000000 0.00000000
Neuron 8 4 1.00000000 6 0.75000000 0.00000000 0.00000000 0.00000000
Neuron 9 4 1.00000000 5 0.75000000 0.00000000 0.00000000 0.00000000
Neuron 10 3 0.50000000 6 0.75000000 0.00000000 0.00000000 0.00000000
Neuron 11 3 0.50000000 6 0.75000000 0.00000000 0.00000000 0.00000000
Link 1 10 1 0 -0.50793212
Link 4 10 2 0 -0.41683181
Link 10 9 3 0 0.14189781
Link 2 11 4 0 0.05643690
Link 5 11 5 0 0.15868261
Link 11 9 6 0 -0.37235482
Link 11 8 7 0 0.38657274
Link 7 11 8 0 0.26044781
Link 7 9 9 0 0.62002374
GenomeEnd

GenomeStart 130
Neuron 1 1 0.00000000 1 0.00000000 0.00000000 0.00000000 0.00000000
Neuron 2 1 0.00000000 1 0.00000000 0.00000000 0.00000000 0.00000000
Neuron 3 1 0.00000000 1 0.00000000 0.00000000 0.00000000 0.00000000
Neuron 4 1 0.00000000 1 0.00000000 0.00000000 0.00000000 0.00000000
Neuron 5 1 0.00000000 1 0.00000000 0.00000000 0.00000000 0.00000000
Neuron 6 1 0.00000000 1 0.00000000 0.00000000 0.00000000 0.00000000
Neuron 7 2 0.00000000 1 0.00000000 0.00000000 0.00000000 0.00000000
Neuron 8 4 1.00000000 6 0.75000000 0.00000000 0.00000000 0.00000000
Neuron 9 4 1.00000000 5 0.75000000 0.00000000 0.00000000 0.00000000
Neuron 10 3 0.50000000 6 0.75000000 0.00000000 0.00000000 0.00000000
Neuron 11 3 0.50000000 6 0.75000000 0.00000000 0.00000000 0.00000000
Link 1 10 1 0 0.03290477
Link 4 10 2 0 0.04806704
Link 10 9 3 0 0.35779112
Link 2 11 4 0 -0.51596850
Link 5 11 5 0 -0.55706961
Link 11 9 6 0 0.49730691
Link 11 8 7 0 0.76818415
Link 7 11 8 0 0.04731424
Link 7 9 9 0 0.48407781
GenomeEnd

GenomeStart 131
Neuron 1 1 0.00000000 1 0.00000000 0.00000000 0.00000000 0.00000000
Neuron 2 1 0.00000000 1 0.00000000 0.00000000 0.00000000 0.00000000
Neuron 3 1 0.00000000 1 0.00000000 0.00000000 0.00000000 0.00000000
Neuron 4 1 0.00000000 1 0.00000000 0.00000000 0.00000000 0.00000000
Neuron 5 1 0.00000000 1 0.00000000 0.00000000 0.00000000 0.00000000
Neuron 6 1 0.00000000 1 0.00000000 0.00000000 0.00000000 0.00000000
Neuron 7 2 0.00000000 1 0.00000000 0.00000000 0.00000000 0.00000000
Neuron 8 4 1.00000000 6 0.75000000 0.00000000 0.00000000 0.00000000
Neuron 9 4 1.00000000 5 0.75000000 0.00000000 0.00000000 0.00000000
Neuron 10 3 0.50000000 6 0.75000000 0.00000000 0.00000000 0.00000000
Neuron 11 3 0.50000000 6 0.75000000 0.00000000 0.00000000 0.00000000
Link 1 10 1 0 0.43529797
Link 4 10 2 0 0.63773308
Link 10 9 3 0 0.49934162
Link 2 11 4 0 0.51801240
Link 5 11 5 0 -0.06469086
Link 11 9 6 0 -0.53947832
Link 11 8 7 0 -0.81145001
Link 7 11 8 0 0.16200855
Link 7 9 9 0 -0.25109538
GenomeEnd

GenomeStart 132
Neuron 1 1 0.00000000 1 0.00000000 0.00000000 0.00000000 0.00000000
Neuron 2 1 0.00000000 1 0.00000000 0.00000000 0.00000000 0.00000000
Neuron 3 1 0.00000000 1 0.00000000 0.00000000 0.00000000 0.00000000
Neuron 4 1 0.00000000 1 0.00000000 0.00000000 0.00000000 0.00000000
Neuron 5 1 0.00000000 1 0.00000000 0.00000000 0.00000000 0.00000000
Neuron 6 1 0.00000000 1 0.00000000 0.00000000 0.00000000 0.00000000
Neuron 7 2 0.00000000 1 0.00000000 0.00000000 0.00000000 0.00000000
Neuron 8 4 1.00000000 6 0.75000000 0.00000000 0.00000000 0.00000000
Neuron 9 4 1.00000000 5 0.75000000 0.00000000 0.00000000 0.00000000
Neuron 10 3 0.50000000 6 0.75000000 0.00000000 0.00000000 0.00000000
Neuron 11 3 0.50000000 6 0.75000000 0.00000000 0.00000000 0.00000000
Link 1 10 1 0 0.84929621
Link 4 10 2 0 0.75995387
Link 10 9 3 0 -0.69276781
Link 2 11 4 0 -0.01154474
Link 5 11 5 0 0.66108509
Link 11 9 6 0 0.06293083
Link 11 8 7 0 -0.17877336
Link 7 11 8 0 0.33845750
Link 7 9 9 0 -0.43277028
GenomeEnd

GenomeStart 133
Neuron 1 1 0.00000000 1 0.00000000 0.00000000 0.00000000 0.00000000
Neuron 2 1 0.00000000 1 0.00000000 0.00000000 0.00000000 0.00000000
Neuron 3 1 0.00000000 1 0.00000000 0.00000000 0.00000000 0.00000000
Neuron 4 1 0.00000000 1 0.00000000 0.00000000 0.00000000 0.00000000
Neuron 5 1 0.00000000 1 0.00000000 0.00000000 0.00000000 0.00000000
Neuron 6 1 0.00000000 1 0.00000000 0.00000000 0.00000000 0.00000000
Neuron 7 2 0.00000000 1 0.00000000 0.00000000 0.00000000 0.00000000
Neuron 8 4 1.00000000 6 0.75000000 0.00000000 0.00000000 0.00000000
Neuron 9 4 1.00000000 5 0.75000000 0.00000000 0.00000000 0.00000000
Neuron 10 3 0.50000000 6 0.75000000 0.00000000 0.00000000 0.00000000
Neuron 11 3 0.50000000 6 0.75000000 0.00000000 0.00000000 0.00000000
Link 1 10 1 0 -1.07532147
Link 4 10 2 0 0.00898374
Link 10 9 3 0 0.51145146
Link 2 11 4 0 -0.59000331
Link 5 11 5 0 -0.18118952
Link 11 9 6 0 0.33015553
Link 11 8 7 0 -0.15687717
Link 7 11 8 0 0.49492637
Link 7 9 9 0 0.05804734
GenomeEnd

GenomeStart 134
Neuron 1 1 0.00000000 1 0.00000000 0.00000000 0.00000000 0.00000000
Neuron 2 1 0.00000000 1 0.00000000 0.00000000 0.00000000 0.00000000
Neuron 3 1 0.00000000 1 0.00000000 0.00000000 0.00000000 0.00000000
Neuron 4 1 0.00000000 1 0.00000000 0.00000000 0.00000000 0.00000000
Neuron 5 1 0.00000000 1 0.00000000 0.00000000 0.00000000 0.00000000
Neuron 6 1 0.00000000 1 0.00000000 0.00000000 0.00000000 0.00000000
Neuron 7 2 0.00000000 1 0.00000000 0.00000000 0.00000000 0.00000000
Neuron 8 4 1.00000000 6 0.75000000 0.00000000 0.00000000 0.00000000
Neuron 9 4 1.00000000 5 0.75000000 0.00000000 0.00000000 0.00000000
Neuron 10 3 0.50000000 6 0.75000000 0.00000000 0.00000000 0.00000000
Neuron 11 3 0.50000000 6 0.75000000 0.00000000 0.00000000 0.00000000
Link 1 10 1 0 -0.25767510
Link 4 10 2 0 0.48618628
Link 10 9 3 0 0.51286125
Link 2 11 4 0 -0.00238680
Link 5 11 5 0 0.08770451
Link 11 9 6 0 -0.31638925
Link 11 8 7 0 0.14896097
Link 7 11 8 0 0.30246597
Link 7 9 9 0 -0.53428318
GenomeEnd

GenomeStart 135
Neuron 1 1 0.00000000 1 0.00000000 0.00000000 0.00000000 0.00000000
Neuron 2 1 0.00000000 1 0.00000000 0.00000000 0.00000000 0.00000000
Neuron 3 1 0.00000000 1 0.00000000 0.00000000 0.00000000 0.00000000
Neuron 4 1 0.00000000 1 0.00000000 0.00000000 0.00000000 0.00000000
Neuron 5 1 0.00000000 1 0.00000000 0.00000000 0.00000000 0.00000000
Neuron 6 1 0.00000000 1 0.00000000 0.00000000 0.00000000 0.00000000
Neuron 7 2 0.00000000 1 0.00000000 0.00000000 0.00000000 0.00000000
Neuron 8 4 1.00000000 6 0.75000000 0.00000000 0.00000000 0.00000000
Neuron 9 4 1.00000000 5 0.75000000 0.00000000 0.00000000 0.00000000
Neuron 10 3 0.50000000 6 0.75000000 0.00000000 0.00000000 0.00000000
Neuron 11 3 0.50000000 6 0.75000000 0.00000000 0.00000000 0.00000000
Link 1 10 1 0 0.51035995
Link 4 10 2 0 -0.55757260
Link 10 9 3 0 0.62837109
Link 2 11 4 0 -0.79246546
Link 5 11 5 0 -0.15583756
Link 11 9 6 0 0.14480487
Link 11 8 7 0 0.11065387
Link 7 11 8 0 -0.09260217
Link 7 9 9 0 0.27544093
GenomeEnd

GenomeStart 136
Neuron 1 1 0.00000000 1 0.00000000 0.00000000 0.00000000 0.00000000
Neuron 2 1 0.00000000 1 0.00000000 0.00000000 0.00000000 0.00000000
Neuron 3 1 0.00000000 1 0.00000000 0.00000000 0.00000000 0.00000000
Neuron 4 1 0.00000000 1 0.00000000 0.00000000 0.00000000 0.00000000
Neuron 5 1 0.00000000 1 0.00000000 0.00000000 0.00000000 0.00000000
Neuron 6 1 0.00000000 1 0.00000000 0.00000000 0.00000000 0.00000000
Neuron 7 2 0.00000000 1 0.00000000 0.00000000 0.00000000 0.00000000
Neuron 8 4 1.00000000 6 0.75000000 0.00000000 0.00000000 0.00000000
Neuron 9 4 1.00000000 5 0.75000000 0.00000000 0.00000000 0.00000000
Neuron 10 3 0.50000000 6 0.75000000 0.00000000 0.00000000 0.00000000
Neuron 11 3 0.50000000 6 0.75000000 0.00000000 0.00000000 0.00000000
Link 1 10 1 0 0.90987629
Link 4 10 2 0 -0.29687768
Link 10 9 3 0 -0.11646536
Link 2 11 4 0 0.00998693
Link 5 11 5 0 0.61483154
Link 11 9 6 0 0.12743559
Link 11 8 7 0 -0.07170154
Link 7 11 8 0 -0.22951452
Link 7 9 9 0 0.67234540
GenomeEnd

GenomeStart 137
Neuron 1 1 0.00000000 1 0.00000000 0.00000000 0.00000000 0.00000000
Neuron 2 1 0.00000000 1 0.00000000 0.00000000 0.00000000 0.00000000
Neuron 3 1 0.00000000 1 0.00000000 0.00000000 0.00000000 0.00000000
Neuron 4 1 0.00000000 1 0.00000000 0.00000000 0.00000000 0.00000000
Neuron 5 1 0.00000000 1 0.00000000 0.00000000 0.00000000 0.00000000
Neuron 6 1 0.00000000 1 0.00000000 0.00000000 0.00000000 0.00000000
Neuron 7 2 0.00000000 1 0.00000000 0.00000000 0.00000000 0.00000000
Neuron 8 4 1.00000000 6 0.75000000 0.00000000 0.00000000 0.00000000
Neuron 9 4 1.00000000 5 0.75000000 0.00000000 0.00000000 0.00000000
Neuron 10 3 0.50000000 6 0.75000000 0.00000000 0.00000000 0.00000000
Neuron 11 3 0.50000000 6 0.75000000 0.00000000 0.00000000 0.00000000
Link 1 10 1 0 0.38331925
Link 4 10 2 0 -0.37449102
Link 10 9 3 0 -0.63988895
Link 2 11 4 0 0.12221975
Link 5 11 5 0 0.15649153
Link 11 9 6 0 0.63099786
Link 11 8 7 0 0.18542671
Link 7 11 8 0 -0.37353360
Link 7 9 9 0 1.26252338
GenomeEnd

GenomeStart 138
Neuron 1 1 0.00000000 1 0.00000000 0.00000000 0.00000000 0.00000000
Neuron 2 1 0.00000000 1 0.00000000 0.00000000 0.00000000 0.00000000
Neuron 3 1 0.00000000 1 0.00000000 0.00000000 0.00000000 0.00000000
Neuron 4 1 0.00000000 1 0.00000000 0.00000000 0.00000000 0.00000000
Neuron 5 1 0.00000000 1 0.00000000 0.00000000 0.00000000 0.00000000
Neuron 6 1 0.00000000 1 0.00000000 0.00000000 0.00000000 0.00000000
Neuron 7 2 0.00000000 1 0.00000000 0.00000000 0.00000000 0.00000000
Neuron 8 4 1.00000000 6 0.75000000 0.00000000 0.00000000 0.00000000
Neuron 9 4 1.00000000 5 0.75000000 0.00000000 0.00000000 0.00000000
Neuron 10 3 0.50000000 6 0.75000000 0.00000000 0.00000000 0.00000000
Neuron 11 3 0.50000000 6 0.75000000 0.00000000 0.00000000 0.00000000
Link 1 10 1 0 -0.16876831
Link 4 10 2 0 -0.16926689
Link 10 9 3 0 0.26347791
Link 2 11 4 0 0.47252169
Link 5 11 5 0 0.53125837
Link 11 9 6 0 0.39059203
Link 11 8 7 0 -1.12245264
Link 7 11 8 0 -0.56392519
Link 7 9 9 0 0.25680075
GenomeEnd

GenomeStart 139
Neuron 1 1 0.00000000 1 0.00000000 0.00000000 0.00000000 0.00000000
Neuron 2 1 0.00000000 1 0.00000000 0.00000000 0.00000000 0.00000000
Neuron 3 1 0.00000000 1 0.00000000 0.00000000 0.00000000 0.00000000
Neuron 4 1 0.00000000 1 0.00000000 0.00000000 0.00000000 0.00000000
Neuron 5 1 0.00000000 1 0.00000000 0.00000000 0.00000000 0.00000000
Neuron 6 1 0.00000000 1 0.00000000 0.00000000 0.00000000 0.00000000
Neuron 7 2 0.00000000 1 0.00000000 0.00000000 0.00000000 0.00000000
Neuron 8 4 1.00000000 6 0.75000000 0.00000000 0.00000000 0.00000000
Neuron 9 4 1.00000000 5 0.75000000 0.00000000 0.00000000 0.00000000
Neuron 10 3 0.50000000 6 0.75000000 0.00000000 0.00000000 0.00000000
Neuron 11 3 0.50000000 6 0.75000000 0.00000000 0.00000000 0.00000000
Link 1 10 1 0 -0.12036161
Link 4 10 2 0 0.18573442
Link 10 9 3 0 -0.51215232
Link 2 11 4 0 0.91101641
Link 5 11 5 0 -0.78826036
Link 11 9 6 0 0.56698785
Link 11 8 7 0 -0.11789599
Link 7 11 8 0 -0.86126636
Link 7 9 9 0 -0.47523539
GenomeEnd

GenomeStart 140
Neuron 1 1 0.00000000 1 0.00000000 0.00000000 0.00000000 0.00000000
Neuron 2 1 0.00000000 1 0.00000000 0.00000000 0.00000000 0.00000000
Neuron 3 1 0.00000000 1 0.00000000 0.00000000 0.00000000 0.00000000
Neuron 4 1 0.00000000 1 0.00000000 0.00000000 0.00000000 0.00000000
Neuron 5 1 0.00000000 1 0.00000000 0.00000000 0.00000000 0.00000000
Neuron 6 1 0.00000000 1 0.00000000 0.00000000 0.00000000 0.00000000
Neuron 7 2 0.00000000 1 0.00000000 0.00000000 0.00000000 0.00000000
Neuron 8 4 1.00000000 6 0.75000000 0.00000000 0.00000000 0.00000000
Neuron 9 4 1.00000000 5 0.75000000 0.00000000 0.00000000 0.00000000
Neuron 10 3 0.50000000 6 0.75000000 0.00000000 0.00000000 0.00000000
Neuron 11 3 0.50000000 6 0.75000000 0.00000000 0.00000000 0.00000000
Link 1 10 1 0 0.09466238
Link 4 10 2 0 -1.07827767
Link 10 9 3 0 -0.54375128
Link 2 11 4 0 0.28961450
Link 5 11 5 0 0.70351015
Link 11 9 6 0 0.73459102
Link 11 8 7 0 0.61578374
Link 7 11 8 0 -0.12086228
Link 7 9 9 0 0.11780639
GenomeEnd

GenomeStart 141
Neuron 1 1 0.00000000 1 0.00000000 0.00000000 0.00000000 0.00000000
Neuron 2 1 0.00000000 1 0.00000000 0.00000000 0.00000000 0.00000000
Neuron 3 1 0.00000000 1 0.00000000 0.00000000 0.00000000 0.00000000
Neuron 4 1 0.00000000 1 0.00000000 0.00000000 0.00000000 0.00000000
Neuron 5 1 0.00000000 1 0.00000000 0.00000000 0.00000000 0.00000000
Neuron 6 1 0.00000000 1 0.00000000 0.00000000 0.00000000 0.00000000
Neuron 7 2 0.00000000 1 0.00000000 0.00000000 0.00000000 0.00000000
Neuron 8 4 1.00000000 6 0.75000000 0.00000000 0.00000000 0.00000000
Neuron 9 4 1.00000000 5 0.75000000 0.00000000 0.00000000 0.00000000
Neuron 10 3 0.50000000 6 0.75000000 0.00000000 0.00000000 0.00000000
Neuron 11 3 0.50000000 6 0.75000000 0.00000000 0.00000000 0.00000000
Link 1 10 1 0 0.14872971
Link 4 10 2 0 -0.06167985
Link 10 9 3 0 -0.40524851
Link 2 11 4 0 0.78328054
Link 5 11 5 0 -0.66456948
Link 11 9 6 0 0.74011073
Link 11 8 7 0 -0.15626065
Link 7 11 8 0 0.56162852
Link 7 9 9 0 -0.22618421
GenomeEnd

GenomeStart 142
Neuron 1 1 0.00000000 1 0.00000000 0.00000000 0.00000000 0.00000000
Neuron 2 1 0.00000000 1 0.00000000 0.00000000 0.00000000 0.00000000
Neuron 3 1 0.00000000 1 0.00000000 0.00000000 0.00000000 0.00000000
Neuron 4 1 0.00000000 1 0.00000000 0.00000000 0.00000000 0.00000000
Neuron 5 1 0.00000000 1 0.00000000 0.00000000 0.00000000 0.00000000
Neuron 6 1 0.00000000 1 0.00000000 0.00000000 0.00000000 0.00000000
Neuron 7 2 0.00000000 1 0.00000000 0.00000000 0.00000000 0.00000000
Neuron 8 4 1.00000000 6 0.75000000 0.00000000 0.00000000 0.00000000
Neuron 9 4 1.00000000 5 0.75000000 0.00000000 0.00000000 0.00000000
Neuron 10 3 0.50000000 6 0.75000000 0.00000000 0.00000000 0.00000000
Neuron 11 3 0.50000000 6 0.75000000 0.00000000 0.00000000 0.00000000
Link 1 10 1 0 -0.56304136
Link 4 10 2 0 -0.24104558
Link 10 9 3 0 0.99609351
Link 2 11 4 0 0.29547574
Link 5 11 5 0 -0.15509247
Link 11 9 6 0 -0.11691644
Link 11 8 7 0 -0.45463427
Link 7 11 8 0 0.07706592
Link 7 9 9 0 -0.13160502
GenomeEnd

GenomeStart 143
Neuron 1 1 0.00000000 1 0.00000000 0.00000000 0.00000000 0.00000000
Neuron 2 1 0.00000000 1 0.00000000 0.00000000 0.00000000 0.00000000
Neuron 3 1 0.00000000 1 0.00000000 0.00000000 0.00000000 0.00000000
Neuron 4 1 0.00000000 1 0.00000000 0.00000000 0.00000000 0.00000000
Neuron 5 1 0.00000000 1 0.00000000 0.00000000 0.00000000 0.00000000
Neuron 6 1 0.00000000 1 0.00000000 0.00000000 0.00000000 0.00000000
Neuron 7 2 0.00000000 1 0.00000000 0.00000000 0.00000000 0.00000000
Neuron 8 4 1.00000000 6 0.75000000 0.00000000 0.00000000 0.00000000
Neuron 9 4 1.00000000 5 0.75000000 0.00000000 0.00000000 0.00000000
Neuron 10 3 0.50000000 6 0.75000000 0.00000000 0.00000000 0.00000000
Neuron 11 3 0.50000000 6 0.75000000 0.00000000 0.00000000 0.00000000
Link 1 10 1 0 -0.21180213
Link 4 10 2 0 -0.44762305
Link 10 9 3 0 0.88695863
Link 2 11 4 0 -0.65008203
Link 5 11 5 0 0.09833597
Link 11 9 6 0 -0.25381323
Link 11 8 7 0 0.66887569
Link 7 11 8 0 0.11203026
Link 7 9 9 0 -0.12975978
GenomeEnd

GenomeStart 144
Neuron 1 1 0.00000000 1 0.00000000 0.00000000 0.00000000 0.00000000
Neuron 2 1 0.00000000 1 0.00000000 0.00000000 0.00000000 0.00000000
Neuron 3 1 0.00000000 1 0.00000000 0.00000000 0.00000000 0.00000000
Neuron 4 1 0.00000000 1 0.00000000 0.00000000 0.00000000 0.00000000
Neuron 5 1 0.00000000 1 0.00000000 0.00000000 0.00000000 0.00000000
Neuron 6 1 0.00000000 1 0.00000000 0.00000000 0.00000000 0.00000000
Neuron 7 2 0.00000000 1 0.00000000 0.00000000 0.00000000 0.00000000
Neuron 8 4 1.00000000 6 0.75000000 0.00000000 0.00000000 0.00000000
Neuron 9 4 1.00000000 5 0.75000000 0.00000000 0.00000000 0.00000000
Neuron 10 3 0.50000000 6 0.75000000 0.00000000 0.00000000 0.00000000
Neuron 11 3 0.50000000 6 0.75000000 0.00000000 0.00000000 0.00000000
Link 1 10 1 0 0.35095454
Link 4 10 2 0 -0.12787228
Link 10 9 3 0 -0.13349767
Link 2 11 4 0 -0.33543955
Link 5 11 5 0 -0.94854761
Link 11 9 6 0 0.02638201
Link 11 8 7 0 -0.26237781
Link 7 11 8 0 0.05110594
Link 7 9 9 0 0.59985753
GenomeEnd

GenomeStart 145
Neuron 1 1 0.00000000 1 0.00000000 0.00000000 0.00000000 0.00000000
Neuron 2 1 0.00000000 1 0.00000000 0.00000000 0.00000000 0.00000000
Neuron 3 1 0.00000000 1 0.00000000 0.00000000 0.00000000 0.00000000
Neuron 4 1 0.00000000 1 0.00000000 0.00000000 0.00000000 0.00000000
Neuron 5 1 0.00000000 1 0.00000000 0.00000000 0.00000000 0.00000000
Neuron 6 1 0.00000000 1 0.00000000 0.00000000 0.00000000 0.00000000
Neuron 7 2 0.00000000 1 0.00000000 0.00000000 0.00000000 0.00000000
Neuron 8 4 1.00000000 6 0.75000000 0.00000000 0.00000000 0.00000000
Neuron 9 4 1.00000000 5 0.75000000 0.00000000 0.00000000 0.00000000
Neuron 10 3 0.50000000 6 0.75000000 0.00000000 0.00000000 0.00000000
Neuron 11 3 0.50000000 6 0.75000000 0.00000000 0.00000000 0.00000000
Link 1 10 1 0 0.59646993
Link 4 10 2 0 -0.70330053
Link 10 9 3 0 -0.80919758
Link 2 11 4 0 0.11164328
Link 5 11 5 0 0.18342526
Link 11 9 6 0 0.59675384
Link 11 8 7 0 -0.05431514
Link 7 11 8 0 0.12172363
Link 7 9 9 0 0.27213674
GenomeEnd

GenomeStart 146
Neuron 1 1 0.00000000 1 0.00000000 0.00000000 0.00000000 0.00000000
Neuron 2 1 0.00000000 1 0.00000000 0.00000000 0.00000000 0.00000000
Neuron 3 1 0.00000000 1 0.00000000 0.00000000 0.00000000 0.00000000
Neuron 4 1 0.00000000 1 0.00000000 0.00000000 0.00000000 0.00000000
Neuron 5 1 0.00000000 1 0.00000000 0.00000000 0.00000000 0.00000000
Neuron 6 1 0.00000000 1 0.00000000 0.00000000 0.00000000 0.00000000
Neuron 7 2 0.00000000 1 0.00000000 0.00000000 0.00000000 0.00000000
Neuron 8 4 1.00000000 6 0.75000000 0.00000000 0.00000000 0.00000000
Neuron 9 4 1.00000000 5 0.75000000 0.00000000 0.00000000 0.00000000
Neuron 10 3 0.50000000 6 0.75000000 0.00000000 0.00000000 0.00000000
Neuron 11 3 0.50000000 6 0.75000000 0.00000000 0.00000000 0.00000000
Link 1 10 1 0 0.26449202
Link 4 10 2 0 -0.23067087
Link 10 9 3 0 0.84838255
Link 2 11 4 0 0.76518982
Link 5 11 5 0 0.56807008
Link 11 9 6 0 -0.74064263
Link 11 8 7 0 0.88257528
Link 7 11 8 0 -0.22358877
Link 7 9 9 0 -0.19750929
GenomeEnd

GenomeStart 147
Neuron 1 1 0.00000000 1 0.00000000 0.00000000 0.00000000 0.00000000
Neuron 2 1 0.00000000 1 0.00000000 0.00000000 0.00000000 0.00000000
Neuron 3 1 0.00000000 1 0.00000000 0.00000000 0.00000000 0.00000000
Neuron 4 1 0.00000000 1 0.00000000 0.00000000 0.00000000 0.00000000
Neuron 5 1 0.00000000 1 0.00000000 0.00000000 0.00000000 0.00000000
Neuron 6 1 0.00000000 1 0.00000000 0.00000000 0.00000000 0.00000000
Neuron 7 2 0.00000000 1 0.00000000 0.00000000 0.00000000 0.00000000
Neuron 8 4 1.00000000 6 0.75000000 0.00000000 0.00000000 0.00000000
Neuron 9 4 1.00000000 5 0.75000000 0.00000000 0.00000000 0.00000000
Neuron 10 3 0.50000000 6 0.75000000 0.00000000 0.00000000 0.00000000
Neuron 11 3 0.50000000 6 0.75000000 0.00000000 0.00000000 0.00000000
Link 1 10 1 0 0.58193309
Link 4 10 2 0 0.49902020
Link 10 9 3 0 -0.33411528
Link 2 11 4 0 -0.13747951
Link 5 11 5 0 0.31753274
Link 11 9 6 0 0.48778149
Link 11 8 7 0 1.19103204
Link 7 11 8 0 -0.05893356
Link 7 9 9 0 0.03673664
GenomeEnd

GenomeStart 148
Neuron 1 1 0.00000000 1 0.00000000 0.00000000 0.00000000 0.00000000
Neuron 2 1 0.00000000 1 0.00000000 0.00000000 0.00000000 0.00000000
Neuron 3 1 0.00000000 1 0.00000000 0.00000000 0.00000000 0.00000000
Neuron 4 1 0.00000000 1 0.00000000 0.00000000 0.00000000 0.00000000
Neuron 5 1 0.00000000 1 0.00000000 0.00000000 0.00000000 0.00000000
Neuron 6 1 0.00000000 1 0.00000000 0.00000000 0.00000000 0.00000000
Neuron 7 2 0.00000000 1 0.00000000 0.00000000 0.00000000 0.00000000
Neuron 8 4 1.00000000 6 0.75000000 0.00000000 0.00000000 0.00000000
Neuron 9 4 1.00000000 5 0.75000000 0.00000000 0.00000000 0.00000000
Neuron 10 3 0.50000000 6 0.75000000 0.00000000 0.00000000 0.00000000
Neuron 11 3 0.50000000 6 0.75000000 0.00000000 0.00000000 0.00000000
Link 1 10 1 0 0.37349111
Link 4 10 2 0 0.37162449
Link 10 9 3 0 -0.06647758
Link 2 11 4 0 -0.43801352
Link 5 11 5 0 -0.91187417
Link 11 9 6 0 -0.25273783
Link 11 8 7 0 -0.04073256
Link 7 11 8 0 -0.27746680
Link 7 9 9 0 -0.69791357
GenomeEnd

GenomeStart 149
Neuron 1 1 0.00000000 1 0.00000000 0.00000000 0.00000000 0.00000000
Neuron 2 1 0.00000000 1 0.00000000 0.00000000 0.00000000 0.00000000
Neuron 3 1 0.00000000 1 0.00000000 0.00000000 0.00000000 0.00000000
Neuron 4 1 0.00000000 1 0.00000000 0.00000000 0.00000000 0.00000000
Neuron 5 1 0.00000000 1 0.00000000 0.00000000 0.00000000 0.00000000
Neuron 6 1 0.00000000 1 0.00000000 0.00000000 0.00000000 0.00000000
Neuron 7 2 0.00000000 1 0.00000000 0.00000000 0.00000000 0.00000000
Neuron 8 4 1.00000000 6 0.75000000 0.00000000 0.00000000 0.00000000
Neuron 9 4 1.00000000 5 0.75000000 0.00000000 0.00000000 0.00000000
Neuron 10 3 0.50000000 6 0.75000000 0.00000000 0.00000000 0.00000000
Neuron 11 3 0.50000000 6 0.75000000 0.00000000 0.00000000 0.00000000
Link 1 10 1 0 0.45794720
Link 4 10 2 0 0.72846172
Link 10 9 3 0 -0.17625065
Link 2 11 4 0 -0.03072866
Link 5 11 5 0 0.60020017
Link 11 9 6 0 -0.32457659
Link 11 8 7 0 0.28324925
Link 7 11 8 0 -0.53374303
Link 7 9 9 0 1.07197540
GenomeEnd

GenomeStart 150
Neuron 1 1 0.00000000 1 0.00000000 0.00000000 0.00000000 0.00000000
Neuron 2 1 0.00000000 1 0.00000000 0.00000000 0.00000000 0.00000000
Neuron 3 1 0.00000000 1 0.00000000 0.00000000 0.00000000 0.00000000
Neuron 4 1 0.00000000 1 0.00000000 0.00000000 0.00000000 0.00000000
Neuron 5 1 0.00000000 1 0.00000000 0.00000000 0.00000000 0.00000000
Neuron 6 1 0.00000000 1 0.00000000 0.00000000 0.00000000 0.00000000
Neuron 7 2 0.00000000 1 0.00000000 0.00000000 0.00000000 0.00000000
Neuron 8 4 1.00000000 6 0.75000000 0.00000000 0.00000000 0.00000000
Neuron 9 4 1.00000000 5 0.75000000 0.00000000 0.00000000 0.00000000
Neuron 10 3 0.50000000 6 0.75000000 0.00000000 0.00000000 0.00000000
Neuron 11 3 0.50000000 6 0.75000000 0.00000000 0.00000000 0.00000000
Link 1 10 1 0 -0.33015854
Link 4 10 2 0 -0.00161372
Link 10 9 3 0 -0.78843911
Link 2 11 4 0 -0.60550979
Link 5 11 5 0 -0.81466252
Link 11 9 6 0 -0.39895181
Link 11 8 7 0 0.08985969
Link 7 11 8 0 -0.59230232
Link 7 9 9 0 0.07599989
GenomeEnd

GenomeStart 151
Neuron 1 1 0.00000000 1 0.00000000 0.00000000 0.00000000 0.00000000
Neuron 2 1 0.00000000 1 0.00000000 0.00000000 0.00000000 0.00000000
Neuron 3 1 0.00000000 1 0.00000000 0.00000000 0.00000000 0.00000000
Neuron 4 1 0.00000000 1 0.00000000 0.00000000 0.00000000 0.00000000
Neuron 5 1 0.00000000 1 0.00000000 0.00000000 0.00000000 0.00000000
Neuron 6 1 0.00000000 1 0.00000000 0.00000000 0.00000000 0.00000000
Neuron 7 2 0.00000000 1 0.00000000 0.00000000 0.00000000 0.00000000
Neuron 8 4 1.00000000 6 0.75000000 0.00000000 0.00000000 0.00000000
Neuron 9 4 1.00000000 5 0.75000000 0.00000000 0.00000000 0.00000000
Neuron 10 3 0.50000000 6 0.75000000 0.00000000 0.00000000 0.00000000
Neuron 11 3 0.50000000 6 0.75000000 0.00000000 0.00000000 0.00000000
Link 1 10 1 0 -0.53250279
Link 4 10 2 0 -0.05986118
Link 10 9 3 0 -0.27402908
Link 2 11 4 0 -0.49153958
Link 5 11 5 0 -0.20831205
Link 11 9 6 0 0.33248814
Link 11 8 7 0 0.05907188
Link 7 11 8 0 -0.73704417
Link 7 9 9 0 0.17404108
GenomeEnd

GenomeStart 152
Neuron 1 1 0.00000000 1 0.00000000 0.00000000 0.00000000 0.00000000
Neuron 2 1 0.00000000 1 0.00000000 0.00000000 0.00000000 0.00000000
Neuron 3 1 0.00000000 1 0.00000000 0.00000000 0.00000000 0.00000000
Neuron 4 1 0.00000000 1 0.00000000 0.00000000 0.00000000 0.00000000
Neuron 5 1 0.00000000 1 0.00000000 0.00000000 0.00000000 0.00000000
Neuron 6 1 0.00000000 1 0.00000000 0.00000000 0.00000000 0.00000000
Neuron 7 2 0.00000000 1 0.00000000 0.00000000 0.00000000 0.00000000
Neuron 8 4 1.00000000 6 0.75000000 0.00000000 0.00000000 0.00000000
Neuron 9 4 1.00000000 5 0.75000000 0.00000000 0.00000000 0.00000000
Neuron 10 3 0.50000000 6 0.75000000 0.00000000 0.00000000 0.00000000
Neuron 11 3 0.50000000 6 0.75000000 0.00000000 0.00000000 0.00000000
Link 1 10 1 0 -0.16876831
Link 4 10 2 0 -0.29687768
Link 10 9 3 0 0.26347791
Link 2 11 4 0 0.00998693
Link 5 11 5 0 0.53125837
Link 11 9 6 0 0.12743559
Link 11 8 7 0 -1.12245264
Link 7 11 8 0 -0.22951452
Link 7 9 9 0 0.25680075
GenomeEnd

GenomeStart 153
Neuron 1 1 0.00000000 1 0.00000000 0.00000000 0.00000000 0.00000000
Neuron 2 1 0.00000000 1 0.00000000 0.00000000 0.00000000 0.00000000
Neuron 3 1 0.00000000 1 0.00000000 0.00000000 0.00000000 0.00000000
Neuron 4 1 0.00000000 1 0.00000000 0.00000000 0.00000000 0.00000000
Neuron 5 1 0.00000000 1 0.00000000 0.00000000 0.00000000 0.00000000
Neuron 6 1 0.00000000 1 0.00000000 0.00000000 0.00000000 0.00000000
Neuron 7 2 0.00000000 1 0.00000000 0.00000000 0.00000000 0.00000000
Neuron 8 4 1.00000000 6 0.75000000 0.00000000 0.00000000 0.00000000
Neuron 9 4 1.00000000 5 0.75000000 0.00000000 0.00000000 0.00000000
Neuron 10 3 0.50000000 6 0.75000000 0.00000000 0.00000000 0.00000000
Neuron 11 3 0.50000000 6 0.75000000 0.00000000 0.00000000 0.00000000
Link 1 10 1 0 0.13289576
Link 4 10 2 0 0.47573356
Link 10 9 3 0 -1.23862701
Link 2 11 4 0 -0.13704770
Link 5 11 5 0 -0.29214000
Link 11 9 6 0 0.58507447
Link 11 8 7 0 0.53565232
Link 7 11 8 0 0.03747882
Link 7 9 9 0 -0.64320221
GenomeEnd

GenomeStart 154
Neuron 1 1 0.00000000 1 0.00000000 0.00000000 0.00000000 0.00000000
Neuron 2 1 0.00000000 1 0.00000000 0.00000000 0.00000000 0.00000000
Neuron 3 1 0.00000000 1 0.00000000 0.00000000 0.00000000 0.00000000
Neuron 4 1 0.00000000 1 0.00000000 0.00000000 0.00000000 0.00000000
Neuron 5 1 0.00000000 1 0.00000000 0.00000000 0.00000000 0.00000000
Neuron 6 1 0.00000000 1 0.00000000 0.00000000 0.00000000 0.00000000
Neuron 7 2 0.00000000 1 0.00000000 0.00000000 0.00000000 0.00000000
Neuron 8 4 1.00000000 6 0.75000000 0.00000000 0.00000000 0.00000000
Neuron 9 4 1.00000000 5 0.75000000 0.00000000 0.00000000 0.00000000
Neuron 10 3 0.50000000 6 0.75000000 0.00000000 0.00000000 0.00000000
Neuron 11 3 0.50000000 6 0.75000000 0.00000000 0.00000000 0.00000000
Link 1 10 1 0 0.38371215
Link 4 10 2 0 0.89292143
Link 10 9 3 0 1.27468539
Link 2 11 4 0 0.79719887
Link 5 11 5 0 0.70789020
Link 11 9 6 0 -0.78514453
Link 11 8 7 0 0.16159781
Link 7 11 8 0 1.10807791
Link 7 9 9 0 0.02197249
GenomeEnd

GenomeStart 155
Neuron 1 1 0.00000000 1 0.00000000 0.00000000 0.00000000 0.00000000
Neuron 2 1 0.00000000 1 0.00000000 0.00000000 0.00000000 0.00000000
Neuron 3 1 0.00000000 1 0.00000000 0.00000000 0.00000000 0.00000000
Neuron 4 1 0.00000000 1 0.00000000 0.00000000 0.00000000 0.00000000
Neuron 5 1 0.00000000 1 0.00000000 0.00000000 0.00000000 0.00000000
Neuron 6 1 0.00000000 1 0.00000000 0.00000000 0.00000000 0.00000000
Neuron 7 2 0.00000000 1 0.00000000 0.00000000 0.00000000 0.00000000
Neuron 8 4 1.00000000 6 0.75000000 0.00000000 0.00000000 0.00000000
Neuron 9 4 1.00000000 5 0.75000000 0.00000000 0.00000000 0.00000000
Neuron 10 3 0.50000000 6 0.75000000 0.00000000 0.00000000 0.00000000
Neuron 11 3 0.50000000 6 0.75000000 0.00000000 0.00000000 0.00000000
Link 1 10 1 0 -0.77492632
Link 4 10 2 0 -0.42669149
Link 10 9 3 0 0.83380352
Link 2 11 4 0 0.56776754
Link 5 11 5 0 -0.20167639
Link 11 9 6 0 -0.30414043
Link 11 8 7 0 1.06735812
Link 7 11 8 0 -0.00536155
Link 7 9 9 0 0.37021356
GenomeEnd

GenomeStart 156
Neuron 1 1 0.00000000 1 0.00000000 0.00000000 0.00000000 0.00000000
Neuron 2 1 0.00000000 1 0.00000000 0.00000000 0.00000000 0.00000000
Neuron 3 1 0.00000000 1 0.00000000 0.00000000 0.00000000 0.00000000
Neuron 4 1 0.00000000 1 0.00000000 0.00000000 0.00000000 0.00000000
Neuron 5 1 0.00000000 1 0.00000000 0.00000000 0.00000000 0.00000000
Neuron 6 1 0.00000000 1 0.00000000 0.00000000 0.00000000 0.00000000
Neuron 7 2 0.00000000 1 0.00000000 0.00000000 0.00000000 0.00000000
Neuron 8 4 1.00000000 6 0.75000000 0.00000000 0.00000000 0.00000000
Neuron 9 4 1.00000000 5 0.75000000 0.00000000 0.00000000 0.00000000
Neuron 10 3 0.50000000 6 0.75000000 0.00000000 0.00000000 0.00000000
Neuron 11 3 0.50000000 6 0.75000000 0.00000000 0.00000000 0.00000000
Link 1 10 1 0 -0.07950433
Link 4 10 2 0 -0.22642902
Link 10 9 3 0 1.40823829
Link 2 11 4 0 -0.72488110
Link 5 11 5 0 0.35874049
Link 11 9 6 0 -0.01230460
Link 11 8 7 0 0.77004327
Link 7 11 8 0 0.32082862
Link 7 9 9 0 0.30710629
GenomeEnd

GenomeStart 157
Neuron 1 1 0.00000000 1 0.00000000 0.00000000 0.00000000 0.00000000
Neuron 2 1 0.00000000 1 0.00000000 0.00000000 0.00000000 0.00000000
Neuron 3 1 0.00000000 1 0.00000000 0.00000000 0.00000000 0.00000000
Neuron 4 1 0.00000000 1 0.00000000 0.00000000 0.00000000 0.00000000
Neuron 5 1 0.00000000 1 0.00000000 0.00000000 0.00000000 0.00000000
Neuron 6 1 0.00000000 1 0.00000000 0.00000000 0.00000000 0.00000000
Neuron 7 2 0.00000000 1 0.00000000 0.00000000 0.00000000 0.00000000
Neuron 8 4 1.00000000 6 0.75000000 0.00000000 0.00000000 0.00000000
Neuron 9 4 1.00000000 5 0.75000000 0.00000000 0.00000000 0.00000000
Neuron 10 3 0.50000000 6 0.75000000 0.00000000 0.00000000 0.00000000
Neuron 11 3 0.50000000 6 0.75000000 0.00000000 0.00000000 0.00000000
Link 1 10 1 0 -0.05856987
Link 4 10 2 0 -0.76295036
Link 10 9 3 0 0.17160368
Link 2 11 4 0 -0.18023377
Link 5 11 5 0 0.40092306
Link 11 9 6 0 0.24038889
Link 11 8 7 0 0.64232971
Link 7 11 8 0 -0.00441601
Link 7 9 9 0 -0.00597669
GenomeEnd

GenomeStart 158
Neuron 1 1 0.00000000 1 0.00000000 0.00000000 0.00000000 0.00000000
Neuron 2 1 0.00000000 1 0.00000000 0.00000000 0.00000000 0.00000000
Neuron 3 1 0.00000000 1 0.00000000 0.00000000 0.00000000 0.00000000
Neuron 4 1 0.00000000 1 0.00000000 0.00000000 0.00000000 0.00000000
Neuron 5 1 0.00000000 1 0.00000000 0.00000000 0.00000000 0.00000000
Neuron 6 1 0.00000000 1 0.00000000 0.00000000 0.00000000 0.00000000
Neuron 7 2 0.00000000 1 0.00000000 0.00000000 0.00000000 0.00000000
Neuron 8 4 1.00000000 6 0.75000000 0.00000000 0.00000000 0.00000000
Neuron 9 4 1.00000000 5 0.75000000 0.00000000 0.00000000 0.00000000
Neuron 10 3 0.50000000 6 0.75000000 0.00000000 0.00000000 0.00000000
Neuron 11 3 0.50000000 6 0.75000000 0.00000000 0.00000000 0.00000000
Link 1 10 1 0 -0.24330591
Link 4 10 2 0 -0.23067087
Link 10 9 3 0 0.84838255
Link 2 11 4 0 0.76518982
Link 5 11 5 0 0.56807008
Link 11 9 6 0 -0.16503752
Link 11 8 7 0 0.88257528
Link 7 11 8 0 -0.22358877
Link 7 9 9 0 -0.16647696
GenomeEnd

GenomeStart 159
Neuron 1 1 0.00000000 1 0.00000000 0.00000000 0.00000000 0.00000000
Neuron 2 1 0.00000000 1 0.00000000 0.00000000 0.00000000 0.00000000
Neuron 3 1 0.00000000 1 0.00000000 0.00000000 0.00000000 0.00000000
Neuron 4 1 0.00000000 1 0.00000000 0.00000000 0.00000000 0.00000000
Neuron 5 1 0.00000000 1 0.00000000 0.00000000 0.00000000 0.00000000
Neuron 6 1 0.00000000 1 0.00000000 0.00000000 0.00000000 0.00000000
Neuron 7 2 0.00000000 1 0.00000000 0.00000000 0.00000000 0.00000000
Neuron 8 4 1.00000000 6 0.75000000 0.00000000 0.00000000 0.00000000
Neuron 9 4 1.00000000 5 0.75000000 0.00000000 0.00000000 0.00000000
Neuron 10 3 0.50000000 6 0.75000000 0.00000000 0.00000000 0.00000000
Neuron 11 3 0.50000000 6 0.75000000 0.00000000 0.00000000 0.00000000
Link 1 10 1 0 -0.30929390
Link 4 10 2 0 -0.44848905
Link 10 9 3 0 -1.16580958
Link 2 11 4 0 0.17147077
Link 5 11 5 0 -1.01126008
Link 11 9 6 0 -1.15418168
Link 11 8 7 0 -0.08107255
Link 7 11 8 0 0.35470128
Link 7 9 9 0 -0.08227824
GenomeEnd

GenomeStart 160
Neuron 1 1 0.00000000 1 0.00000000 0.00000000 0.00000000 0.00000000
Neuron 2 1 0.00000000 1 0.00000000 0.00000000 0.00000000 0.00000000
Neuron 3 1 0.00000000 1 0.00000000 0.00000000 0.00000000 0.00000000
Neuron 4 1 0.00000000 1 0.00000000 0.00000000 0.00000000 0.00000000
Neuron 5 1 0.00000000 1 0.00000000 0.00000000 0.00000000 0.00000000
Neuron 6 1 0.00000000 1 0.00000000 0.00000000 0.00000000 0.00000000
Neuron 7 2 0.00000000 1 0.00000000 0.00000000 0.00000000 0.00000000
Neuron 8 4 1.00000000 6 0.75000000 0.00000000 0.00000000 0.00000000
Neuron 9 4 1.00000000 5 0.75000000 0.00000000 0.00000000 0.00000000
Neuron 10 3 0.50000000 6 0.75000000 0.00000000 0.00000000 0.00000000
Neuron 11 3 0.50000000 6 0.75000000 0.00000000 0.00000000 0.00000000
Link 1 10 1 0 -0.29307481
Link 4 10 2 0 -0.41272202
Link 10 9 3 0 0.84750618
Link 2 11 4 0 0.58472300
Link 5 11 5 0 -0.22718388
Link 11 9 6 0 -0.53186567
Link 11 8 7 0 0.05194979
Link 7 11 8 0 0.30600251
Link 7 9 9 0 0.36758903
GenomeEnd

GenomeStart 161
Neuron 1 1 0.00000000 1 0.00000000 0.00000000 0.00000000 0.00000000
Neuron 2 1 0.00000000 1 0.00000000 0.00000000 0.00000000 0.00000000
Neuron 3 1 0.00000000 1 0.00000000 0.00000000 0.00000000 0.00000000
Neuron 4 1 0.00000000 1 0.00000000 0.00000000 0.00000000 0.00000000
Neuron 5 1 0.00000000 1 0.00000000 0.00000000 0.00000000 0.00000000
Neuron 6 1 0.00000000 1 0.00000000 0.00000000 0.00000000 0.00000000
Neuron 7 2 0.00000000 1 0.00000000 0.00000000 0.00000000 0.00000000
Neuron 8 4 1.00000000 6 0.75000000 0.00000000 0.00000000 0.00000000
Neuron 9 4 1.00000000 5 0.75000000 0.00000000 0.00000000 0.00000000
Neuron 10 3 0.50000000 6 0.75000000 0.00000000 0.00000000 0.00000000
Neuron 11 3 0.50000000 6 0.75000000 0.00000000 0.00000000 0.00000000
Link 1 10 1 0 0.43529797
Link 4 10 2 0 0.63773308
Link 10 9 3 0 0.49934162
Link 2 11 4 0 0.51801240
Link 5 11 5 0 -0.06469086
Link 11 9 6 0 -0.53947832
Link 11 8 7 0 0.08151242
Link 7 11 8 0 0.16200855
Link 7 9 9 0 -0.25109538
GenomeEnd

GenomeStart 162
Neuron 1 1 0.00000000 1 0.00000000 0.00000000 0.00000000 0.00000000
Neuron 2 1 0.00000000 1 0.00000000 0.00000000 0.00000000 0.00000000
Neuron 3 1 0.00000000 1 0.00000000 0.00000000 0.00000000 0.00000000
Neuron 4 1 0.00000000 1 0.00000000 0.00000000 0.00000000 0.00000000
Neuron 5 1 0.00000000 1 0.00000000 0.00000000 0.00000000 0.00000000
Neuron 6 1 0.00000000 1 0.00000000 0.00000000 0.00000000 0.00000000
Neuron 7 2 0.00000000 1 0.00000000 0.00000000 0.00000000 0.00000000
Neuron 8 4 1.00000000 6 0.75000000 0.00000000 0.00000000 0.00000000
Neuron 9 4 1.00000000 5 0.75000000 0.00000000 0.00000000 0.00000000
Neuron 10 3 0.50000000 6 0.75000000 0.00000000 0.00000000 0.00000000
Neuron 11 3 0.50000000 6 0.75000000 0.00000000 0.00000000 0.00000000
Link 1 10 1 0 -0.28784132
Link 4 10 2 0 -0.67037784
Link 10 9 3 0 1.29162589
Link 2 11 4 0 -0.17350015
Link 5 11 5 0 -0.01221992
Link 11 9 6 0 0.14923972
Link 11 8 7 0 -0.25026299
Link 7 11 8 0 0.34026427
Link 7 9 9 0 -0.02139577
GenomeEnd

GenomeStart 163
Neuron 1 1 0.00000000 1 0.00000000 0.00000000 0.00000000 0.00000000
Neuron 2 1 0.00000000 1 0.00000000 0.00000000 0.00000000 0.00000000
Neuron 3 1 0.00000000 1 0.00000000 0.00000000 0.00000000 0.00000000
Neuron 4 1 0.00000000 1 0.00000000 0.00000000 0.00000000 0.00000000
Neuron 5 1 0.00000000 1 0.00000000 0.00000000 0.00000000 0.00000000
Neuron 6 1 0.00000000 1 0.00000000 0.00000000 0.00000000 0.00000000
Neuron 7 2 0.00000000 1 0.00000000 0.00000000 0.00000000 0.00000000
Neuron 8 4 1.00000000 6 0.75000000 0.00000000 0.00000000 0.00000000
Neuron 9 4 1.00000000 5 0.75000000 0.00000000 0.00000000 0.00000000
Neuron 10 3 0.50000000 6 0.75000000 0.00000000 0.00000000 0.00000000
Neuron 11 3 0.50000000 6 0.75000000 0.00000000 0.00000000 0.00000000
Link 1 10 1 0 -0.08494374
Link 4 10 2 0 0.40362786
Link 10 9 3 0 -0.04546624
Link 2 11 4 0 -0.54679990
Link 5 11 5 0 0.14686573
Link 11 9 6 0 0.42804131
Link 11 8 7 0 0.11542794
Link 7 11 8 0 -1.24829711
Link 7 9 9 0 0.61339225
GenomeEnd

GenomeStart 164
Neuron 1 1 0.00000000 1 0.00000000 0.00000000 0.00000000 0.00000000
Neuron 2 1 0.00000000 1 0.00000000 0.00000000 0.00000000 0.00000000
Neuron 3 1 0.00000000 1 0.00000000 0.00000000 0.00000000 0.00000000
Neuron 4 1 0.00000000 1 0.00000000 0.00000000 0.00000000 0.00000000
Neuron 5 1 0.00000000 1 0.00000000 0.00000000 0.00000000 0.00000000
Neuron 6 1 0.00000000 1 0.00000000 0.00000000 0.00000000 0.00000000
Neuron 7 2 0.00000000 1 0.00000000 0.00000000 0.00000000 0.00000000
Neuron 8 4 1.00000000 6 0.75000000 0.00000000 0.00000000 0.00000000
Neuron 9 4 1.00000000 5 0.75000000 0.00000000 0.00000000 0.00000000
Neuron 10 3 0.50000000 6 0.75000000 0.00000000 0.00000000 0.00000000
Neuron 11 3 0.50000000 6 0.75000000 0.00000000 0.00000000 0.00000000
Link 1 10 1 0 -0.21337670
Link 4 10 2 0 0.87976867
Link 10 9 3 0 1.22257890
Link 2 11 4 0 0.55404459
Link 5 11 5 0 -0.58846684
Link 11 9 6 0 -0.25628130
Link 11 8 7 0 0.08536184
Link 7 11 8 0 0.74299283
Link 7 9 9 0 0.84597504
GenomeEnd

GenomeStart 165
Neuron 1 1 0.00000000 1 0.00000000 0.00000000 0.00000000 0.00000000
Neuron 2 1 0.00000000 1 0.00000000 0.00000000 0.00000000 0.00000000
Neuron 3 1 0.00000000 1 0.00000000 0.00000000 0.00000000 0.00000000
Neuron 4 1 0.00000000 1 0.00000000 0.00000000 0.00000000 0.00000000
Neuron 5 1 0.00000000 1 0.00000000 0.00000000 0.00000000 0.00000000
Neuron 6 1 0.00000000 1 0.00000000 0.00000000 0.00000000 0.00000000
Neuron 7 2 0.00000000 1 0.00000000 0.00000000 0.00000000 0.00000000
Neuron 8 4 1.00000000 6 0.75000000 0.00000000 0.00000000 0.00000000
Neuron 9 4 1.00000000 5 0.75000000 0.00000000 0.00000000 0.00000000
Neuron 10 3 0.50000000 6 0.75000000 0.00000000 0.00000000 0.00000000
Neuron 11 3 0.50000000 6 0.75000000 0.00000000 0.00000000 0.00000000
Link 1 10 1 0 0.03700049
Link 4 10 2 0 0.04109419
Link 10 9 3 0 -0.09610873
Link 2 11 4 0 -0.04052130
Link 5 11 5 0 0.23810767
Link 11 9 6 0 0.05771334
Link 11 8 7 0 0.78880239
Link 7 11 8 0 0.10075713
Link 7 9 9 0 0.32838019
GenomeEnd

GenomeStart 166
Neuron 1 1 0.00000000 1 0.00000000 0.00000000 0.00000000 0.00000000
Neuron 2 1 0.00000000 1 0.00000000 0.00000000 0.00000000 0.00000000
Neuron 3 1 0.00000000 1 0.00000000 0.00000000 0.00000000 0.00000000
Neuron 4 1 0.00000000 1 0.00000000 0.00000000 0.00000000 0.00000000
Neuron 5 1 0.00000000 1 0.00000000 0.00000000 0.00000000 0.00000000
Neuron 6 1 0.00000000 1 0.00000000 0.00000000 0.00000000 0.00000000
Neuron 7 2 0.00000000 1 0.00000000 0.00000000 0.00000000 0.00000000
Neuron 8 4 1.00000000 6 0.75000000 0.00000000 0.00000000 0.00000000
Neuron 9 4 1.00000000 5 0.75000000 0.00000000 0.00000000 0.00000000
Neuron 10 3 0.50000000 6 0.75000000 0.00000000 0.00000000 0.00000000
Neuron 11 3 0.50000000 6 0.75000000 0.00000000 0.00000000 0.00000000
Link 1 10 1 0 -0.32824630
Link 4 10 2 0 0.18344731
Link 10 9 3 0 0.18874460
Link 2 11 4 0 -0.26123567
Link 5 11 5 0 0.22417263
Link 11 9 6 0 0.12994425
Link 11 8 7 0 -0.06074357
Link 7 11 8 0 -0.62399970
Link 7 9 9 0 0.95024178
GenomeEnd

GenomeStart 167
Neuron 1 1 0.00000000 1 0.00000000 0.00000000 0.00000000 0.00000000
Neuron 2 1 0.00000000 1 0.00000000 0.00000000 0.00000000 0.00000000
Neuron 3 1 0.00000000 1 0.00000000 0.00000000 0.00000000 0.00000000
Neuron 4 1 0.00000000 1 0.00000000 0.00000000 0.00000000 0.00000000
Neuron 5 1 0.00000000 1 0.00000000 0.00000000 0.00000000 0.00000000
Neuron 6 1 0.00000000 1 0.00000000 0.00000000 0.00000000 0.00000000
Neuron 7 2 0.00000000 1 0.00000000 0.00000000 0.00000000 0.00000000
Neuron 8 4 1.00000000 6 0.75000000 0.00000000 0.00000000 0.00000000
Neuron 9 4 1.00000000 5 0.75000000 0.00000000 0.00000000 0.00000000
Neuron 10 3 0.50000000 6 0.75000000 0.00000000 0.00000000 0.00000000
Neuron 11 3 0.50000000 6 0.75000000 0.00000000 0.00000000 0.00000000
Link 1 10 1 0 -0.77186754
Link 4 10 2 0 -0.20939528
Link 10 9 3 0 0.99170470
Link 2 11 4 0 -0.27827413
Link 5 11 5 0 -0.52639535
Link 11 9 6 0 -0.06662379
Link 11 8 7 0 0.16544214
Link 7 11 8 0 0.20253037
Link 7 9 9 0 -0.14053178
GenomeEnd

GenomeStart 168
Neuron 1 1 0.00000000 1 0.00000000 0.00000000 0.00000000 0.00000000
Neuron 2 1 0.00000000 1 0.00000000 0.00000000 0.00000000 0.00000000
Neuron 3 1 0.00000000 1 0.00000000 0.00000000 0.00000000 0.00000000
Neuron 4 1 0.00000000 1 0.00000000 0.00000000 0.00000000 0.00000000
Neuron 5 1 0.00000000 1 0.00000000 0.00000000 0.00000000 0.00000000
Neuron 6 1 0.00000000 1 0.00000000 0.00000000 0.00000000 0.00000000
Neuron 7 2 0.00000000 1 0.00000000 0.00000000 0.00000000 0.00000000
Neuron 8 4 1.00000000 6 0.75000000 0.00000000 0.00000000 0.00000000
Neuron 9 4 1.00000000 5 0.75000000 0.00000000 0.00000000 0.00000000
Neuron 10 3 0.50000000 6 0.75000000 0.00000000 0.00000000 0.00000000
Neuron 11 3 0.50000000 6 0.75000000 0.00000000 0.00000000 0.00000000
Link 1 10 1 0 -0.64331087
Link 4 10 2 0 -0.23396075
Link 10 9 3 0 0.03086158
Link 2 11 4 0 1.65717351
Link 5 11 5 0 0.01858951
Link 11 9 6 0 -0.08534197
Link 11 8 7 0 -1.16734327
Link 7 11 8 0 0.68630228
Link 7 9 9 0 0.32701655
GenomeEnd

GenomeStart 169
Neuron 1 1 0.00000000 1 0.00000000 0.00000000 0.00000000 0.00000000
Neuron 2 1 0.00000000 1 0.00000000 0.00000000 0.00000000 0.00000000
Neuron 3 1 0.00000000 1 0.00000000 0.00000000 0.00000000 0.00000000
Neuron 4 1 0.00000000 1 0.00000000 0.00000000 0.00000000 0.00000000
Neuron 5 1 0.00000000 1 0.00000000 0.00000000 0.00000000 0.00000000
Neuron 6 1 0.00000000 1 0.00000000 0.00000000 0.00000000 0.00000000
Neuron 7 2 0.00000000 1 0.00000000 0.00000000 0.00000000 0.00000000
Neuron 8 4 1.00000000 6 0.75000000 0.00000000 0.00000000 0.00000000
Neuron 9 4 1.00000000 5 0.75000000 0.00000000 0.00000000 0.00000000
Neuron 10 3 0.50000000 6 0.75000000 0.00000000 0.00000000 0.00000000
Neuron 11 3 0.50000000 6 0.75000000 0.00000000 0.00000000 0.00000000
Link 1 10 1 0 -0.98923072
Link 4 10 2 0 0.03641810
Link 10 9 3 0 0.90346799
Link 2 11 4 0 -0.61050657
Link 5 11 5 0 -0.09073246
Link 11 9 6 0 0.02743068
Link 11 8 7 0 -0.40962534
Link 7 11 8 0 -0.19818636
Link 7 9 9 0 0.58868383
GenomeEnd

GenomeStart 170
Neuron 1 1 0.00000000 1 0.00000000 0.00000000 0.00000000 0.00000000
Neuron 2 1 0.00000000 1 0.00000000 0.00000000 0.00000000 0.00000000
Neuron 3 1 0.00000000 1 0.00000000 0.00000000 0.00000000 0.00000000
Neuron 4 1 0.00000000 1 0.00000000 0.00000000 0.00000000 0.00000000
Neuron 5 1 0.00000000 1 0.00000000 0.00000000 0.00000000 0.00000000
Neuron 6 1 0.00000000 1 0.00000000 0.00000000 0.00000000 0.00000000
Neuron 7 2 0.00000000 1 0.00000000 0.00000000 0.00000000 0.00000000
Neuron 8 4 1.00000000 6 0.75000000 0.00000000 0.00000000 0.00000000
Neuron 9 4 1.00000000 5 0.75000000 0.00000000 0.00000000 0.00000000
Neuron 10 3 0.50000000 6 0.75000000 0.00000000 0.00000000 0.00000000
Neuron 11 3 0.50000000 6 0.75000000 0.00000000 0.00000000 0.00000000
Link 1 10 1 0 0.71802853
Link 4 10 2 0 0.61493429
Link 10 9 3 0 -0.01856274
Link 2 11 4 0 -0.16826094
Link 5 11 5 0 0.20012529
Link 11 9 6 0 -0.13056560
Link 11 8 7 0 0.71333770
Link 7 11 8 0 0.45753547
Link 7 9 9 0 -0.28133844
GenomeEnd

GenomeStart 171
Neuron 1 1 0.00000000 1 0.00000000 0.00000000 0.00000000 0.00000000
Neuron 2 1 0.00000000 1 0.00000000 0.00000000 0.00000000 0.00000000
Neuron 3 1 0.00000000 1 0.00000000 0.00000000 0.00000000 0.00000000
Neuron 4 1 0.00000000 1 0.00000000 0.00000000 0.00000000 0.00000000
Neuron 5 1 0.00000000 1 0.00000000 0.00000000 0.00000000 0.00000000
Neuron 6 1 0.00000000 1 0.00000000 0.00000000 0.00000000 0.00000000
Neuron 7 2 0.00000000 1 0.00000000 0.00000000 0.00000000 0.00000000
Neuron 8 4 1.00000000 6 0.75000000 0.00000000 0.00000000 0.00000000
Neuron 9 4 1.00000000 5 0.75000000 0.00000000 0.00000000 0.00000000
Neuron 10 3 0.50000000 6 0.75000000 0.00000000 0.00000000 0.00000000
Neuron 11 3 0.50000000 6 0.75000000 0.00000000 0.00000000 0.00000000
Link 1 10 1 0 -0.50793212
Link 4 10 2 0 0.72846172
Link 10 9 3 0 0.14189781
Link 2 11 4 0 -0.03072866
Link 5 11 5 0 0.60020017
Link 11 9 6 0 -0.37235482
Link 11 8 7 0 0.38657274
Link 7 11 8 0 -0.53374303
Link 7 9 9 0 1.07197540
GenomeEnd

GenomeStart 172
Neuron 1 1 0.00000000 1 0.00000000 0.00000000 0.00000000 0.00000000
Neuron 2 1 0.00000000 1 0.00000000 0.00000000 0.00000000 0.00000000
Neuron 3 1 0.00000000 1 0.00000000 0.00000000 0.00000000 0.00000000
Neuron 4 1 0.00000000 1 0.00000000 0.00000000 0.00000000 0.00000000
Neuron 5 1 0.00000000 1 0.00000000 0.00000000 0.00000000 0.00000000
Neuron 6 1 0.00000000 1 0.00000000 0.00000000 0.00000000 0.00000000
Neuron 7 2 0.00000000 1 0.00000000 0.00000000 0.00000000 0.00000000
Neuron 8 4 1.00000000 6 0.75000000 0.00000000 0.00000000 0.00000000
Neuron 9 4 1.00000000 5 0.75000000 0.00000000 0.00000000 0.00000000
Neuron 10 3 0.50000000 6 0.75000000 0.00000000 0.00000000 0.00000000
Neuron 11 3 0.50000000 6 0.75000000 0.00000000 0.00000000 0.00000000
Link 1 10 1 0 0.51035995
Link 4 10 2 0 -0.55757260
Link 10 9 3 0 -0.69276781
Link 2 11 4 0 -0.01154474
Link 5 11 5 0 -0.15583756
Link 11 9 6 0 0.14480487
Link 11 8 7 0 0.11065387
Link 7 11 8 0 0.33845750
Link 7 9 9 0 0.27544093
GenomeEnd

GenomeStart 173
Neuron 1 1 0.00000000 1 0.00000000 0.00000000 0.00000000 0.00000000
Neuron 2 1 0.00000000 1 0.00000000 0.00000000 0.00000000 0.00000000
Neuron 3 1 0.00000000 1 0.00000000 0.00000000 0.00000000 0.00000000
Neuron 4 1 0.00000000 1 0.00000000 0.00000000 0.00000000 0.00000000
Neuron 5 1 0.00000000 1 0.00000000 0.00000000 0.00000000 0.00000000
Neuron 6 1 0.00000000 1 0.00000000 0.00000000 0.00000000 0.00000000
Neuron 7 2 0.00000000 1 0.00000000 0.00000000 0.00000000 0.00000000
Neuron 8 4 1.00000000 6 0.75000000 0.00000000 0.00000000 0.00000000
Neuron 9 4 1.00000000 5 0.75000000 0.00000000 0.00000000 0.00000000
Neuron 10 3 0.50000000 6 0.75000000 0.00000000 0.00000000 0.00000000
Neuron 11 3 0.50000000 6 0.75000000 0.00000000 0.00000000 0.00000000
Link 1 10 1 0 -0.23365492
Link 4 10 2 0 -0.16926689
Link 10 9 3 0 -1.29099686
Link 2 11 4 0 0.47252169
Link 5 11 5 0 0.53125837
Link 11 9 6 0 0.39059203
Link 11 8 7 0 -1.12245264
Link 7 11 8 0 -0.47923342
Link 7 9 9 0 0.25680075
GenomeEnd

GenomeStart 174
Neuron 1 1 0.00000000 1 0.00000000 0.00000000 0.00000000 0.00000000
Neuron 2 1 0.00000000 1 0.00000000 0.00000000 0.00000000 0.00000000
Neuron 3 1 0.00000000 1 0.00000000 0.00000000 0.00000000 0.00000000
Neuron 4 1 0.00000000 1 0.00000000 0.00000000 0.00000000 0.00000000
Neuron 5 1 0.00000000 1 0.00000000 0.00000000 0.00000000 0.00000000
Neuron 6 1 0.00000000 1 0.00000000 0.00000000 0.00000000 0.00000000
Neuron 7 2 0.00000000 1 0.00000000 0.00000000 0.00000000 0.00000000
Neuron 8 4 1.00000000 6 0.75000000 0.00000000 0.00000000 0.00000000
Neuron 9 4 1.00000000 5 0.75000000 0.00000000 0.00000000 0.00000000
Neuron 10 3 0.50000000 6 0.75000000 0.00000000 0.00000000 0.00000000
Neuron 11 3 0.50000000 6 0.75000000 0.00000000 0.00000000 0.00000000
Link 1 10 1 0 -0.50430623
Link 4 10 2 0 0.67219931
Link 10 9 3 0 0.11664989
Link 2 11 4 0 0.04179262
Link 5 11 5 0 -0.41488105
Link 11 9 6 0 0.08226189
Link 11 8 7 0 -0.03370074
Link 7 11 8 0 0.40786846
Link 7 9 9 0 -0.22494636
GenomeEnd

GenomeStart 175
Neuron 1 1 0.00000000 1 0.00000000 0.00000000 0.00000000 0.00000000
Neuron 2 1 0.00000000 1 0.00000000 0.00000000 0.00000000 0.00000000
Neuron 3 1 0.00000000 1 0.00000000 0.00000000 0.00000000 0.00000000
Neuron 4 1 0.00000000 1 0.00000000 0.00000000 0.00000000 0.00000000
Neuron 5 1 0.00000000 1 0.00000000 0.00000000 0.00000000 0.00000000
Neuron 6 1 0.00000000 1 0.00000000 0.00000000 0.00000000 0.00000000
Neuron 7 2 0.00000000 1 0.00000000 0.00000000 0.00000000 0.00000000
Neuron 8 4 1.00000000 6 0.75000000 0.00000000 0.00000000 0.00000000
Neuron 9 4 1.00000000 5 0.75000000 0.00000000 0.00000000 0.00000000
Neuron 10 3 0.50000000 6 0.75000000 0.00000000 0.00000000 0.00000000
Neuron 11 3 0.50000000 6 0.75000000 0.00000000 0.00000000 0.00000000
Link 1 10 1 0 0.47371223
Link 4 10 2 0 -0.41558641
Link 10 9 3 0 -0.47134763
Link 2 11 4 0 -0.11189814
Link 5 11 5 0 -0.38256117
Link 11 9 6 0 0.31156792
Link 11 8 7 0 -0.15834648
Link 7 11 8 0 0.08641478
Link 7 9 9 0 0.43599714
GenomeEnd

GenomeStart 176
Neuron 1 1 0.00000000 1 0.00000000 0.00000000 0.00000000 0.00000000
Neuron 2 1 0.00000000 1 0.00000000 0.00000000 0.00000000 0.00000000
Neuron 3 1 0.00000000 1 0.00000000 0.00000000 0.00000000 0.00000000
Neuron 4 1 0.00000000 1 0.00000000 0.00000000 0.00000000 0.00000000
Neuron 5 1 0.00000000 1 0.00000000 0.00000000 0.00000000 0.00000000
Neuron 6 1 0.00000000 1 0.00000000 0.00000000 0.00000000 0.00000000
Neuron 7 2 0.00000000 1 0.00000000 0.00000000 0.00000000 0.00000000
Neuron 8 4 1.00000000 6 0.75000000 0.00000000 0.00000000 0.00000000
Neuron 9 4 1.00000000 5 0.75000000 0.00000000 0.00000000 0.00000000
Neuron 10 3 0.50000000 6 0.75000000 0.00000000 0.00000000 0.00000000
Neuron 11 3 0.50000000 6 0.75000000 0.00000000 0.00000000 0.00000000
Link 1 10 1 0 1.29707757
Link 4 10 2 0 0.88126041
Link 10 9 3 0 0.43378021
Link 2 11 4 0 0.76453738
Link 5 11 5 0 -0.03142708
Link 11 9 6 0 0.68177843
Link 11 8 7 0 -0.06905877
Link 7 11 8 0 0.06038023
Link 7 9 9 0 0.57554803
GenomeEnd

GenomeStart 177
Neuron 1 1 0.00000000 1 0.00000000 0.00000000 0.00000000 0.00000000
Neuron 2 1 0.00000000 1 0.00000000 0.00000000 0.00000000 0.00000000
Neuron 3 1 0.00000000 1 0.00000000 0.00000000 0.00000000 0.00000000
Neuron 4 1 0.00000000 1 0.00000000 0.00000000 0.00000000 0.00000000
Neuron 5 1 0.00000000 1 0.00000000 0.00000000 0.00000000 0.00000000
Neuron 6 1 0.00000000 1 0.00000000 0.00000000 0.00000000 0.00000000
Neuron 7 2 0.00000000 1 0.00000000 0.00000000 0.00000000 0.00000000
Neuron 8 4 1.00000000 6 0.75000000 0.00000000 0.00000000 0.00000000
Neuron 9 4 1.00000000 5 0.75000000 0.00000000 0.00000000 0.00000000
Neuron 10 3 0.50000000 6 0.75000000 0.00000000 0.00000000 0.00000000
Neuron 11 3 0.50000000 6 0.75000000 0.00000000 0.00000000 0.00000000
Link 1 10 1 0 -0.66822547
Link 4 10 2 0 0.26592841
Link 10 9 3 0 -0.34663798
Link 2 11 4 0 0.43804585
Link 5 11 5 0 -0.49355345
Link 11 9 6 0 0.39269356
Link 11 8 7 0 0.26770962
Link 7 11 8 0 0.29709174
Link 7 9 9 0 0.43767995
GenomeEnd

GenomeStart 178
Neuron 1 1 0.00000000 1 0.00000000 0.00000000 0.00000000 0.00000000
Neuron 2 1 0.00000000 1 0.00000000 0.00000000 0.00000000 0.00000000
Neuron 3 1 0.00000000 1 0.00000000 0.00000000 0.00000000 0.00000000
Neuron 4 1 0.00000000 1 0.00000000 0.00000000 0.00000000 0.00000000
Neuron 5 1 0.00000000 1 0.00000000 0.00000000 0.00000000 0.00000000
Neuron 6 1 0.00000000 1 0.00000000 0.00000000 0.00000000 0.00000000
Neuron 7 2 0.00000000 1 0.00000000 0.00000000 0.00000000 0.00000000
Neuron 8 4 1.00000000 6 0.75000000 0.00000000 0.00000000 0.00000000
Neuron 9 4 1.00000000 5 0.75000000 0.00000000 0.00000000 0.00000000
Neuron 10 3 0.50000000 6 0.75000000 0.00000000 0.00000000 0.00000000
Neuron 11 3 0.50000000 6 0.75000000 0.00000000 0.00000000 0.00000000
Link 1 10 1 0 -0.30958556
Link 4 10 2 0 -1.21886137
Link 10 9 3 0 -0.56976233
Link 2 11 4 0 0.96675909
Link 5 11 5 0 0.54665182
Link 11 9 6 0 0.28293964
Link 11 8 7 0 0.36320808
Link 7 11 8 0 -0.16151525
Link 7 9 9 0 0.57251044
GenomeEnd

GenomeStart 179
Neuron 1 1 0.00000000 1 0.00000000 0.00000000 0.00000000 0.00000000
Neuron 2 1 0.00000000 1 0.00000000 0.00000000 0.00000000 0.00000000
Neuron 3 1 0.00000000 1 0.00000000 0.00000000 0.00000000 0.00000000
Neuron 4 1 0.00000000 1 0.00000000 0.00000000 0.00000000 0.00000000
Neuron 5 1 0.00000000 1 0.00000000 0.00000000 0.00000000 0.00000000
Neuron 6 1 0.00000000 1 0.00000000 0.00000000 0.00000000 0.00000000
Neuron 7 2 0.00000000 1 0.00000000 0.00000000 0.00000000 0.00000000
Neuron 8 4 1.00000000 6 0.75000000 0.00000000 0.00000000 0.00000000
Neuron 9 4 1.00000000 5 0.75000000 0.00000000 0.00000000 0.00000000
Neuron 10 3 0.50000000 6 0.75000000 0.00000000 0.00000000 0.00000000
Neuron 11 3 0.50000000 6 0.75000000 0.00000000 0.00000000 0.00000000
Link 1 10 1 0 -0.14456496
Link 4 10 2 0 0.00823376
Link 10 9 3 0 -0.12433720
Link 2 11 4 0 0.69176905
Link 5 11 5 0 -0.12850100
Link 11 9 6 0 0.47878994
Link 11 8 7 0 -0.62017432
Link 7 11 8 0 -0.71259578
Link 7 9 9 0 -0.10921732
GenomeEnd

GenomeStart 180
Neuron 1 1 0.00000000 1 0.00000000 0.00000000 0.00000000 0.00000000
Neuron 2 1 0.00000000 1 0.00000000 0.00000000 0.00000000 0.00000000
Neuron 3 1 0.00000000 1 0.00000000 0.00000000 0.00000000 0.00000000
Neuron 4 1 0.00000000 1 0.00000000 0.00000000 0.00000000 0.00000000
Neuron 5 1 0.00000000 1 0.00000000 0.00000000 0.00000000 0.00000000
Neuron 6 1 0.00000000 1 0.00000000 0.00000000 0.00000000 0.00000000
Neuron 7 2 0.00000000 1 0.00000000 0.00000000 0.00000000 0.00000000
Neuron 8 4 1.00000000 6 0.75000000 0.00000000 0.00000000 0.00000000
Neuron 9 4 1.00000000 5 0.75000000 0.00000000 0.00000000 0.00000000
Neuron 10 3 0.50000000 6 0.75000000 0.00000000 0.00000000 0.00000000
Neuron 11 3 0.50000000 6 0.75000000 0.00000000 0.00000000 0.00000000
Link 1 10 1 0 0.32660284
Link 4 10 2 0 -0.11527982
Link 10 9 3 0 0.60040360
Link 2 11 4 0 0.15761106
Link 5 11 5 0 -0.25212836
Link 11 9 6 0 -0.01712089
Link 11 8 7 0 0.20841687
Link 7 11 8 0 -0.16732272
Link 7 9 9 0 -0.27542037
GenomeEnd

GenomeStart 181
Neuron 1 1 0.00000000 1 0.00000000 0.00000000 0.00000000 0.00000000
Neuron 2 1 0.00000000 1 0.00000000 0.00000000 0.00000000 0.00000000
Neuron 3 1 0.00000000 1 0.00000000 0.00000000 0.00000000 0.00000000
Neuron 4 1 0.00000000 1 0.00000000 0.00000000 0.00000000 0.00000000
Neuron 5 1 0.00000000 1 0.00000000 0.00000000 0.00000000 0.00000000
Neuron 6 1 0.00000000 1 0.00000000 0.00000000 0.00000000 0.00000000
Neuron 7 2 0.00000000 1 0.00000000 0.00000000 0.00000000 0.00000000
Neuron 8 4 1.00000000 6 0.75000000 0.00000000 0.00000000 0.00000000
Neuron 9 4 1.00000000 5 0.75000000 0.00000000 0.00000000 0.00000000
Neuron 10 3 0.50000000 6 0.75000000 0.00000000 0.00000000 0.00000000
Neuron 11 3 0.50000000 6 0.75000000 0.00000000 0.00000000 0.00000000
Link 1 10 1 0 0.84929621
Link 4 10 2 0 0.75995387
Link 10 9 3 0 0.55373984
Link 2 11 4 0 -0.01154474
Link 5 11 5 0 0.66108509
Link 11 9 6 0 0.06293083
Link 11 8 7 0 -0.40473640
Link 7 11 8 0 0.33845750
Link 7 9 9 0 -0.43277028
GenomeEnd

GenomeStart 182
Neuron 1 1 0.00000000 1 0.00000000 0.00000000 0.00000000 0.00000000
Neuron 2 1 0.00000000 1 0.00000000 0.00000000 0.00000000 0.00000000
Neuron 3 1 0.00000000 1 0.00000000 0.00000000 0.00000000 0.00000000
Neuron 4 1 0.00000000 1 0.00000000 0.00000000 0.00000000 0.00000000
Neuron 5 1 0.00000000 1 0.00000000 0.00000000 0.00000000 0.00000000
Neuron 6 1 0.00000000 1 0.00000000 0.00000000 0.00000000 0.00000000
Neuron 7 2 0.00000000 1 0.00000000 0.00000000 0.00000000 0.00000000
Neuron 8 4 1.00000000 6 0.75000000 0.00000000 0.00000000 0.00000000
Neuron 9 4 1.00000000 5 0.75000000 0.00000000 0.00000000 0.00000000
Neuron 10 3 0.50000000 6 0.75000000 0.00000000 0.00000000 0.00000000
Neuron 11 3 0.50000000 6 0.75000000 0.00000000 0.00000000 0.00000000
Link 1 10 1 0 -0.50793212
Link 4 10 2 0 -0.41683181
Link 10 9 3 0 0.14189781
Link 2 11 4 0 0.05643690
Link 5 11 5 0 -0.81466252
Link 11 9 6 0 -0.39895181
Link 11 8 7 0 0.38657274
Link 7 11 8 0 0.26044781
Link 7 9 9 0 0.62002374
GenomeEnd

GenomeStart 183
Neuron 1 1 0.00000000 1 0.00000000 0.00000000 0.00000000 0.00000000
Neuron 2 1 0.00000000 1 0.00000000 0.00000000 0.00000000 0.00000000
Neuron 3 1 0.00000000 1 0.00000000 0.00000000 0.00000000 0.00000000
Neuron 4 1 0.00000000 1 0.00000000 0.00000000 0.00000000 0.00000000
Neuron 5 1 0.00000000 1 0.00000000 0.00000000 0.00000000 0.00000000
Neuron 6 1 0.00000000 1 0.00000000 0.00000000 0.00000000 0.00000000
Neuron 7 2 0.00000000 1 0.00000000 0.00000000 0.00000000 0.00000000
Neuron 8 4 1.00000000 6 0.75000000 0.00000000 0.00000000 0.00000000
Neuron 9 4 1.00000000 5 0.75000000 0.00000000 0.00000000 0.00000000
Neuron 10 3 0.50000000 6 0.75000000 0.00000000 0.00000000 0.00000000
Neuron 11 3 0.50000000 6 0.75000000 0.00000000 0.00000000 0.00000000
Link 1 10 1 0 0.70490606
Link 4 10 2 0 0.02763128
Link 10 9 3 0 0.20261505
Link 2 11 4 0 0.03053200
Link 5 11 5 0 0.31998742
Link 11 9 6 0 0.44208540
Link 11 8 7 0 0.38922033
Link 7 11 8 0 0.58564156
Link 7 9 9 0 -0.15373012
GenomeEnd

GenomeStart 184
Neuron 1 1 0.00000000 1 0.00000000 0.00000000 0.00000000 0.00000000
Neuron 2 1 0.00000000 1 0.00000000 0.00000000 0.00000000 0.00000000
Neuron 3 1 0.00000000 1 0.00000000 0.00000000 0.00000000 0.00000000
Neuron 4 1 0.00000000 1 0.00000000 0.00000000 0.00000000 0.00000000
Neuron 5 1 0.00000000 1 0.00000000 0.00000000 0.00000000 0.00000000
Neuron 6 1 0.00000000 1 0.00000000 0.00000000 0.00000000 0.00000000
Neuron 7 2 0.00000000 1 0.00000000 0.00000000 0.00000000 0.00000000
Neuron 8 4 1.00000000 6 0.75000000 0.00000000 0.00000000 0.00000000
Neuron 9 4 1.00000000 5 0.75000000 0.00000000 0.00000000 0.00000000
Neuron 10 3 0.50000000 6 0.75000000 0.00000000 0.00000000 0.00000000
Neuron 11 3 0.50000000 6 0.75000000 0.00000000 0.00000000 0.00000000
Link 1 10 1 0 -0.30898645
Link 4 10 2 0 -0.74176819
Link 10 9 3 0 1.30643226
Link 2 11 4 0 0.58574711
Link 5 11 5 0 -0.38271515
Link 11 9 6 0 -0.08651988
Link 11 8 7 0 -0.23353214
Link 7 11 8 0 -0.08504075
Link 7 9 9 0 -0.50156482
GenomeEnd

GenomeStart 185
Neuron 1 1 0.00000000 1 0.00000000 0.00000000 0.00000000 0.00000000
Neuron 2 1 0.00000000 1 0.00000000 0.00000000 0.00000000 0.00000000
Neuron 3 1 0.00000000 1 0.00000000 0.00000000 0.00000000 0.00000000
Neuron 4 1 0.00000000 1 0.00000000 0.00000000 0.00000000 0.00000000
Neuron 5 1 0.00000000 1 0.00000000 0.00000000 0.00000000 0.00000000
Neuron 6 1 0.00000000 1 0.00000000 0.00000000 0.00000000 0.00000000
Neuron 7 2 0.00000000 1 0.00000000 0.00000000 0.00000000 0.00000000
Neuron 8 4 1.00000000 6 0.75000000 0.00000000 0.00000000 0.00000000
Neuron 9 4 1.00000000 5 0.75000000 0.00000000 0.00000000 0.00000000
Neuron 10 3 0.50000000 6 0.75000000 0.00000000 0.00000000 0.00000000
Neuron 11 3 0.50000000 6 0.75000000 0.00000000 0.00000000 0.00000000
Link 1 10 1 0 1.03647237
Link 4 10 2 0 0.27248073
Link 10 9 3 0 0.31408760
Link 2 11 4 0 0.01079848
Link 5 11 5 0 -0.35435456
Link 11 9 6 0 -0.64816970
Link 11 8 7 0 -0.03545102
Link 7 11 8 0 0.29625917
Link 7 9 9 0 -0.18064149
GenomeEnd

GenomeStart 186
Neuron 1 1 0.00000000 1 0.00000000 0.00000000 0.00000000 0.00000000
Neuron 2 1 0.00000000 1 0.00000000 0.00000000 0.00000000 0.00000000
Neuron 3 1 0.00000000 1 0.00000000 0.00000000 0.00000000 0.00000000
Neuron 4 1 0.00000000 1 0.00000000 0.00000000 0.00000000 0.00000000
Neuron 5 1 0.00000000 1 0.00000000 0.00000000 0.00000000 0.00000000
Neuron 6 1 0.00000000 1 0.00000000 0.00000000 0.00000000 0.00000000
Neuron 7 2 0.00000000 1 0.00000000 0.00000000 0.00000000 0.00000000
Neuron 8 4 1.00000000 6 0.75000000 0.00000000 0.00000000 0.00000000
Neuron 9 4 1.00000000 5 0.75000000 0.00000000 0.00000000 0.00000000
Neuron 10 3 0.50000000 6 0.75000000 0.00000000 0.00000000 0.00000000
Neuron 11 3 0.50000000 6 0.75000000 0.00000000 0.00000000 0.00000000
Link 1 10 1 0 -0.57612437
Link 4 10 2 0 -0.06167985
Link 10 9 3 0 -0.37386341
Link 2 11 4 0 0.78328054
Link 5 11 5 0 -0.66456948
Link 11 9 6 0 0.74011073
Link 11 8 7 0 -0.78889964
Link 7 11 8 0 0.56162852
Link 7 9 9 0 -0.22618421
GenomeEnd

GenomeStart 187
Neuron 1 1 0.00000000 1 0.00000000 0.00000000 0.00000000 0.00000000
Neuron 2 1 0.00000000 1 0.00000000 0.00000000 0.00000000 0.00000000
Neuron 3 1 0.00000000 1 0.00000000 0.00000000 0.00000000 0.00000000
Neuron 4 1 0.00000000 1 0.00000000 0.00000000 0.00000000 0.00000000
Neuron 5 1 0.00000000 1 0.00000000 0.00000000 0.00000000 0.00000000
Neuron 6 1 0.00000000 1 0.00000000 0.00000000 0.00000000 0.00000000
Neuron 7 2 0.00000000 1 0.00000000 0.00000000 0.00000000 0.00000000
Neuron 8 4 1.00000000 6 0.75000000 0.00000000 0.00000000 0.00000000
Neuron 9 4 1.00000000 5 0.75000000 0.00000000 0.00000000 0.00000000
Neuron 10 3 0.50000000 6 0.75000000 0.00000000 0.00000000 0.00000000
Neuron 11 3 0.50000000 6 0.75000000 0.00000000 0.00000000 0.00000000
Link 1 10 1 0 0.11071406
Link 4 10 2 0 -0.55997599
Link 10 9 3 0 -1.13498871
Link 2 11 4 0 0.33360691
Link 5 11 5 0 0.23575367
Link 11 9 6 0 0.19661779
Link 11 8 7 0 0.52187421
Link 7 11 8 0 0.57162908
Link 7 9 9 0 0.47157754
GenomeEnd

GenomeStart 188
Neuron 1 1 0.00000000 1 0.00000000 0.00000000 0.00000000 0.00000000
Neuron 2 1 0.00000000 1 0.00000000 0.00000000 0.00000000 0.00000000
Neuron 3 1 0.00000000 1 0.00000000 0.00000000 0.00000000 0.00000000
Neuron 4 1 0.00000000 1 0.00000000 0.00000000 0.00000000 0.00000000
Neuron 5 1 0.00000000 1 0.00000000 0.00000000 0.00000000 0.00000000
Neuron 6 1 0.00000000 1 0.00000000 0.00000000 0.00000000 0.00000000
Neuron 7 2 0.00000000 1 0.00000000 0.00000000 0.00000000 0.00000000
Neuron 8 4 1.00000000 6 0.75000000 0.00000000 0.00000000 0.00000000
Neuron 9 4 1.00000000 5 0.75000000 0.00000000 0.00000000 0.00000000
Neuron 10 3 0.50000000 6 0.75000000 0.00000000 0.00000000 0.00000000
Neuron 11 3 0.50000000 6 0.75000000 0.00000000 0.00000000 0.00000000
Link 1 10 1 0 -0.63289061
Link 4 10 2 0 0.18777962
Link 10 9 3 0 0.78762368
Link 2 11 4 0 -0.88204859
Link 5 11 5 0 -0.18657070
Link 11 9 6 0 0.41336789
Link 11 8 7 0 -0.54313450
Link 7 11 8 0 0.05548203
Link 7 9 9 0 0.23030522
GenomeEnd

GenomeStart 189
Neuron 1 1 0.00000000 1 0.00000000 0.00000000 0.00000000 0.00000000
Neuron 2 1 0.00000000 1 0.00000000 0.00000000 0.00000000 0.00000000
Neuron 3 1 0.00000000 1 0.00000000 0.00000000 0.00000000 0.00000000
Neuron 4 1 0.00000000 1 0.00000000 0.00000000 0.00000000 0.00000000
Neuron 5 1 0.00000000 1 0.00000000 0.00000000 0.00000000 0.00000000
Neuron 6 1 0.00000000 1 0.00000000 0.00000000 0.00000000 0.00000000
Neuron 7 2 0.00000000 1 0.00000000 0.00000000 0.00000000 0.00000000
Neuron 8 4 1.00000000 6 0.75000000 0.00000000 0.00000000 0.00000000
Neuron 9 4 1.00000000 5 0.75000000 0.00000000 0.00000000 0.00000000
Neuron 10 3 0.50000000 6 0.75000000 0.00000000 0.00000000 0.00000000
Neuron 11 3 0.50000000 6 0.75000000 0.00000000 0.00000000 0.00000000
Link 1 10 1 0 -1.36598853
Link 4 10 2 0 0.40812862
Link 10 9 3 0 1.13549707
Link 2 11 4 0 1.01251680
Link 5 11 5 0 -0.41113067
Link 11 9 6 0 -0.16171615
Link 11 8 7 0 0.56589240
Link 7 11 8 0 0.11893281
Link 7 9 9 0 0.12137104
GenomeEnd

GenomeStart 190
Neuron 1 1 0.00000000 1 0.00000000 0.00000000 0.00000000 0.00000000
Neuron 2 1 0.00000000 1 0.00000000 0.00000000 0.00000000 0.00000000
Neuron 3 1 0.00000000 1 0.00000000 0.00000000 0.00000000 0.00000000
Neuron 4 1 0.00000000 1 0.00000000 0.00000000 0.00000000 0.00000000
Neuron 5 1 0.00000000 1 0.00000000 0.00000000 0.00000000 0.00000000
Neuron 6 1 0.00000000 1 0.00000000 0.00000000 0.00000000 0.00000000
Neuron 7 2 0.00000000 1 0.00000000 0.00000000 0.00000000 0.00000000
Neuron 8 4 1.00000000 6 0.75000000 0.00000000 0.00000000 0.00000000
Neuron 9 4 1.00000000 5 0.75000000 0.00000000 0.00000000 0.00000000
Neuron 10 3 0.50000000 6 0.75000000 0.00000000 0.00000000 0.00000000
Neuron 11 3 0.50000000 6 0.75000000 0.00000000 0.00000000 0.00000000
Link 1 10 1 0 0.26449202
Link 4 10 2 0 0.01166064
Link 10 9 3 0 0.31408760
Link 2 11 4 0 0.76518982
Link 5 11 5 0 0.56807008
Link 11 9 6 0 -0.64816970
Link 11 8 7 0 -0.03545102
Link 7 11 8 0 -0.22358877
Link 7 9 9 0 -0.19750929
GenomeEnd

GenomeStart 191
Neuron 1 1 0.00000000 1 0.00000000 0.00000000 0.00000000 0.00000000
Neuron 2 1 0.00000000 1 0.00000000 0.00000000 0.00000000 0.00000000
Neuron 3 1 0.00000000 1 0.00000000 0.00000000 0.00000000 0.00000000
Neuron 4 1 0.00000000 1 0.00000000 0.00000000 0.00000000 0.00000000
Neuron 5 1 0.00000000 1 0.00000000 0.00000000 0.00000000 0.00000000
Neuron 6 1 0.00000000 1 0.00000000 0.00000000 0.00000000 0.00000000
Neuron 7 2 0.00000000 1 0.00000000 0.00000000 0.00000000 0.00000000
Neuron 8 4 1.00000000 6 0.75000000 0.00000000 0.00000000 0.00000000
Neuron 9 4 1.00000000 5 0.75000000 0.00000000 0.00000000 0.00000000
Neuron 10 3 0.50000000 6 0.75000000 0.00000000 0.00000000 0.00000000
Neuron 11 3 0.50000000 6 0.75000000 0.00000000 0.00000000 0.00000000
Link 1 10 1 0 0.23671550
Link 4 10 2 0 -0.11469247
Link 10 9 3 0 0.65509055
Link 2 11 4 0 0.15313711
Link 5 11 5 0 -0.36337812
Link 11 9 6 0 -0.38254307
Link 11 8 7 0 -0.24504264
Link 7 11 8 0 0.18666255
Link 7 9 9 0 -0.24542122
GenomeEnd

GenomeStart 192
Neuron 1 1 0.00000000 1 0.00000000 0.00000000 0.00000000 0.00000000
Neuron 2 1 0.00000000 1 0.00000000 0.00000000 0.00000000 0.00000000
Neuron 3 1 0.00000000 1 0.00000000 0.00000000 0.00000000 0.00000000
Neuron 4 1 0.00000000 1 0.00000000 0.00000000 0.00000000 0.00000000
Neuron 5 1 0.00000000 1 0.00000000 0.00000000 0.00000000 0.00000000
Neuron 6 1 0.00000000 1 0.00000000 0.00000000 0.00000000 0.00000000
Neuron 7 2 0.00000000 1 0.00000000 0.00000000 0.00000000 0.00000000
Neuron 8 4 1.00000000 6 0.75000000 0.00000000 0.00000000 0.00000000
Neuron 9 4 1.00000000 5 0.75000000 0.00000000 0.00000000 0.00000000
Neuron 10 3 0.50000000 6 0.75000000 0.00000000 0.00000000 0.00000000
Neuron 11 3 0.50000000 6 0.75000000 0.00000000 0.00000000 0.00000000
Link 1 10 1 0 -1.07532147
Link 4 10 2 0 0.00898374
Link 10 9 3 0 0.51145146
Link 2 11 4 0 0.82362388
Link 5 11 5 0 -0.18118952
Link 11 9 6 0 0.96920985
Link 11 8 7 0 -0.21794621
Link 7 11 8 0 0.49492637
Link 7 9 9 0 -0.11113979
GenomeEnd

GenomeStart 193
Neuron 1 1 0.00000000 1 0.00000000 0.00000000 0.00000000 0.00000000
Neuron 2 1 0.00000000 1 0.00000000 0.00000000 0.00000000 0.00000000
Neuron 3 1 0.00000000 1 0.00000000 0.00000000 0.00000000 0.00000000
Neuron 4 1 0.00000000 1 0.00000000 0.00000000 0.00000000 0.00000000
Neuron 5 1 0.00000000 1 0.00000000 0.00000000 0.00000000 0.00000000
Neuron 6 1 0.00000000 1 0.00000000 0.00000000 0.00000000 0.00000000
Neuron 7 2 0.00000000 1 0.00000000 0.00000000 0.00000000 0.00000000
Neuron 8 4 1.00000000 6 0.75000000 0.00000000 0.00000000 0.00000000
Neuron 9 4 1.00000000 5 0.75000000 0.00000000 0.00000000 0.00000000
Neuron 10 3 0.50000000 6 0.75000000 0.00000000 0.00000000 0.00000000
Neuron 11 3 0.50000000 6 0.75000000 0.00000000 0.00000000 0.00000000
Link 1 10 1 0 1.08057548
Link 4 10 2 0 -0.92373227
Link 10 9 3 0 -0.27685536
Link 2 11 4 0 -0.28689897
Link 5 11 5 0 0.61043654
Link 11 9 6 0 0.52959404
Link 11 8 7 0 -0.46946589
Link 7 11 8 0 0.05390175
Link 7 9 9 0 1.01413659
GenomeEnd

GenomeStart 194
Neuron 1 1 0.00000000 1 0.00000000 0.00000000 0.00000000 0.00000000
Neuron 2 1 0.00000000 1 0.00000000 0.00000000 0.00000000 0.00000000
Neuron 3 1 0.00000000 1 0.00000000 0.00000000 0.00000000 0.00000000
Neuron 4 1 0.00000000 1 0.00000000 0.00000000 0.00000000 0.00000000
Neuron 5 1 0.00000000 1 0.00000000 0.00000000 0.00000000 0.00000000
Neuron 6 1 0.00000000 1 0.00000000 0.00000000 0.00000000 0.00000000
Neuron 7 2 0.00000000 1 0.00000000 0.00000000 0.00000000 0.00000000
Neuron 8 4 1.00000000 6 0.75000000 0.00000000 0.00000000 0.00000000
Neuron 9 4 1.00000000 5 0.75000000 0.00000000 0.00000000 0.00000000
Neuron 10 3 0.50000000 6 0.75000000 0.00000000 0.00000000 0.00000000
Neuron 11 3 0.50000000 6 0.75000000 0.00000000 0.00000000 0.00000000
Link 1 10 1 0 -1.08542124
Link 4 10 2 0 -0.64624454
Link 10 9 3 0 -0.57198961
Link 2 11 4 0 -1.15190200
Link 5 11 5 0 -0.45821897
Link 11 9 6 0 -0.10533622
Link 11 8 7 0 0.21284658
Link 7 11 8 0 -0.65659018
Link 7 9 9 0 -0.00821234
GenomeEnd

GenomeStart 196
Neuron 1 1 0.00000000 1 0.00000000 0.00000000 0.00000000 0.00000000
Neuron 2 1 0.00000000 1 0.00000000 0.00000000 0.00000000 0.00000000
Neuron 3 1 0.00000000 1 0.00000000 0.00000000 0.00000000 0.00000000
Neuron 4 1 0.00000000 1 0.00000000 0.00000000 0.00000000 0.00000000
Neuron 5 1 0.00000000 1 0.00000000 0.00000000 0.00000000 0.00000000
Neuron 6 1 0.00000000 1 0.00000000 0.00000000 0.00000000 0.00000000
Neuron 7 2 0.00000000 1 0.00000000 0.00000000 0.00000000 0.00000000
Neuron 8 4 1.00000000 6 0.75000000 0.00000000 0.00000000 0.00000000
Neuron 9 4 1.00000000 5 0.75000000 0.00000000 0.00000000 0.00000000
Neuron 10 3 0.50000000 6 0.75000000 0.00000000 0.00000000 0.00000000
Neuron 11 3 0.50000000 6 0.75000000 0.00000000 0.00000000 0.00000000
Link 1 10 1 0 0.02779231
Link 4 10 2 0 -0.50992802
Link 10 9 3 0 -0.14414730
Link 2 11 4 0 0.22064711
Link 5 11 5 0 -0.45530143
Link 11 9 6 0 -0.30083165
Link 11 8 7 0 -0.58581157
Link 7 11 8 0 -0.33942490
Link 7 9 9 0 0.06200830
GenomeEnd

GenomeStart 197
Neuron 1 1 0.00000000 1 0.00000000 0.00000000 0.00000000 0.00000000
Neuron 2 1 0.00000000 1 0.00000000 0.00000000 0.00000000 0.00000000
Neuron 3 1 0.00000000 1 0.00000000 0.00000000 0.00000000 0.00000000
Neuron 4 1 0.00000000 1 0.00000000 0.00000000 0.00000000 0.00000000
Neuron 5 1 0.00000000 1 0.00000000 0.00000000 0.00000000 0.00000000
Neuron 6 1 0.00000000 1 0.00000000 0.00000000 0.00000000 0.00000000
Neuron 7 2 0.00000000 1 0.00000000 0.00000000 0.00000000 0.00000000
Neuron 8 4 1.00000000 6 0.75000000 0.00000000 0.00000000 0.00000000
Neuron 9 4 1.00000000 5 0.75000000 0.00000000 0.00000000 0.00000000
Neuron 10 3 0.50000000 6 0.75000000 0.00000000 0.00000000 0.00000000
Neuron 11 3 0.50000000 6 0.75000000 0.00000000 0.00000000 0.00000000
Link 1 10 1 0 -0.66822547
Link 4 10 2 0 0.41617017
Link 10 9 3 0 0.23578716
Link 2 11 4 0 -0.31756646
Link 5 11 5 0 0.79893004
Link 11 9 6 0 0.41034524
Link 11 8 7 0 0.26770962
Link 7 11 8 0 -0.02043079
Link 7 9 9 0 0.43767995
GenomeEnd

GenomeStart 198
Neuron 1 1 0.00000000 1 0.00000000 0.00000000 0.00000000 0.00000000
Neuron 2 1 0.00000000 1 0.00000000 0.00000000 0.00000000 0.00000000
Neuron 3 1 0.00000000 1 0.00000000 0.00000000 0.00000000 0.00000000
Neuron 4 1 0.00000000 1 0.00000000 0.00000000 0.00000000 0.00000000
Neuron 5 1 0.00000000 1 0.00000000 0.00000000 0.00000000 0.00000000
Neuron 6 1 0.00000000 1 0.00000000 0.00000000 0.00000000 0.00000000
Neuron 7 2 0.00000000 1 0.00000000 0.00000000 0.00000000 0.00000000
Neuron 8 4 1.00000000 6 0.75000000 0.00000000 0.00000000 0.00000000
Neuron 9 4 1.00000000 5 0.75000000 0.00000000 0.00000000 0.00000000
Neuron 10 3 0.50000000 6 0.75000000 0.00000000 0.00000000 0.00000000
Neuron 11 3 0.50000000 6 0.75000000 0.00000000 0.00000000 0.00000000
Link 1 10 1 0 -0.21337670
Link 4 10 2 0 0.48618628
Link 10 9 3 0 0.51286125
Link 2 11 4 0 0.55404459
Link 5 11 5 0 0.08770451
Link 11 9 6 0 -0.69736544
Link 11 8 7 0 0.14896097
Link 7 11 8 0 0.30246597
Link 7 9 9 0 -0.53428318
GenomeEnd

GenomeStart 199
Neuron 1 1 0.00000000 1 0.00000000 0.00000000 0.00000000 0.00000000
Neuron 2 1 0.00000000 1 0.00000000 0.00000000 0.00000000 0.00000000
Neuron 3 1 0.00000000 1 0.00000000 0.00000000 0.00000000 0.00000000
Neuron 4 1 0.00000000 1 0.00000000 0.00000000 0.00000000 0.00000000
Neuron 5 1 0.00000000 1 0.00000000 0.00000000 0.00000000 0.00000000
Neuron 6 1 0.00000000 1 0.00000000 0.00000000 0.00000000 0.00000000
Neuron 7 2 0.00000000 1 0.00000000 0.00000000 0.00000000 0.00000000
Neuron 8 4 1.00000000 6 0.75000000 0.00000000 0.00000000 0.00000000
Neuron 9 4 1.00000000 5 0.75000000 0.00000000 0.00000000 0.00000000
Neuron 10 3 0.50000000 6 0.75000000 0.00000000 0.00000000 0.00000000
Neuron 11 3 0.50000000 6 0.75000000 0.00000000 0.00000000 0.00000000
Link 1 10 1 0 0.48786553
Link 4 10 2 0 0.34772701
Link 10 9 3 0 0.60632404
Link 2 11 4 0 1.43818215
Link 5 11 5 0 -0.62866329
Link 11 9 6 0 0.64544773
Link 11 8 7 0 0.43581773
Link 7 11 8 0 0.09493926
Link 7 9 9 0 -0.02574062
GenomeEnd

GenomeStart 200
Neuron 1 1 0.00000000 1 0.00000000 0.00000000 0.00000000 0.00000000
Neuron 2 1 0.00000000 1 0.00000000 0.00000000 0.00000000 0.00000000
Neuron 3 1 0.00000000 1 0.00000000 0.00000000 0.00000000 0.00000000
Neuron 4 1 0.00000000 1 0.00000000 0.00000000 0.00000000 0.00000000
Neuron 5 1 0.00000000 1 0.00000000 0.00000000 0.00000000 0.00000000
Neuron 6 1 0.00000000 1 0.00000000 0.00000000 0.00000000 0.00000000
Neuron 7 2 0.00000000 1 0.00000000 0.00000000 0.00000000 0.00000000
Neuron 8 4 1.00000000 6 0.75000000 0.00000000 0.00000000 0.00000000
Neuron 9 4 1.00000000 5 0.75000000 0.00000000 0.00000000 0.00000000
Neuron 10 3 0.50000000 6 0.75000000 0.00000000 0.00000000 0.00000000
Neuron 11 3 0.50000000 6 0.75000000 0.00000000 0.00000000 0.00000000
Link 1 10 1 0 -0.10037507
Link 4 10 2 0 -0.15029441
Link 10 9 3 0 -0.46660287
Link 2 11 4 0 -0.77843851
Link 5 11 5 0 -0.68824479
Link 11 9 6 0 -0.14940872
Link 11 8 7 0 0.40273177
Link 7 11 8 0 -0.21595959
Link 7 9 9 0 0.40123505
GenomeEnd

GenomeStart 201
Neuron 1 1 0.00000000 1 0.00000000 0.00000000 0.00000000 0.00000000
Neuron 2 1 0.00000000 1 0.00000000 0.00000000 0.00000000 0.00000000
Neuron 3 1 0.00000000 1 0.00000000 0.00000000 0.00000000 0.00000000
Neuron 4 1 0.00000000 1 0.00000000 0.00000000 0.00000000 0.00000000
Neuron 5 1 0.00000000 1 0.00000000 0.00000000 0.00000000 0.00000000
Neuron 6 1 0.00000000 1 0.00000000 0.00000000 0.00000000 0.00000000
Neuron 7 2 0.00000000 1 0.00000000 0.00000000 0.00000000 0.00000000
Neuron 8 4 1.00000000 6 0.75000000 0.00000000 0.00000000 0.00000000
Neuron 9 4 1.00000000 5 0.75000000 0.00000000 0.00000000 0.00000000
Neuron 10 3 0.50000000 6 0.75000000 0.00000000 0.00000000 0.00000000
Neuron 11 3 0.50000000 6 0.75000000 0.00000000 0.00000000 0.00000000
Link 1 10 1 0 0.62938598
Link 4 10 2 0 0.18016416
Link 10 9 3 0 0.46414730
Link 2 11 4 0 0.66258602
Link 5 11 5 0 0.13911205
Link 11 9 6 0 -0.38566146
Link 11 8 7 0 -0.30550601
Link 7 11 8 0 -0.39347261
Link 7 9 9 0 -1.06546292
GenomeEnd

GenomeStart 202
Neuron 1 1 0.00000000 1 0.00000000 0.00000000 0.00000000 0.00000000
Neuron 2 1 0.00000000 1 0.00000000 0.00000000 0.00000000 0.00000000
Neuron 3 1 0.00000000 1 0.00000000 0.00000000 0.00000000 0.00000000
Neuron 4 1 0.00000000 1 0.00000000 0.00000000 0.00000000 0.00000000
Neuron 5 1 0.00000000 1 0.00000000 0.00000000 0.00000000 0.00000000
Neuron 6 1 0.00000000 1 0.00000000 0.00000000 0.00000000 0.00000000
Neuron 7 2 0.00000000 1 0.00000000 0.00000000 0.00000000 0.00000000
Neuron 8 4 1.00000000 6 0.75000000 0.00000000 0.00000000 0.00000000
Neuron 9 4 1.00000000 5 0.75000000 0.00000000 0.00000000 0.00000000
Neuron 10 3 0.50000000 6 0.75000000 0.00000000 0.00000000 0.00000000
Neuron 11 3 0.50000000 6 0.75000000 0.00000000 0.00000000 0.00000000
Link 1 10 1 0 -0.20957908
Link 4 10 2 0 -0.53259090
Link 10 9 3 0 -1.12627155
Link 2 11 4 0 -0.05746467
Link 5 11 5 0 -0.68225734
Link 11 9 6 0 -0.63461493
Link 11 8 7 0 0.23939607
Link 7 11 8 0 -0.96904177
Link 7 9 9 0 0.48047861
GenomeEnd

GenomeStart 203
Neuron 1 1 0.00000000 1 0.00000000 0.00000000 0.00000000 0.00000000
Neuron 2 1 0.00000000 1 0.00000000 0.00000000 0.00000000 0.00000000
Neuron 3 1 0.00000000 1 0.00000000 0.00000000 0.00000000 0.00000000
Neuron 4 1 0.00000000 1 0.00000000 0.00000000 0.00000000 0.00000000
Neuron 5 1 0.00000000 1 0.00000000 0.00000000 0.00000000 0.00000000
Neuron 6 1 0.00000000 1 0.00000000 0.00000000 0.00000000 0.00000000
Neuron 7 2 0.00000000 1 0.00000000 0.00000000 0.00000000 0.00000000
Neuron 8 4 1.00000000 6 0.75000000 0.00000000 0.00000000 0.00000000
Neuron 9 4 1.00000000 5 0.75000000 0.00000000 0.00000000 0.00000000
Neuron 10 3 0.50000000 6 0.75000000 0.00000000 0.00000000 0.00000000
Neuron 11 3 0.50000000 6 0.75000000 0.00000000 0.00000000 0.00000000
Link 1 10 1 0 0.26975728
Link 4 10 2 0 0.46055712
Link 10 9 3 0 -0.64834251
Link 2 11 4 0 0.51801240
Link 5 11 5 0 -0.06469086
Link 11 9 6 0 0.25715107
Link 11 8 7 0 -0.81145001
Link 7 11 8 0 -0.41041350
Link 7 9 9 0 -0.25109538
GenomeEnd

GenomeStart 204
Neuron 1 1 0.00000000 1 0.00000000 0.00000000 0.00000000 0.00000000
Neuron 2 1 0.00000000 1 0.00000000 0.00000000 0.00000000 0.00000000
Neuron 3 1 0.00000000 1 0.00000000 0.00000000 0.00000000 0.00000000
Neuron 4 1 0.00000000 1 0.00000000 0.00000000 0.00000000 0.00000000
Neuron 5 1 0.00000000 1 0.00000000 0.00000000 0.00000000 0.00000000
Neuron 6 1 0.00000000 1 0.00000000 0.00000000 0.00000000 0.00000000
Neuron 7 2 0.00000000 1 0.00000000 0.00000000 0.00000000 0.00000000
Neuron 8 4 1.00000000 6 0.75000000 0.00000000 0.00000000 0.00000000
Neuron 9 4 1.00000000 5 0.75000000 0.00000000 0.00000000 0.00000000
Neuron 10 3 0.50000000 6 0.75000000 0.00000000 0.00000000 0.00000000
Neuron 11 3 0.50000000 6 0.75000000 0.00000000 0.00000000 0.00000000
Link 1 10 1 0 0.18964792
Link 4 10 2 0 -0.32356097
Link 10 9 3 0 0.31158930
Link 2 11 4 0 0.23248098
Link 5 11 5 0 -0.84597444
Link 11 9 6 0 -0.35271685
Link 11 8 7 0 -0.01048018
Link 7 11 8 0 0.44391038
Link 7 9 9 0 -0.64704771
GenomeEnd

GenomeStart 205
Neuron 1 1 0.00000000 1 0.00000000 0.00000000 0.00000000 0.00000000
Neuron 2 1 0.00000000 1 0.00000000 0.00000000 0.00000000 0.00000000
Neuron 3 1 0.00000000 1 0.00000000 0.00000000 0.00000000 0.00000000
Neuron 4 1 0.00000000 1 0.00000000 0.00000000 0.00000000 0.00000000
Neuron 5 1 0.00000000 1 0.00000000 0.00000000 0.00000000 0.00000000
Neuron 6 1 0.00000000 1 0.00000000 0.00000000 0.00000000 0.00000000
Neuron 7 2 0.00000000 1 0.00000000 0.00000000 0.00000000 0.00000000
Neuron 8 4 1.00000000 6 0.75000000 0.00000000 0.00000000 0.00000000
Neuron 9 4 1.00000000 5 0.75000000 0.00000000 0.00000000 0.00000000
Neuron 10 3 0.50000000 6 0.75000000 0.00000000 0.00000000 0.00000000
Neuron 11 3 0.50000000 6 0.75000000 0.00000000 0.00000000 0.00000000
Link 1 10 1 0 -0.21180213
Link 4 10 2 0 -0.12454729
Link 10 9 3 0 0.88695863
Link 2 11 4 0 -0.08039442
Link 5 11 5 0 0.09833597
Link 11 9 6 0 -0.21352596
Link 11 8 7 0 -0.75065266
Link 7 11 8 0 0.11203026
Link 7 9 9 0 -0.12975978
GenomeEnd

GenomeStart 206
Neuron 1 1 0.00000000 1 0.00000000 0.00000000 0.00000000 0.00000000
Neuron 2 1 0.00000000 1 0.00000000 0.00000000 0.00000000 0.00000000
Neuron 3 1 0.00000000 1 0.00000000 0.00000000 0.00000000 0.00000000
Neuron 4 1 0.00000000 1 0.00000000 0.00000000 0.00000000 0.00000000
Neuron 5 1 0.00000000 1 0.00000000 0.00000000 0.00000000 0.00000000
Neuron 6 1 0.00000000 1 0.00000000 0.00000000 0.00000000 0.00000000
Neuron 7 2 0.00000000 1 0.00000000 0.00000000 0.00000000 0.00000000
Neuron 8 4 1.00000000 6 0.75000000 0.00000000 0.00000000 0.00000000
Neuron 9 4 1.00000000 5 0.75000000 0.00000000 0.00000000 0.00000000
Neuron 10 3 0.50000000 6 0.75000000 0.00000000 0.00000000 0.00000000
Neuron 11 3 0.50000000 6 0.75000000 0.00000000 0.00000000 0.00000000
Link 1 10 1 0 -0.66390825
Link 4 10 2 0 0.25910079
Link 10 9 3 0 0.88815937
Link 2 11 4 0 0.03115096
Link 5 11 5 0 0.02156168
Link 11 9 6 0 -0.05645017
Link 11 8 7 0 -0.15968728
Link 7 11 8 0 0.01436823
Link 7 9 9 0 0.65767458
GenomeEnd

GenomeStart 207
Neuron 1 1 0.00000000 1 0.00000000 0.00000000 0.00000000 0.00000000
Neuron 2 1 0.00000000 1 0.00000000 0.00000000 0.00000000 0.00000000
Neuron 3 1 0.00000000 1 0.00000000 0.00000000 0.00000000 0.00000000
Neuron 4 1 0.00000000 1 0.00000000 0.00000000 0.00000000 0.00000000
Neuron 5 1 0.00000000 1 0.00000000 0.00000000 0.00000000 0.00000000
Neuron 6 1 0.00000000 1 0.00000000 0.00000000 0.00000000 0.00000000
Neuron 7 2 0.00000000 1 0.00000000 0.00000000 0.00000000 0.00000000
Neuron 8 4 1.00000000 6 0.75000000 0.00000000 0.00000000 0.00000000
Neuron 9 4 1.00000000 5 0.75000000 0.00000000 0.00000000 0.00000000
Neuron 10 3 0.50000000 6 0.75000000 0.00000000 0.00000000 0.00000000
Neuron 11 3 0.50000000 6 0.75000000 0.00000000 0.00000000 0.00000000
Link 1 10 1 0 -0.49014866
Link 4 10 2 0 0.08607633
Link 10 9 3 0 0.34396240
Link 2 11 4 0 1.23123580
Link 5 11 5 0 0.02215043
Link 11 9 6 0 0.04531469
Link 11 8 7 0 -0.75065266
Link 7 11 8 0 0.61146101
Link 7 9 9 0 0.43414294
GenomeEnd

GenomeStart 208
Neuron 1 1 0.00000000 1 0.00000000 0.00000000 0.00000000 0.00000000
Neuron 2 1 0.00000000 1 0.00000000 0.00000000 0.00000000 0.00000000
Neuron 3 1 0.00000000 1 0.00000000 0.00000000 0.00000000 0.00000000
Neuron 4 1 0.00000000 1 0.00000000 0.00000000 0.00000000 0.00000000
Neuron 5 1 0.00000000 1 0.00000000 0.00000000 0.00000000 0.00000000
Neuron 6 1 0.00000000 1 0.00000000 0.00000000 0.00000000 0.00000000
Neuron 7 2 0.00000000 1 0.00000000 0.00000000 0.00000000 0.00000000
Neuron 8 4 1.00000000 6 0.75000000 0.00000000 0.00000000 0.00000000
Neuron 9 4 1.00000000 5 0.75000000 0.00000000 0.00000000 0.00000000
Neuron 10 3 0.50000000 6 0.75000000 0.00000000 0.00000000 0.00000000
Neuron 11 3 0.50000000 6 0.75000000 0.00000000 0.00000000 0.00000000
Link 1 10 1 0 -0.54729815
Link 4 10 2 0 0.26742252
Link 10 9 3 0 -0.73353659
Link 2 11 4 0 0.49165503
Link 5 11 5 0 -0.21950441
Link 11 9 6 0 -1.41241374
Link 11 8 7 0 -0.51120161
Link 7 11 8 0 0.10397899
Link 7 9 9 0 0.19925137
GenomeEnd

GenomeStart 209
Neuron 1 1 0.00000000 1 0.00000000 0.00000000 0.00000000 0.00000000
Neuron 2 1 0.00000000 1 0.00000000 0.00000000 0.00000000 0.00000000
Neuron 3 1 0.00000000 1 0.00000000 0.00000000 0.00000000 0.00000000
Neuron 4 1 0.00000000 1 0.00000000 0.00000000 0.00000000 0.00000000
Neuron 5 1 0.00000000 1 0.00000000 0.00000000 0.00000000 0.00000000
Neuron 6 1 0.00000000 1 0.00000000 0.00000000 0.00000000 0.00000000
Neuron 7 2 0.00000000 1 0.00000000 0.00000000 0.00000000 0.00000000
Neuron 8 4 1.00000000 6 0.75000000 0.00000000 0.00000000 0.00000000
Neuron 9 4 1.00000000 5 0.75000000 0.00000000 0.00000000 0.00000000
Neuron 10 3 0.50000000 6 0.75000000 0.00000000 0.00000000 0.00000000
Neuron 11 3 0.50000000 6 0.75000000 0.00000000 0.00000000 0.00000000
Link 1 10 1 0 -0.56446967
Link 4 10 2 0 0.27273198
Link 10 9 3 0 -1.51793966
Link 2 11 4 0 -1.33969681
Link 5 11 5 0 -1.12394463
Link 11 9 6 0 -0.24978230
Link 11 8 7 0 0.08968146
Link 7 11 8 0 -0.05951737
Link 7 9 9 0 0.25338578
GenomeEnd

GenomeStart 210
Neuron 1 1 0.00000000 1 0.00000000 0.00000000 0.00000000 0.00000000
Neuron 2 1 0.00000000 1 0.00000000 0.00000000 0.00000000 0.00000000
Neuron 3 1 0.00000000 1 0.00000000 0.00000000 0.00000000 0.00000000
Neuron 4 1 0.00000000 1 0.00000000 0.00000000 0.00000000 0.00000000
Neuron 5 1 0.00000000 1 0.00000000 0.00000000 0.00000000 0.00000000
Neuron 6 1 0.00000000 1 0.00000000 0.00000000 0.00000000 0.00000000
Neuron 7 2 0.00000000 1 0.00000000 0.00000000 0.00000000 0.00000000
Neuron 8 4 1.00000000 6 0.75000000 0.00000000 0.00000000 0.00000000
Neuron 9 4 1.00000000 5 0.75000000 0.00000000 0.00000000 0.00000000
Neuron 10 3 0.50000000 6 0.75000000 0.00000000 0.00000000 0.00000000
Neuron 11 3 0.50000000 6 0.75000000 0.00000000 0.00000000 0.00000000
Link 1 10 1 0 0.03919987
Link 4 10 2 0 0.43776439
Link 10 9 3 0 -0.17463883
Link 2 11 4 0 -0.24953450
Link 5 11 5 0 0.06812192
Link 11 9 6 0 -0.02249234
Link 11 8 7 0 0.44371967
Link 7 11 8 0 0.55341822
Link 7 9 9 0 -0.41642840
GenomeEnd

GenomeStart 211
Neuron 1 1 0.00000000 1 0.00000000 0.00000000 0.00000000 0.00000000
Neuron 2 1 0.00000000 1 0.00000000 0.00000000 0.00000000 0.00000000
Neuron 3 1 0.00000000 1 0.00000000 0.00000000 0.00000000 0.00000000
Neuron 4 1 0.00000000 1 0.00000000 0.00000000 0.00000000 0.00000000
Neuron 5 1 0.00000000 1 0.00000000 0.00000000 0.00000000 0.00000000
Neuron 6 1 0.00000000 1 0.00000000 0.00000000 0.00000000 0.00000000
Neuron 7 2 0.00000000 1 0.00000000 0.00000000 0.00000000 0.00000000
Neuron 8 4 1.00000000 6 0.75000000 0.00000000 0.00000000 0.00000000
Neuron 9 4 1.00000000 5 0.75000000 0.00000000 0.00000000 0.00000000
Neuron 10 3 0.50000000 6 0.75000000 0.00000000 0.00000000 0.00000000
Neuron 11 3 0.50000000 6 0.75000000 0.00000000 0.00000000 0.00000000
Link 1 10 1 0 -0.17904610
Link 4 10 2 0 -0.53106974
Link 10 9 3 0 -0.54093723
Link 2 11 4 0 0.36452813
Link 5 11 5 0 -0.60888924
Link 11 9 6 0 -1.47600134
Link 11 8 7 0 -0.15569372
Link 7 11 8 0 0.78575118
Link 7 9 9 0 0.59869984
GenomeEnd

GenomeStart 212
Neuron 1 1 0.00000000 1 0.00000000 0.00000000 0.00000000 0.00000000
Neuron 2 1 0.00000000 1 0.00000000 0.00000000 0.00000000 0.00000000
Neuron 3 1 0.00000000 1 0.00000000 0.00000000 0.00000000 0.00000000
Neuron 4 1 0.00000000 1 0.00000000 0.00000000 0.00000000 0.00000000
Neuron 5 1 0.00000000 1 0.00000000 0.00000000 0.00000000 0.00000000
Neuron 6 1 0.00000000 1 0.00000000 0.00000000 0.00000000 0.00000000
Neuron 7 2 0.00000000 1 0.00000000 0.00000000 0.00000000 0.00000000
Neuron 8 4 1.00000000 6 0.75000000 0.00000000 0.00000000 0.00000000
Neuron 9 4 1.00000000 5 0.75000000 0.00000000 0.00000000 0.00000000
Neuron 10 3 0.50000000 6 0.75000000 0.00000000 0.00000000 0.00000000
Neuron 11 3 0.50000000 6 0.75000000 0.00000000 0.00000000 0.00000000
Link 1 10 1 0 0.03290477
Link 4 10 2 0 0.04806704
Link 10 9 3 0 0.35779112
Link 2 11 4 0 -0.59000331
Link 5 11 5 0 -0.55706961
Link 11 9 6 0 0.33015553
Link 11 8 7 0 0.76818415
Link 7 11 8 0 0.49492637
Link 7 9 9 0 0.48407781
GenomeEnd

GenomeStart 213
Neuron 1 1 0.00000000 1 0.00000000 0.00000000 0.00000000 0.00000000
Neuron 2 1 0.00000000 1 0.00000000 0.00000000 0.00000000 0.00000000
Neuron 3 1 0.00000000 1 0.00000000 0.00000000 0.00000000 0.00000000
Neuron 4 1 0.00000000 1 0.00000000 0.00000000 0.00000000 0.00000000
Neuron 5 1 0.00000000 1 0.00000000 0.00000000 0.00000000 0.00000000
Neuron 6 1 0.00000000 1 0.00000000 0.00000000 0.00000000 0.00000000
Neuron 7 2 0.00000000 1 0.00000000 0.00000000 0.00000000 0.00000000
Neuron 8 4 1.00000000 6 0.75000000 0.00000000 0.00000000 0.00000000
Neuron 9 4 1.00000000 5 0.75000000 0.00000000 0.00000000 0.00000000
Neuron 10 3 0.50000000 6 0.75000000 0.00000000 0.00000000 0.00000000
Neuron 11 3 0.50000000 6 0.75000000 0.00000000 0.00000000 0.00000000
Link 1 10 1 0 0.45259121
Link 4 10 2 0 0.25891809
Link 10 9 3 0 0.81101459
Link 2 11 4 0 -0.11542020
Link 5 11 5 0 0.06853843
Link 11 9 6 0 -0.15523618
Link 11 8 7 0 -0.22125760
Link 7 11 8 0 0.19700458
Link 7 9 9 0 0.90640533
GenomeEnd

GenomeStart 214
Neuron 1 1 0.00000000 1 0.00000000 0.00000000 0.00000000 0.00000000
Neuron 2 1 0.00000000 1 0.00000000 0.00000000 0.00000000 0.00000000
Neuron 3 1 0.00000000 1 0.00000000 0.00000000 0.00000000 0.00000000
Neuron 4 1 0.00000000 1 0.00000000 0.00000000 0.00000000 0.00000000
Neuron 5 1 0.00000000 1 0.00000000 0.00000000 0.00000000 0.00000000
Neuron 6 1 0.00000000 1 0.00000000 0.00000000 0.00000000 0.00000000
Neuron 7 2 0.00000000 1 0.00000000 0.00000000 0.00000000 0.00000000
Neuron 8 4 1.00000000 6 0.75000000 0.00000000 0.00000000 0.00000000
Neuron 9 4 1.00000000 5 0.75000000 0.00000000 0.00000000 0.00000000
Neuron 10 3 0.50000000 6 0.75000000 0.00000000 0.00000000 0.00000000
Neuron 11 3 0.50000000 6 0.75000000 0.00000000 0.00000000 0.00000000
Link 1 10 1 0 0.44871377
Link 4 10 2 0 -0.48967932
Link 10 9 3 0 -1.13380922
Link 2 11 4 0 -0.43532278
Link 5 11 5 0 -0.46017812
Link 11 9 6 0 -1.29996831
Link 11 8 7 0 0.15713996
Link 7 11 8 0 -0.22619203
Link 7 9 9 0 0.19965191
GenomeEnd

GenomeStart 215
Neuron 1 1 0.00000000 1 0.00000000 0.00000000 0.00000000 0.00000000
Neuron 2 1 0.00000000 1 0.00000000 0.00000000 0.00000000 0.00000000
Neuron 3 1 0.00000000 1 0.00000000 0.00000000 0.00000000 0.00000000
Neuron 4 1 0.00000000 1 0.00000000 0.00000000 0.00000000 0.00000000
Neuron 5 1 0.00000000 1 0.00000000 0.00000000 0.00000000 0.00000000
Neuron 6 1 0.00000000 1 0.00000000 0.00000000 0.00000000 0.00000000
Neuron 7 2 0.00000000 1 0.00000000 0.00000000 0.00000000 0.00000000
Neuron 8 4 1.00000000 6 0.75000000 0.00000000 0.00000000 0.00000000
Neuron 9 4 1.00000000 5 0.75000000 0.00000000 0.00000000 0.00000000
Neuron 10 3 0.50000000 6 0.75000000 0.00000000 0.00000000 0.00000000
Neuron 11 3 0.50000000 6 0.75000000 0.00000000 0.00000000 0.00000000
Link 1 10 1 0 -0.16657551
Link 4 10 2 0 0.86991321
Link 10 9 3 0 0.49467444
Link 2 11 4 0 0.43461154
Link 5 11 5 0 0.13024978
Link 11 9 6 0 0.57314360
Link 11 8 7 0 0.50385494
Link 7 11 8 0 -0.14546769
Link 7 9 9 0 0.04966457
GenomeEnd

GenomeStart 216
Neuron 1 1 0.00000000 1 0.00000000 0.00000000 0.00000000 0.00000000
Neuron 2 1 0.00000000 1 0.00000000 0.00000000 0.00000000 0.00000000
Neuron 3 1 0.00000000 1 0.00000000 0.00000000 0.00000000 0.00000000
Neuron 4 1 0.00000000 1 0.00000000 0.00000000 0.00000000 0.00000000
Neuron 5 1 0.00000000 1 0.00000000 0.00000000 0.00000000 0.00000000
Neuron 6 1 0.00000000 1 0.00000000 0.00000000 0.00000000 0.00000000
Neuron 7 2 0.00000000 1 0.00000000 0.00000000 0.00000000 0.00000000
Neuron 8 4 1.00000000 6 0.75000000 0.00000000 0.00000000 0.00000000
Neuron 9 4 1.00000000 5 0.75000000 0.00000000 0.00000000 0.00000000
Neuron 10 3 0.50000000 6 0.75000000 0.00000000 0.00000000 0.00000000
Neuron 11 3 0.50000000 6 0.75000000 0.00000000 0.00000000 0.00000000
Link 1 10 1 0 0.29926450
Link 4 10 2 0 0.87004611
Link 10 9 3 0 0.45325689
Link 2 11 4 0 0.51479973
Link 5 11 5 0 0.25256123
Link 11 9 6 0 0.56651596
Link 11 8 7 0 0.37543898
Link 7 11 8 0 -0.05470193
Link 7 9 9 0 -0.11385207
GenomeEnd

GenomeStart 217
Neuron 1 1 0.00000000 1 0.00000000 0.00000000 0.00000000 0.00000000
Neuron 2 1 0.00000000 1 0.00000000 0.00000000 0.00000000 0.00000000
Neuron 3 1 0.00000000 1 0.00000000 0.00000000 0.00000000 0.00000000
Neuron 4 1 0.00000000 1 0.00000000 0.00000000 0.00000000 0.00000000
Neuron 5 1 0.00000000 1 0.00000000 0.00000000 0.00000000 0.00000000
Neuron 6 1 0.00000000 1 0.00000000 0.00000000 0.00000000 0.00000000
Neuron 7 2 0.00000000 1 0.00000000 0.00000000 0.00000000 0.00000000
Neuron 8 4 1.00000000 6 0.75000000 0.00000000 0.00000000 0.00000000
Neuron 9 4 1.00000000 5 0.75000000 0.00000000 0.00000000 0.00000000
Neuron 10 3 0.50000000 6 0.75000000 0.00000000 0.00000000 0.00000000
Neuron 11 3 0.50000000 6 0.75000000 0.00000000 0.00000000 0.00000000
Link 1 10 1 0 -0.71595665
Link 4 10 2 0 -0.16356445
Link 10 9 3 0 -0.17158563
Link 2 11 4 0 -0.86394612
Link 5 11 5 0 -0.10926946
Link 11 9 6 0 0.52493911
Link 11 8 7 0 -0.32555772
Link 7 11 8 0 -0.87105628
Link 7 9 9 0 1.03721314
GenomeEnd

GenomeStart 218
Neuron 1 1 0.00000000 1 0.00000000 0.00000000 0.00000000 0.00000000
Neuron 2 1 0.00000000 1 0.00000000 0.00000000 0.00000000 0.00000000
Neuron 3 1 0.00000000 1 0.00000000 0.00000000 0.00000000 0.00000000
Neuron 4 1 0.00000000 1 0.00000000 0.00000000 0.00000000 0.00000000
Neuron 5 1 0.00000000 1 0.00000000 0.00000000 0.00000000 0.00000000
Neuron 6 1 0.00000000 1 0.00000000 0.00000000 0.00000000 0.00000000
Neuron 7 2 0.00000000 1 0.00000000 0.00000000 0.00000000 0.00000000
Neuron 8 4 1.00000000 6 0.75000000 0.00000000 0.00000000 0.00000000
Neuron 9 4 1.00000000 5 0.75000000 0.00000000 0.00000000 0.00000000
Neuron 10 3 0.50000000 6 0.75000000 0.00000000 0.00000000 0.00000000
Neuron 11 3 0.50000000 6 0.75000000 0.00000000 0.00000000 0.00000000
Link 1 10 1 0 -0.45139788
Link 4 10 2 0 0.63014420
Link 10 9 3 0 -0.80959706
Link 2 11 4 0 0.50104648
Link 5 11 5 0 0.05570730
Link 11 9 6 0 -0.00218913
Link 11 8 7 0 -0.66790755
Link 7 11 8 0 -0.59376916
Link 7 9 9 0 -0.14788940
GenomeEnd

GenomeStart 219
Neuron 1 1 0.00000000 1 0.00000000 0.00000000 0.00000000 0.00000000
Neuron 2 1 0.00000000 1 0.00000000 0.00000000 0.00000000 0.00000000
Neuron 3 1 0.00000000 1 0.00000000 0.00000000 0.00000000 0.00000000
Neuron 4 1 0.00000000 1 0.00000000 0.00000000 0.00000000 0.00000000
Neuron 5 1 0.00000000 1 0.00000000 0.00000000 0.00000000 0.00000000
Neuron 6 1 0.00000000 1 0.00000000 0.00000000 0.00000000 0.00000000
Neuron 7 2 0.00000000 1 0.00000000 0.00000000 0.00000000 0.00000000
Neuron 8 4 1.00000000 6 0.75000000 0.00000000 0.00000000 0.00000000
Neuron 9 4 1.00000000 5 0.75000000 0.00000000 0.00000000 0.00000000
Neuron 10 3 0.50000000 6 0.75000000 0.00000000 0.00000000 0.00000000
Neuron 11 3 0.50000000 6 0.75000000 0.00000000 0.00000000 0.00000000
Link 1 10 1 0 0.55730753
Link 4 10 2 0 -0.01057960
Link 10 9 3 0 -0.06866834
Link 2 11 4 0 0.34357942
Link 5 11 5 0 0.34612360
Link 11 9 6 0 -0.11943646
Link 11 8 7 0 0.16917479
Link 7 11 8 0 -0.02029657
Link 7 9 9 0 0.60931117
GenomeEnd

GenomeStart 220
Neuron 1 1 0.00000000 1 0.00000000 0.00000000 0.00000000 0.00000000
Neuron 2 1 0.00000000 1 0.00000000 0.00000000 0.00000000 0.00000000
Neuron 3 1 0.00000000 1 0.00000000 0.00000000 0.00000000 0.00000000
Neuron 4 1 0.00000000 1 0.00000000 0.00000000 0.00000000 0.00000000
Neuron 5 1 0.00000000 1 0.00000000 0.00000000 0.00000000 0.00000000
Neuron 6 1 0.00000000 1 0.00000000 0.00000000 0.00000000 0.00000000
Neuron 7 2 0.00000000 1 0.00000000 0.00000000 0.00000000 0.00000000
Neuron 8 4 1.00000000 6 0.75000000 0.00000000 0.00000000 0.00000000
Neuron 9 4 1.00000000 5 0.75000000 0.00000000 0.00000000 0.00000000
Neuron 10 3 0.50000000 6 0.75000000 0.00000000 0.00000000 0.00000000
Neuron 11 3 0.50000000 6 0.75000000 0.00000000 0.00000000 0.00000000
Link 1 10 1 0 -0.21180213
Link 4 10 2 0 -0.44762305
Link 10 9 3 0 0.88695863
