GenomeStart 112549
Neuron 1 1 0.00000000 1 0.00000000 0.00000000 0.00000000 0.00000000
Neuron 2 1 0.00000000 1 0.00000000 0.00000000 0.00000000 0.00000000
Neuron 3 1 0.00000000 1 0.00000000 0.00000000 0.00000000 0.00000000
Neuron 4 1 0.00000000 1 0.00000000 0.00000000 0.00000000 0.00000000
Neuron 5 1 0.00000000 1 0.00000000 0.00000000 0.00000000 0.00000000
Neuron 6 1 0.00000000 1 0.00000000 0.00000000 0.00000000 0.00000000
Neuron 7 2 0.00000000 1 0.00000000 0.00000000 0.00000000 0.00000000
Neuron 8 4 1.00000000 0 1.00000000 0.00000000 0.00000000 0.00000000
Neuron 9 4 1.00000000 5 1.00000000 0.00000000 0.00000000 0.00000000
Neuron 10 3 0.50000000 6 1.00000000 0.00000000 0.00000000 0.00000000
Neuron 11 3 0.50000000 6 1.00000000 0.00000000 0.00000000 0.00000000
Neuron 12 3 0.25000000 8 1.00000000 0.00000000 0.00000000 0.00000000
Neuron 13 3 0.75000000 13 1.00000000 0.00000000 0.00000000 0.00000000
Neuron 14 3 0.25000000 0 1.00000000 0.00000000 0.00000000 0.00000000
Neuron 15 3 0.75000000 0 1.00000000 0.00000000 0.00000000 0.00000000
Neuron 39 3 0.12500000 9 1.00000000 0.00000000 0.00000000 0.00000000
Neuron 40 3 0.37500000 4 1.00000000 0.00000000 0.00000000 0.00000000
Neuron 45 3 0.75000000 13 1.00000000 0.00000000 0.00000000 0.00000000
Neuron 50 3 0.12500000 4 1.00000000 0.00000000 0.00000000 0.00000000
Neuron 59 3 0.18750000 4 1.00000000 0.00000000 0.00000000 0.00000000
Neuron 80 3 0.12500000 0 1.00000000 0.00000000 0.00000000 0.00000000
Neuron 88 3 0.06250000 13 1.00000000 0.00000000 0.00000000 0.00000000
Neuron 106 3 0.21875000 8 1.00000000 0.00000000 0.00000000 0.00000000
Neuron 111 3 0.29687500 4 1.00000000 0.00000000 0.00000000 0.00000000
Neuron 114 3 0.03125000 8 1.00000000 0.00000000 0.00000000 0.00000000
Neuron 123 3 0.43750000 4 1.00000000 0.00000000 0.00000000 0.00000000
Link 2 10 1 0 -1.27400507
Link 5 10 2 0 1.22521627
Link 7 10 4 0 0.19677067
Link 1 11 5 0 -0.10183127
Link 7 9 8 0 -1.92575212
Link 12 11 11 0 0.21066337
Link 10 13 16 0 1.61645323
Link 13 8 17 0 3.08627564
Link 6 10 23 0 0.69477974
Link 3 10 32 0 0.30777107
Link 11 15 40 0 0.95570694
Link 15 9 41 0 0.82021885
Link 3 8 52 0 -0.47256592
Link 5 14 86 0 0.18708284
Link 2 12 99 0 0.01362384
Link 3 14 117 0 0.25783085
Link 4 39 169 0 1.67869850
Link 39 12 170 0 0.21307204
Link 14 40 173 0 1.19690928
Link 40 11 174 0 -0.87334291
Link 4 14 188 0 -0.31442037
Link 1 39 196 0 0.38151028
Link 3 13 206 0 -0.08029515
Link 14 8 210 0 0.26982451
Link 11 45 217 0 1.00000000
Link 45 8 218 0 0.61033042
Link 1 50 243 0 1.00000000
Link 2 39 251 0 0.69108247
Link 5 39 252 0 0.33172953
Link 12 14 256 0 -0.23508030
Link 50 59 296 0 1.00000000
Link 59 14 297 0 1.14355404
Link 39 14 313 0 0.12102335
Link 50 8 363 0 0.00364694
Link 80 12 422 0 -0.51255561
Link 1 80 454 0 -0.04006709
Link 88 80 469 0 1.00000000
Link 3 39 529 0 -0.33379727
Link 88 106 604 0 1.00000000
Link 5 45 619 0 0.02606842
Link 106 111 625 0 1.00000000
Link 111 40 626 0 -0.62502827
Link 15 45 643 0 0.37856793
Link 3 114 652 0 1.00000000
Link 114 88 653 0 1.00000000
Link 39 123 700 0 1.00000000
Link 123 15 701 0 0.16898829
GenomeEnd

