GenomeStart 75034
Neuron 1 1 0.00000000 1 0.00000000 0.00000000 0.00000000 0.00000000
Neuron 2 1 0.00000000 1 0.00000000 0.00000000 0.00000000 0.00000000
Neuron 3 1 0.00000000 1 0.00000000 0.00000000 0.00000000 0.00000000
Neuron 4 1 0.00000000 1 0.00000000 0.00000000 0.00000000 0.00000000
Neuron 5 1 0.00000000 1 0.00000000 0.00000000 0.00000000 0.00000000
Neuron 6 1 0.00000000 1 0.00000000 0.00000000 0.00000000 0.00000000
Neuron 7 2 0.00000000 1 0.00000000 0.00000000 0.00000000 0.00000000
Neuron 8 4 1.00000000 0 1.00000000 0.00000000 0.00000000 0.00000000
Neuron 9 4 1.00000000 5 1.00000000 0.00000000 0.00000000 0.00000000
Neuron 10 3 0.50000000 6 1.00000000 0.00000000 0.00000000 0.00000000
Neuron 11 3 0.50000000 6 1.00000000 0.00000000 0.00000000 0.00000000
Neuron 12 3 0.25000000 8 1.00000000 0.00000000 0.00000000 0.00000000
Neuron 13 3 0.75000000 13 1.00000000 0.00000000 0.00000000 0.00000000
Neuron 14 3 0.25000000 0 1.00000000 0.00000000 0.00000000 0.00000000
Neuron 15 3 0.75000000 0 1.00000000 0.00000000 0.00000000 0.00000000
Neuron 39 3 0.12500000 9 1.00000000 0.00000000 0.00000000 0.00000000
Neuron 40 3 0.37500000 4 1.00000000 0.00000000 0.00000000 0.00000000
Neuron 50 3 0.12500000 4 1.00000000 0.00000000 0.00000000 0.00000000
Neuron 59 3 0.18750000 4 1.00000000 0.00000000 0.00000000 0.00000000
Neuron 80 3 0.12500000 0 1.00000000 0.00000000 0.00000000 0.00000000
Link 2 10 1 0 -1.27400507
Link 5 10 2 0 1.22521627
Link 7 10 4 0 0.19677067
Link 1 11 5 0 -0.10183127
Link 7 9 8 0 -1.92575212
Link 12 11 11 0 0.21066337
Link 10 13 16 0 1.61645323
Link 13 8 17 0 3.08545791
Link 6 10 23 0 0.69477974
Link 3 10 32 0 0.30777107
Link 11 8 36 0 0.61033042
Link 11 15 40 0 0.95570694
Link 15 9 41 0 0.82021885
Link 3 8 52 0 -0.47256592
Link 5 14 86 0 0.18708284
Link 2 12 99 0 0.01362384
Link 3 14 117 0 0.25783085
Link 4 39 169 0 1.65492233
Link 39 12 170 0 0.21307204
Link 14 40 173 0 1.19690928
Link 40 11 174 0 -0.88195211
Link 4 14 188 0 -0.31442037
Link 1 39 196 0 0.38151028
Link 3 13 206 0 -0.08029515
Link 14 8 210 0 0.26982451
Link 1 50 243 0 1.00000000
Link 12 14 256 0 -0.18942860
Link 50 59 296 0 1.00000000
Link 59 14 297 0 1.14355404
Link 39 14 313 0 0.12102335
Link 3 80 421 0 1.00000000
Link 80 12 422 0 -0.51255561
Link 1 80 454 0 -0.04006709
GenomeEnd

