GenomeStart 37528
Neuron 1 1 0.00000000 1 0.00000000 0.00000000 0.00000000 0.00000000
Neuron 2 1 0.00000000 1 0.00000000 0.00000000 0.00000000 0.00000000
Neuron 3 1 0.00000000 1 0.00000000 0.00000000 0.00000000 0.00000000
Neuron 4 1 0.00000000 1 0.00000000 0.00000000 0.00000000 0.00000000
Neuron 5 1 0.00000000 1 0.00000000 0.00000000 0.00000000 0.00000000
Neuron 6 1 0.00000000 1 0.00000000 0.00000000 0.00000000 0.00000000
Neuron 7 2 0.00000000 1 0.00000000 0.00000000 0.00000000 0.00000000
Neuron 8 4 1.00000000 0 1.00000000 0.00000000 0.00000000 0.00000000
Neuron 9 4 1.00000000 5 1.00000000 0.00000000 0.00000000 0.00000000
Neuron 10 3 0.50000000 6 1.00000000 0.00000000 0.00000000 0.00000000
Neuron 11 3 0.50000000 6 1.00000000 0.00000000 0.00000000 0.00000000
Neuron 14 3 0.25000000 0 1.00000000 0.00000000 0.00000000 0.00000000
Neuron 24 3 0.25000000 9 1.00000000 0.00000000 0.00000000 0.00000000
Neuron 39 3 0.50000000 9 1.00000000 0.00000000 0.00000000 0.00000000
Neuron 44 3 0.75000000 9 1.00000000 0.00000000 0.00000000 0.00000000
Link 2 10 1 0 -0.41921139
Link 5 10 2 0 1.04890422
Link 10 8 3 0 -1.44366470
Link 7 10 4 0 0.32382418
Link 1 11 5 0 0.48014096
Link 11 9 7 0 3.17881084
Link 7 9 8 0 -1.04811618
Link 5 8 13 0 1.32268319
Link 4 9 14 0 0.88769239
Link 4 14 20 0 1.48403266
Link 14 11 21 0 2.22102206
Link 1 8 23 0 -1.99228421
Link 5 11 27 0 0.86261088
Link 3 10 35 0 0.77545784
Link 6 24 88 0 1.23599790
Link 24 10 89 0 -2.97298608
Link 14 8 95 0 0.36720218
Link 11 39 169 0 1.00000000
Link 39 10 170 0 0.00640455
Link 5 14 175 0 -0.19913563
Link 11 44 188 0 1.32819442
Link 44 8 189 0 -0.82394632
Link 39 11 217 0 -0.19200067
GenomeEnd

