GenomeStart 112518
Neuron 1 1 0.00000000 1 0.00000000 0.00000000 0.00000000 0.00000000
Neuron 2 1 0.00000000 1 0.00000000 0.00000000 0.00000000 0.00000000
Neuron 3 1 0.00000000 1 0.00000000 0.00000000 0.00000000 0.00000000
Neuron 4 1 0.00000000 1 0.00000000 0.00000000 0.00000000 0.00000000
Neuron 5 1 0.00000000 1 0.00000000 0.00000000 0.00000000 0.00000000
Neuron 6 1 0.00000000 1 0.00000000 0.00000000 0.00000000 0.00000000
Neuron 7 2 0.00000000 1 0.00000000 0.00000000 0.00000000 0.00000000
Neuron 8 4 1.00000000 0 1.00000000 0.00000000 0.00000000 0.00000000
Neuron 9 4 1.00000000 6 1.00000000 0.00000000 0.00000000 0.00000000
Neuron 10 3 0.50000000 6 1.00000000 0.00000000 0.00000000 0.00000000
Neuron 11 3 0.50000000 13 1.00000000 0.00000000 0.00000000 0.00000000
Neuron 14 3 0.25000000 4 1.00000000 0.00000000 0.00000000 0.00000000
Neuron 16 3 0.75000000 6 1.00000000 0.00000000 0.00000000 0.00000000
Neuron 45 3 0.87500000 6 1.00000000 0.00000000 0.00000000 0.00000000
Neuron 51 3 0.62500000 4 1.00000000 0.00000000 0.00000000 0.00000000
Neuron 54 3 0.81250000 8 1.00000000 0.00000000 0.00000000 0.00000000
Neuron 57 3 0.50000000 0 1.00000000 0.00000000 0.00000000 0.00000000
Neuron 59 3 0.12500000 13 1.00000000 0.00000000 0.00000000 0.00000000
Neuron 68 3 0.31250000 6 1.00000000 0.00000000 0.00000000 0.00000000
Neuron 76 3 0.06250000 13 1.00000000 0.00000000 0.00000000 0.00000000
Neuron 79 3 0.50000000 8 1.00000000 0.00000000 0.00000000 0.00000000
Neuron 89 3 0.37500000 4 1.00000000 0.00000000 0.00000000 0.00000000
Neuron 90 3 0.50000000 4 1.00000000 0.00000000 0.00000000 0.00000000
Neuron 95 3 0.31250000 9 1.00000000 0.00000000 0.00000000 0.00000000
Neuron 104 3 0.06250000 6 1.00000000 0.00000000 0.00000000 0.00000000
Neuron 110 3 0.15625000 8 1.00000000 0.00000000 0.00000000 0.00000000
Link 2 10 1 0 1.68387816
Link 5 10 2 0 -0.74014427
Link 10 8 3 0 2.31481240
Link 7 10 4 0 0.97624900
Link 4 11 6 0 -0.44310483
Link 7 9 8 0 -0.90238718
Link 3 8 11 0 0.82865203
Link 6 11 17 0 0.02977164
Link 4 8 18 0 0.48686560
Link 3 11 25 0 -0.45979362
Link 1 14 27 0 0.69655357
Link 14 11 28 0 -1.14396015
Link 3 14 79 0 0.08328124
Link 5 16 109 0 -0.06881568
Link 7 14 181 0 0.04114085
Link 16 8 193 0 0.09527857
Link 45 9 197 0 -0.14979794
Link 2 14 216 0 -0.10377066
Link 11 51 225 0 1.00000000
Link 51 16 226 0 1.00000000
Link 16 54 237 0 1.00000000
Link 54 45 238 0 1.00000000
Link 2 57 249 0 1.00000000
Link 57 8 250 0 -0.34341084
Link 4 51 252 0 -0.46854439
Link 7 16 253 0 -0.18758911
Link 59 14 260 0 -0.54489267
Link 10 51 270 0 0.12803410
Link 14 51 274 0 -0.78404710
Link 59 9 295 0 -0.03914750
Link 59 68 319 0 1.00000000
Link 68 57 320 0 -0.09256018
Link 11 57 342 0 -0.45739803
Link 2 54 363 0 0.43562139
Link 2 76 368 0 1.00000000
Link 76 59 369 0 1.00000000
Link 7 51 376 0 0.09818799
Link 57 79 384 0 1.00000000
Link 59 16 389 0 -0.27184597
Link 10 79 407 0 -0.02716791
Link 10 57 411 0 0.05457755
Link 7 57 413 0 0.05054895
Link 6 57 434 0 -0.11007258
Link 4 89 444 0 1.00000000
Link 89 16 445 0 0.34538530
Link 79 90 451 0 1.00000000
Link 90 11 452 0 0.44295267
Link 2 79 466 0 -0.79539819
Link 2 68 497 0 -0.60932465
Link 5 95 503 0 1.00000000
Link 95 51 504 0 -0.41951263
Link 1 76 550 0 -0.89198511
Link 5 104 572 0 1.00000000
Link 104 59 573 0 -0.22968029
Link 6 104 610 0 -0.10057273
Link 6 110 614 0 1.00000000
Link 110 68 615 0 0.20538080
Link 79 16 619 0 -0.18010079
Link 104 76 665 0 -0.03977822
Link 1 95 726 0 0.54285634
Link 3 110 773 0 0.62196631
GenomeEnd

