GenomeStart 25004
Neuron 1 1 0.00000000 1 0.00000000 0.00000000 0.00000000 0.00000000
Neuron 2 1 0.00000000 1 0.00000000 0.00000000 0.00000000 0.00000000
Neuron 3 1 0.00000000 1 0.00000000 0.00000000 0.00000000 0.00000000
Neuron 4 1 0.00000000 1 0.00000000 0.00000000 0.00000000 0.00000000
Neuron 5 1 0.00000000 1 0.00000000 0.00000000 0.00000000 0.00000000
Neuron 6 1 0.00000000 1 0.00000000 0.00000000 0.00000000 0.00000000
Neuron 7 2 0.00000000 1 0.00000000 0.00000000 0.00000000 0.00000000
Neuron 8 4 1.00000000 0 1.00000000 0.00000000 0.00000000 0.00000000
Neuron 9 4 1.00000000 5 1.00000000 0.00000000 0.00000000 0.00000000
Neuron 10 3 0.50000000 6 1.00000000 0.00000000 0.00000000 0.00000000
Neuron 11 3 0.50000000 6 1.00000000 0.00000000 0.00000000 0.00000000
Neuron 15 3 0.25000000 13 1.00000000 0.00000000 0.00000000 0.00000000
Neuron 16 3 0.75000000 0 1.00000000 0.00000000 0.00000000 0.00000000
Neuron 17 3 0.25000000 0 1.00000000 0.00000000 0.00000000 0.00000000
Neuron 41 3 0.50000000 6 1.00000000 0.00000000 0.00000000 0.00000000
Link 5 10 2 0 -1.70957928
Link 10 8 3 0 3.62959871
Link 7 10 4 0 -1.08497245
Link 1 11 5 0 -1.04128121
Link 7 9 8 0 -0.01220731
Link 10 9 14 0 0.42017146
Link 2 15 30 0 1.99548651
Link 15 10 31 0 2.41096285
Link 11 16 37 0 1.64511282
Link 16 9 38 0 2.39473499
Link 4 17 40 0 2.38057168
Link 17 11 41 0 1.44607995
Link 6 8 51 0 0.40021445
Link 15 9 55 0 -0.04317509
Link 2 41 181 0 1.00000000
Link 41 8 182 0 0.21075346
Link 10 41 200 0 0.04240514
GenomeEnd

