GenomeStart 25031
Neuron 1 1 0.00000000 1 0.00000000 0.00000000 0.00000000 0.00000000
Neuron 2 1 0.00000000 1 0.00000000 0.00000000 0.00000000 0.00000000
Neuron 3 1 0.00000000 1 0.00000000 0.00000000 0.00000000 0.00000000
Neuron 4 1 0.00000000 1 0.00000000 0.00000000 0.00000000 0.00000000
Neuron 5 1 0.00000000 1 0.00000000 0.00000000 0.00000000 0.00000000
Neuron 6 1 0.00000000 1 0.00000000 0.00000000 0.00000000 0.00000000
Neuron 7 2 0.00000000 1 0.00000000 0.00000000 0.00000000 0.00000000
Neuron 8 4 1.00000000 0 1.00000000 0.00000000 0.00000000 0.00000000
Neuron 9 4 1.00000000 5 1.00000000 0.00000000 0.00000000 0.00000000
Neuron 10 3 0.50000000 6 1.00000000 0.00000000 0.00000000 0.00000000
Neuron 11 3 0.50000000 6 1.00000000 0.00000000 0.00000000 0.00000000
Neuron 13 3 0.25000000 6 1.00000000 0.00000000 0.00000000 0.00000000
Neuron 15 3 0.25000000 6 1.00000000 0.00000000 0.00000000 0.00000000
Neuron 16 3 0.25000000 9 1.00000000 0.00000000 0.00000000 0.00000000
Neuron 18 3 0.75000000 9 1.00000000 0.00000000 0.00000000 0.00000000
Neuron 25 3 0.37500000 13 1.00000000 0.00000000 0.00000000 0.00000000
Neuron 26 3 0.37500000 6 1.00000000 0.00000000 0.00000000 0.00000000
Link 5 10 2 0 0.32042594
Link 10 8 3 0 -0.38827507
Link 7 10 4 0 1.77169117
Link 1 11 5 0 -1.52097866
Link 11 9 7 0 1.59229309
Link 7 9 8 0 -1.08713248
Link 2 13 15 0 0.63205584
Link 5 15 21 0 1.05600790
Link 15 10 22 0 -1.54245526
Link 4 16 29 0 3.58648630
Link 4 10 32 0 -0.00018971
Link 11 18 38 0 1.41392716
Link 18 8 39 0 2.09543361
Link 16 25 90 0 0.65145429
Link 25 11 91 0 -0.82778312
Link 13 26 94 0 0.68340690
Link 26 10 95 0 -1.26284730
Link 3 16 132 0 -0.33476708
GenomeEnd

