GenomeStart 37523
Neuron 1 1 0.00000000 1 0.00000000 0.00000000 0.00000000 0.00000000
Neuron 2 1 0.00000000 1 0.00000000 0.00000000 0.00000000 0.00000000
Neuron 3 1 0.00000000 1 0.00000000 0.00000000 0.00000000 0.00000000
Neuron 4 1 0.00000000 1 0.00000000 0.00000000 0.00000000 0.00000000
Neuron 5 1 0.00000000 1 0.00000000 0.00000000 0.00000000 0.00000000
Neuron 6 1 0.00000000 1 0.00000000 0.00000000 0.00000000 0.00000000
Neuron 7 2 0.00000000 1 0.00000000 0.00000000 0.00000000 0.00000000
Neuron 8 4 1.00000000 0 1.00000000 0.00000000 0.00000000 0.00000000
Neuron 9 4 1.00000000 5 1.00000000 0.00000000 0.00000000 0.00000000
Neuron 10 3 0.50000000 6 1.00000000 0.00000000 0.00000000 0.00000000
Neuron 11 3 0.50000000 0 1.00000000 0.00000000 0.00000000 0.00000000
Neuron 14 3 0.25000000 9 1.00000000 0.00000000 0.00000000 0.00000000
Neuron 16 3 0.75000000 0 1.00000000 0.00000000 0.00000000 0.00000000
Neuron 45 3 0.87500000 4 1.00000000 0.00000000 0.00000000 0.00000000
Neuron 51 3 0.62500000 4 1.00000000 0.00000000 0.00000000 0.00000000
Neuron 54 3 0.81250000 13 1.00000000 0.00000000 0.00000000 0.00000000
Link 2 10 1 0 1.64360233
Link 5 10 2 0 -1.06473372
Link 10 8 3 0 2.43304289
Link 7 10 4 0 1.12047664
Link 1 11 5 0 -0.02022980
Link 4 11 6 0 -0.53028442
Link 7 9 8 0 -0.92100535
Link 3 8 11 0 1.01456099
Link 2 9 12 0 -0.04912336
Link 6 11 17 0 0.01092723
Link 4 8 18 0 0.34635233
Link 1 14 27 0 0.51927504
Link 14 11 28 0 -1.01461123
Link 2 8 48 0 -0.87814783
Link 3 14 79 0 -0.03505913
Link 16 8 193 0 0.72044704
Link 45 9 197 0 -0.34565632
Link 2 14 216 0 0.04188306
Link 11 51 225 0 0.77844574
Link 51 16 226 0 0.78088250
Link 16 54 237 0 0.89839603
Link 54 45 238 0 1.22735338
Link 10 51 270 0 -0.69559794
GenomeEnd

