GenomeStart 75002
Neuron 1 1 0.00000000 1 0.00000000 0.00000000 0.00000000 0.00000000
Neuron 2 1 0.00000000 1 0.00000000 0.00000000 0.00000000 0.00000000
Neuron 3 1 0.00000000 1 0.00000000 0.00000000 0.00000000 0.00000000
Neuron 4 1 0.00000000 1 0.00000000 0.00000000 0.00000000 0.00000000
Neuron 5 1 0.00000000 1 0.00000000 0.00000000 0.00000000 0.00000000
Neuron 6 1 0.00000000 1 0.00000000 0.00000000 0.00000000 0.00000000
Neuron 7 2 0.00000000 1 0.00000000 0.00000000 0.00000000 0.00000000
Neuron 8 4 1.00000000 0 1.00000000 0.00000000 0.00000000 0.00000000
Neuron 9 4 1.00000000 5 1.00000000 0.00000000 0.00000000 0.00000000
Neuron 10 3 0.50000000 6 1.00000000 0.00000000 0.00000000 0.00000000
Neuron 11 3 0.50000000 6 1.00000000 0.00000000 0.00000000 0.00000000
Neuron 12 3 0.25000000 13 1.00000000 0.00000000 0.00000000 0.00000000
Neuron 14 3 0.75000000 6 1.00000000 0.00000000 0.00000000 0.00000000
Neuron 18 3 0.50000000 13 1.00000000 0.00000000 0.00000000 0.00000000
Neuron 25 3 0.75000000 13 1.00000000 0.00000000 0.00000000 0.00000000
Neuron 27 3 0.12500000 9 1.00000000 0.00000000 0.00000000 0.00000000
Neuron 35 3 0.25000000 13 1.00000000 0.00000000 0.00000000 0.00000000
Neuron 41 3 0.25000000 0 1.00000000 0.00000000 0.00000000 0.00000000
Neuron 42 3 0.50000000 0 1.00000000 0.00000000 0.00000000 0.00000000
Neuron 43 3 0.12500000 9 1.00000000 0.00000000 0.00000000 0.00000000
Neuron 46 3 0.25000000 0 1.00000000 0.00000000 0.00000000 0.00000000
Neuron 54 3 0.12500000 0 1.00000000 0.00000000 0.00000000 0.00000000
Neuron 71 3 0.12500000 4 1.00000000 0.00000000 0.00000000 0.00000000
Neuron 76 3 0.18750000 4 1.00000000 0.00000000 0.00000000 0.00000000
Neuron 79 3 0.31250000 8 1.00000000 0.00000000 0.00000000 0.00000000
Neuron 84 3 0.06250000 13 1.00000000 0.00000000 0.00000000 0.00000000
Neuron 104 3 0.18750000 4 1.00000000 0.00000000 0.00000000 0.00000000
Link 2 10 1 0 0.28023612
Link 5 10 2 0 -1.03050302
Link 7 10 4 0 1.33473236
Link 1 11 5 0 1.68045899
Link 7 9 8 0 0.47036406
Link 12 11 11 0 1.61106895
Link 5 8 15 0 0.82229773
Link 1 10 16 0 -0.06837866
Link 10 14 18 0 2.87574361
Link 14 8 19 0 -1.35222131
Link 3 10 23 0 0.23707353
Link 3 11 31 0 0.27827288
Link 5 18 42 0 0.34961780
Link 18 8 43 0 -0.79790955
Link 11 25 79 0 1.00000000
Link 25 9 80 0 -1.23739033
Link 6 8 81 0 -0.04717012
Link 2 14 90 0 0.45739443
Link 4 27 92 0 1.00000000
Link 27 12 93 0 1.75199804
Link 7 12 95 0 0.14482647
Link 4 8 101 0 -0.24213246
Link 4 18 117 0 0.76585875
Link 1 9 119 0 -0.12170774
Link 10 18 124 0 -0.66657824
Link 3 12 144 0 0.07466565
Link 12 18 146 0 0.33863442
Link 2 18 155 0 -0.04820263
Link 7 14 159 0 0.16800844
Link 5 35 162 0 1.38221521
Link 35 18 163 0 1.39450993
Link 1 41 188 0 1.38582665
Link 41 18 189 0 -1.18489376
Link 12 41 190 0 0.02672990
Link 4 42 192 0 1.01274006
Link 42 8 193 0 -1.68952258
Link 7 41 201 0 0.18409985
Link 4 43 203 0 1.00000000
Link 43 41 204 0 -0.15296504
Link 12 46 213 0 1.00000000
Link 46 41 214 0 0.02672990
Link 5 42 239 0 0.15739594
Link 3 42 240 0 0.18963180
Link 42 14 258 0 -0.46377087
Link 54 42 268 0 0.08259985
Link 18 42 295 0 -0.24302353
Link 7 54 300 0 0.29177378
Link 3 35 314 0 -0.20539888
Link 3 71 376 0 1.00000000
Link 71 35 377 0 -0.20539888
Link 5 43 381 0 0.39735622
Link 71 18 398 0 0.06640217
Link 54 76 408 0 1.00000000
Link 76 41 409 0 0.04034541
Link 54 79 422 0 1.00000000
Link 79 42 423 0 0.08259985
Link 3 84 439 0 1.00000000
Link 84 54 440 0 1.00000000
Link 5 27 498 0 0.01080930
Link 35 79 506 0 0.47795759
Link 1 27 509 0 -0.27079916
Link 7 46 531 0 0.14494523
Link 54 104 543 0 1.00000000
Link 104 41 544 0 0.04034541
Link 5 71 554 0 0.36290470
Link 76 79 595 0 0.10633971
Link 46 12 598 0 -0.19876073
Link 84 71 610 0 -0.77563816
Link 2 76 633 0 -0.58609076
GenomeEnd

