GenomeStart 24998
Neuron 1 1 0.00000000 1 0.00000000 0.00000000 0.00000000 0.00000000
Neuron 2 1 0.00000000 1 0.00000000 0.00000000 0.00000000 0.00000000
Neuron 3 1 0.00000000 1 0.00000000 0.00000000 0.00000000 0.00000000
Neuron 4 1 0.00000000 1 0.00000000 0.00000000 0.00000000 0.00000000
Neuron 5 1 0.00000000 1 0.00000000 0.00000000 0.00000000 0.00000000
Neuron 6 1 0.00000000 1 0.00000000 0.00000000 0.00000000 0.00000000
Neuron 7 2 0.00000000 1 0.00000000 0.00000000 0.00000000 0.00000000
Neuron 8 4 1.00000000 0 1.00000000 0.00000000 0.00000000 0.00000000
Neuron 9 4 1.00000000 5 1.00000000 0.00000000 0.00000000 0.00000000
Neuron 10 3 0.50000000 6 1.00000000 0.00000000 0.00000000 0.00000000
Neuron 11 3 0.50000000 6 1.00000000 0.00000000 0.00000000 0.00000000
Neuron 12 3 0.25000000 13 1.00000000 0.00000000 0.00000000 0.00000000
Neuron 14 3 0.75000000 6 1.00000000 0.00000000 0.00000000 0.00000000
Neuron 18 3 0.50000000 13 1.00000000 0.00000000 0.00000000 0.00000000
Neuron 41 3 0.25000000 0 1.00000000 0.00000000 0.00000000 0.00000000
Link 2 10 1 0 0.59832090
Link 5 10 2 0 -0.97457022
Link 7 10 4 0 0.87778772
Link 1 11 5 0 1.71392247
Link 11 9 7 0 -1.60128515
Link 7 9 8 0 0.34762775
Link 4 12 10 0 1.96772608
Link 12 11 11 0 1.89171071
Link 10 14 18 0 3.24704650
Link 14 8 19 0 -1.81142566
Link 3 10 23 0 0.97282148
Link 5 18 42 0 0.63869475
Link 18 8 43 0 -0.80734821
Link 6 8 81 0 -0.06825851
Link 2 14 90 0 -0.02770101
Link 4 8 101 0 -1.03225703
Link 10 18 124 0 -0.19381049
Link 12 18 146 0 -0.15791695
Link 2 18 155 0 -0.56074833
Link 7 14 159 0 -0.01024796
Link 1 41 188 0 1.00000000
Link 41 18 189 0 -0.32215838
Link 12 41 190 0 0.10890905
Link 4 41 198 0 0.30607816
Link 7 41 201 0 0.12603129
GenomeEnd

