GenomeStart 125034
Neuron 1 1 0.00000000 1 0.00000000 0.00000000 0.00000000 0.00000000
Neuron 2 1 0.00000000 1 0.00000000 0.00000000 0.00000000 0.00000000
Neuron 3 1 0.00000000 1 0.00000000 0.00000000 0.00000000 0.00000000
Neuron 4 1 0.00000000 1 0.00000000 0.00000000 0.00000000 0.00000000
Neuron 5 1 0.00000000 1 0.00000000 0.00000000 0.00000000 0.00000000
Neuron 6 1 0.00000000 1 0.00000000 0.00000000 0.00000000 0.00000000
Neuron 7 2 0.00000000 1 0.00000000 0.00000000 0.00000000 0.00000000
Neuron 8 4 1.00000000 0 1.00000000 0.00000000 0.00000000 0.00000000
Neuron 9 4 1.00000000 5 1.00000000 0.00000000 0.00000000 0.00000000
Neuron 10 3 0.50000000 6 1.00000000 0.00000000 0.00000000 0.00000000
Neuron 11 3 0.50000000 6 1.00000000 0.00000000 0.00000000 0.00000000
Neuron 12 3 0.25000000 13 1.00000000 0.00000000 0.00000000 0.00000000
Neuron 13 3 0.25000000 8 1.00000000 0.00000000 0.00000000 0.00000000
Neuron 14 3 0.75000000 6 1.00000000 0.00000000 0.00000000 0.00000000
Neuron 18 3 0.50000000 13 1.00000000 0.00000000 0.00000000 0.00000000
Neuron 25 3 0.75000000 13 1.00000000 0.00000000 0.00000000 0.00000000
Neuron 27 3 0.12500000 9 1.00000000 0.00000000 0.00000000 0.00000000
Neuron 35 3 0.25000000 13 1.00000000 0.00000000 0.00000000 0.00000000
Neuron 41 3 0.25000000 0 1.00000000 0.00000000 0.00000000 0.00000000
Neuron 42 3 0.50000000 0 1.00000000 0.00000000 0.00000000 0.00000000
Neuron 43 3 0.12500000 9 1.00000000 0.00000000 0.00000000 0.00000000
Neuron 46 3 0.25000000 0 1.00000000 0.00000000 0.00000000 0.00000000
Neuron 54 3 0.12500000 0 1.00000000 0.00000000 0.00000000 0.00000000
Neuron 67 3 0.25000000 8 1.00000000 0.00000000 0.00000000 0.00000000
Neuron 71 3 0.12500000 4 1.00000000 0.00000000 0.00000000 0.00000000
Neuron 72 3 0.25000000 8 1.00000000 0.00000000 0.00000000 0.00000000
Neuron 76 3 0.18750000 9 1.00000000 0.00000000 0.00000000 0.00000000
Neuron 79 3 0.31250000 4 1.00000000 0.00000000 0.00000000 0.00000000
Neuron 94 3 0.06250000 13 1.00000000 0.00000000 0.00000000 0.00000000
Neuron 114 3 0.25000000 13 1.00000000 0.00000000 0.00000000 0.00000000
Neuron 122 3 0.25000000 8 1.00000000 0.00000000 0.00000000 0.00000000
Neuron 144 3 0.12500000 4 1.00000000 0.00000000 0.00000000 0.00000000
Neuron 150 3 0.25000000 6 1.00000000 0.00000000 0.00000000 0.00000000
Neuron 155 3 0.18750000 9 1.00000000 0.00000000 0.00000000 0.00000000
Neuron 164 3 0.25000000 4 1.00000000 0.00000000 0.00000000 0.00000000
Neuron 177 3 0.25000000 9 1.00000000 0.00000000 0.00000000 0.00000000
Neuron 178 3 0.12500000 13 1.00000000 0.00000000 0.00000000 0.00000000
Link 2 10 1 0 0.28023612
Link 7 10 4 0 1.33473236
Link 1 11 5 0 1.68045899
Link 7 9 8 0 0.47036406
Link 12 11 11 0 1.61106895
Link 5 13 13 0 1.00000000
Link 13 10 14 0 -1.03050302
Link 5 8 15 0 0.82229773
Link 1 10 16 0 -0.06837866
Link 10 14 18 0 2.87574361
Link 14 8 19 0 -1.35222131
Link 3 10 23 0 0.23707353
Link 3 11 31 0 0.27827288
Link 18 8 43 0 -0.79790955
Link 11 25 79 0 1.00000000
Link 25 9 80 0 -1.23739033
Link 6 8 81 0 -0.04717012
Link 2 14 90 0 0.45739443
Link 4 27 92 0 1.00000000
Link 27 12 93 0 1.75199804
Link 1 12 94 0 -0.56164892
Link 7 12 95 0 0.14482647
Link 4 8 101 0 -0.24213246
Link 4 18 117 0 0.76585875
Link 1 9 119 0 -0.12170774
Link 10 18 124 0 -0.66657824
Link 6 12 136 0 -0.66975302
Link 12 18 146 0 0.33863442
Link 2 18 155 0 -0.04820263
Link 7 14 159 0 0.16800844
Link 5 35 162 0 1.38221521
Link 35 18 163 0 1.39450993
Link 1 41 188 0 1.38582665
Link 41 18 189 0 -1.18489376
Link 4 42 192 0 1.01274006
Link 42 8 193 0 -1.68952258
Link 41 12 197 0 -0.00409363
Link 7 41 201 0 0.18409985
Link 4 43 203 0 1.00000000
Link 43 41 204 0 -0.15296504
Link 46 41 214 0 0.02672990
Link 3 42 240 0 0.18963180
Link 3 54 252 0 1.00000000
Link 42 18 254 0 0.16970249
Link 42 14 258 0 -0.46377087
Link 18 42 295 0 -0.24302353
Link 67 46 349 0 1.00000000
Link 5 54 369 0 0.11917288
Link 71 35 377 0 -0.20539888
Link 54 18 380 0 -0.07350942
Link 5 43 381 0 0.39735622
Link 5 72 383 0 1.00000000
Link 72 42 384 0 0.15739594
Link 54 76 408 0 1.00000000
Link 76 41 409 0 0.04034541
Link 54 79 422 0 1.00000000
Link 79 42 423 0 0.08259985
Link 4 79 473 0 -0.14098846
Link 2 43 481 0 -0.24428941
Link 3 94 483 0 1.00000000
Link 94 71 484 0 1.00000000
Link 27 46 504 0 0.09919903
Link 71 46 511 0 -0.17894546
Link 43 12 520 0 0.02332997
Link 6 27 565 0 -0.17140946
Link 114 67 617 0 1.00000000
Link 43 72 638 0 0.02134251
Link 35 122 663 0 1.00000000
Link 122 46 664 0 -0.18223671
Link 71 67 712 0 0.23016025
Link 43 18 721 0 0.17693312
Link 54 12 748 0 0.08001967
Link 27 71 756 0 0.38703509
Link 13 46 759 0 0.25207962
Link 72 46 770 0 0.22774248
Link 79 9 790 0 -0.48934220
Link 1 122 796 0 -0.49793870
Link 3 144 803 0 1.00000000
Link 144 122 804 0 0.48950953
Link 122 150 828 0 1.00000000
Link 150 114 829 0 0.10847683
Link 54 155 856 0 1.00000000
Link 155 114 857 0 0.09528560
Link 114 46 869 0 0.75785846
Link 3 72 883 0 0.47393363
Link 43 71 887 0 -0.00864374
Link 12 164 912 0 1.00000000
Link 164 114 913 0 1.00000000
Link 6 122 941 0 0.21711280
Link 43 164 943 0 0.95934782
Link 7 72 948 0 -0.09047093
Link 76 155 977 0 -0.01572352
Link 114 177 1034 0 1.00000000
Link 177 164 1035 0 -0.31368614
Link 2 178 1037 0 1.00000000
Link 178 122 1038 0 -0.56184896
Link 43 122 1049 0 0.04489941
Link 27 76 1053 0 -0.26375518
Link 54 177 1065 0 0.48989933
Link 27 122 1147 0 0.24845494
Link 1 114 1156 0 0.58630477
Link 164 177 1173 0 0.65293174
Link 46 177 1188 0 0.34286833
GenomeEnd

