GenomeStart 50007
Neuron 1 1 0.00000000 1 0.00000000 0.00000000 0.00000000 0.00000000
Neuron 2 1 0.00000000 1 0.00000000 0.00000000 0.00000000 0.00000000
Neuron 3 1 0.00000000 1 0.00000000 0.00000000 0.00000000 0.00000000
Neuron 4 1 0.00000000 1 0.00000000 0.00000000 0.00000000 0.00000000
Neuron 5 1 0.00000000 1 0.00000000 0.00000000 0.00000000 0.00000000
Neuron 6 1 0.00000000 1 0.00000000 0.00000000 0.00000000 0.00000000
Neuron 7 2 0.00000000 1 0.00000000 0.00000000 0.00000000 0.00000000
Neuron 8 4 1.00000000 0 1.00000000 0.00000000 0.00000000 0.00000000
Neuron 9 4 1.00000000 5 1.00000000 0.00000000 0.00000000 0.00000000
Neuron 10 3 0.50000000 6 1.00000000 0.00000000 0.00000000 0.00000000
Neuron 11 3 0.50000000 6 1.00000000 0.00000000 0.00000000 0.00000000
Neuron 12 3 0.25000000 13 1.00000000 0.00000000 0.00000000 0.00000000
Neuron 14 3 0.75000000 6 1.00000000 0.00000000 0.00000000 0.00000000
Neuron 18 3 0.50000000 13 1.00000000 0.00000000 0.00000000 0.00000000
Neuron 24 3 0.25000000 8 1.00000000 0.00000000 0.00000000 0.00000000
Neuron 41 3 0.25000000 0 1.00000000 0.00000000 0.00000000 0.00000000
Neuron 42 3 0.50000000 0 1.00000000 0.00000000 0.00000000 0.00000000
Neuron 55 3 0.37500000 0 1.00000000 0.00000000 0.00000000 0.00000000
Neuron 60 3 0.25000000 8 1.00000000 0.00000000 0.00000000 0.00000000
Link 2 10 1 0 0.04516904
Link 5 10 2 0 -0.85410220
Link 7 10 4 0 1.11753433
Link 11 9 7 0 -1.60128515
Link 7 9 8 0 0.32921626
Link 4 12 10 0 1.96772608
Link 12 11 11 0 1.98302928
Link 5 8 15 0 -0.18484006
Link 10 14 18 0 2.74665690
Link 14 8 19 0 -1.81142566
Link 3 10 23 0 0.40860462
Link 5 18 42 0 0.67674631
Link 18 8 43 0 -1.29949069
Link 11 8 44 0 0.04505910
Link 1 24 75 0 1.00000000
Link 6 8 81 0 0.13936537
Link 2 14 90 0 0.25489724
Link 1 18 118 0 0.08226761
Link 10 18 124 0 -0.19381049
Link 6 12 136 0 0.17684996
Link 12 18 146 0 -0.15791695
Link 2 18 155 0 0.03634924
Link 7 14 159 0 0.11050800
Link 1 41 188 0 1.00000000
Link 41 18 189 0 -0.32215838
Link 12 41 190 0 0.19572581
Link 4 42 192 0 1.00000000
Link 42 8 193 0 -1.41269489
Link 3 41 195 0 0.10413727
Link 4 41 198 0 0.19824210
Link 5 41 199 0 0.38942506
Link 7 41 201 0 -0.34617245
Link 2 24 225 0 0.00858893
Link 12 42 237 0 0.64832103
Link 2 42 238 0 0.20023042
Link 41 24 250 0 -0.38951261
Link 42 18 254 0 0.25505317
Link 24 55 256 0 1.00000000
Link 55 11 257 0 1.71392247
Link 4 60 278 0 1.00000000
Link 60 18 279 0 0.11028589
Link 41 55 280 0 -0.08974851
Link 41 42 309 0 0.13513136
Link 6 24 325 0 0.20742210
Link 4 55 337 0 0.07047611
GenomeEnd

